{"learner":{"attributes":{"scikit_learn":"{\"_estimator_type\": \"classifier\"}"},"feature_names":[],"feature_types":[],"gradient_booster":{"model":{"cats":{"enc":[],"feature_segments":[],"sorted_idx":[]},"gbtree_model_param":{"num_parallel_tree":"1","num_trees":"50"},"iteration_indptr":[0,1,2,3,4,5,6,7,8,9,10,11,12,13,14,15,16,17,18,19,20,21,22,23,24,25,26,27,28,29,30,31,32,33,34,35,36,37,38,39,40,41,42,43,44,45,46,47,48,49,50],"tree_info":[0,0,0,0,0,0,0,0,0,0,0,0,0,0,0,0,0,0,0,0,0,0,0,0,0,0,0,0,0,0,0,0,0,0,0,0,0,0,0,0,0,0,0,0,0,0,0,0,0,0],"trees":[{"base_weights":[1.0062773E-7,1.1550001E0,-2.3082806E-1,-4.918337E-1,2.0697825E0,1.3014009E0,-3.6921635E-1,-8.607007E-2,3.8650975E-2,-6.8444155E-2,2.8483434E0,-7.155814E-2,2.5019202E-1,-4.5803723E-1,1.8794034E-1,5.128334E-2,3.557126E-1,4.9478978E-2,-7.012366E-2],"categories":[],"categories_nodes":[],"categories_segments":[],"categories_sizes":[],"default_left":[0,0,0,0,0,0,0,0,0,0,0,0,0,0,0,0,0,0,0],"id":0,"left_children":[1,3,5,7,9,11,13,-1,-1,-1,15,-1,-1,17,-1,-1,-1,-1,-1],"loss_changes":[1.6374302E1,1.6429276E1,1.1334444E1,1.7780658E0,1.6463833E1,1.2592824E1,1.0392954E1,0E0,0E0,0E0,7.231865E0,0E0,0E0,1.1172513E1,0E0,0E0,0E0,0E0,0E0],"parents":[2147483647,0,0,1,1,2,2,3,3,4,4,5,5,6,6,10,10,13,13],"right_children":[2,4,6,8,10,12,14,-1,-1,-1,16,-1,-1,18,-1,-1,-1,-1,-1],"split_conditions":[7.5E1,1.17E2,5.6E1,1.43E2,1.15E2,9.9E1,1.92E2,-8.607007E-2,3.8650975E-2,-6.8444155E-2,9.6E1,-7.155814E-2,2.5019202E-1,8.3E1,1.8794034E-1,5.128334E-2,3.557126E-1,4.9478978E-2,-7.012366E-2],"split_indices":[123,309,53,1,316,179,163,0,0,0,265,0,0,49,0,0,0,0,0],"split_type":[0,0,0,0,0,0,0,0,0,0,0,0,0,0,0,0,0,0,0],"sum_hessian":[5.9417477E1,9.229899E0,5.0187576E1,3.4612122E0,5.7686872E0,3.4612122E0,4.6726364E1,2.451692E0,1.0095203E0,1.2979546E0,4.4707327E0,1.4421718E0,2.0190406E0,4.5716846E1,1.0095203E0,1.4421718E0,3.0285606E0,9.085682E0,3.6631165E1],"tree_param":{"num_deleted":"0","num_feature":"384","num_nodes":"19","size_leaf_vector":"1"}},{"base_weights":[6.3219434E-3,9.967075E-1,-2.0728913E-1,-4.6624812E-1,1.7149867E0,-7.778062E-1,1.424051E-1,3.951436E-2,-8.412816E-2,-6.6318855E-2,2.2947176E0,2.5178578E-1,-1.0597482E0,-5.7884437E-1,6.1072594E-1,2.7950522E-1,-1.4564945E-2,-8.435988E-2,1.5818189E-1,-1.1185843E-1,-1.17684575E-2,1.2461676E-1,-8.540974E-2,2.2235357E-4,1.6154553E-1],"categories":[],"categories_nodes":[],"categories_segments":[],"categories_sizes":[],"default_left":[0,0,0,0,0,0,0,0,0,0,0,0,0,0,0,0,0,0,0,0,0,0,0,0,0],"id":1,"left_children":[1,3,5,7,9,11,13,-1,-1,-1,15,17,19,21,23,-1,-1,-1,-1,-1,-1,-1,-1,-1,-1],"loss_changes":[1.2908752E1,1.2174179E1,1.01293E1,1.7379457E0,1.1825972E1,5.851283E0,1.1155181E1,0E0,0E0,0E0,8.017818E0,8.536735E0,7.160759E-1,7.6465564E0,1.2148003E1,0E0,0E0,0E0,0E0,0E0,0E0,0E0,0E0,0E0,0E0],"parents":[2147483647,0,0,1,1,2,2,3,3,4,4,5,5,6,6,10,10,11,11,12,12,13,13,14,14],"right_children":[2,4,6,8,10,12,14,-1,-1,-1,16,18,20,22,24,-1,-1,-1,-1,-1,-1,-1,-1,-1,-1],"split_conditions":[7.5E1,1.17E2,1.35E2,8.1E1,1.15E2,1.1E2,2.01E2,3.951436E-2,-8.412816E-2,-6.6318855E-2,1.09E2,1.67E2,1.89E2,7.9E1,9.5E1,2.7950522E-1,-1.4564945E-2,-8.435988E-2,1.5818189E-1,-1.1185843E-1,-1.17684575E-2,1.2461676E-1,-8.540974E-2,2.2235357E-4,1.6154553E-1],"split_indices":[123,309,138,7,316,268,273,0,0,0,72,260,383,47,60,0,0,0,0,0,0,0,0,0,0],"split_type":[0,0,0,0,0,0,0,0,0,0,0,0,0,0,0,0,0,0,0,0,0,0,0,0,0],"sum_hessian":[5.9041153E1,9.824569E0,4.9216583E1,3.3507693E0,6.4737997E0,1.8237814E1,3.097877E1,1.0000931E0,2.350676E0,1.2406087E0,5.233191E0,3.9435966E0,1.4294217E1,1.2103093E1,1.8875677E1,4.222197E0,1.0109937E0,2.3631182E0,1.5804785E0,1.32775955E1,1.0166215E0,1.1239047E0,1.0979188E1,1.2380056E1,6.4956207E0],"tree_param":{"num_deleted":"0","num_feature":"384","num_nodes":"25","size_leaf_vector":"1"}},{"base_weights":[6.4659608E-3,8.633344E-1,-1.8966778E-1,-3.7362102E-1,1.5779122E0,1.2241678E0,-3.1192175E-1,8.37851E-2,-9.11001E-2,2.1908548E0,-3.774294E-2,2.1603158E-1,-6.491848E-2,-3.98269E-1,1.6420315E-1,2.5866097E-1,2.773343E-2,3.961439E-2,-6.2492337E-2],"categories":[],"categories_nodes":[],"categories_segments":[],"categories_sizes":[],"default_left":[0,0,0,0,0,0,0,0,0,0,0,0,0,0,0,0,0,0,0],"id":2,"left_children":[1,3,5,7,9,11,13,-1,-1,15,-1,-1,-1,17,-1,-1,-1,-1,-1],"loss_changes":[1.020583E1,1.0586234E1,8.92791E0,3.985674E0,9.64793E0,8.659607E0,8.466452E0,0E0,0E0,3.6373558E0,0E0,0E0,0E0,8.377132E0,0E0,0E0,0E0,0E0,0E0],"parents":[2147483647,0,0,1,1,2,2,3,3,4,4,5,5,6,6,9,9,13,13],"right_children":[2,4,6,8,10,12,14,-1,-1,16,-1,-1,-1,18,-1,-1,-1,-1,-1],"split_conditions":[7.5E1,9.8E1,5.4E1,9.7E1,1.43E2,1.12E2,1.92E2,8.37851E-2,-9.11001E-2,1.47E2,-3.774294E-2,2.1603158E-1,-6.491848E-2,8.3E1,1.6420315E-1,2.5866097E-1,2.773343E-2,3.961439E-2,-6.2492337E-2],"split_indices":[123,265,53,338,154,126,163,0,0,104,0,0,0,49,0,0,0,0,0],"split_type":[0,0,0,0,0,0,0,0,0,0,0,0,0,0,0,0,0,0,0],"sum_hessian":[5.875268E1,1.0309744E1,4.844294E1,3.9497514E0,6.3599925E0,3.1381168E0,4.5304825E1,1.0418527E0,2.9078987E0,4.7504263E0,1.609566E0,1.9903309E0,1.1477859E0,4.4149963E1,1.1548609E0,3.644844E0,1.1055822E0,9.634323E0,3.451564E1],"tree_param":{"num_deleted":"0","num_feature":"384","num_nodes":"19","size_leaf_vector":"1"}},{"base_weights":[1.232801E-2,-6.604286E-1,2.4114072E-1,-8.773734E-1,6.29276E-2,5.436685E-1,-4.7846037E-1,4.6826243E-2,-1.0795765E-1,1.0157484E0,-1.3654427E-1,1.23486035E-1,-7.2373855E-1,-8.144286E-2,1.2972921E-1,-8.0186695E-2,6.4661294E-2,8.298608E-2,-9.326817E-2],"categories":[],"categories_nodes":[],"categories_segments":[],"categories_sizes":[],"default_left":[0,0,0,0,0,0,0,0,0,0,0,0,0,0,0,0,0,0,0],"id":3,"left_children":[1,3,5,7,-1,9,11,-1,-1,13,15,-1,17,-1,-1,-1,-1,-1,-1],"loss_changes":[9.262049E0,4.8260527E0,1.0025813E1,4.176976E0,0E0,1.0430279E1,6.6968393E0,0E0,0E0,1.0866219E1,7.819377E0,0E0,4.8999095E0,0E0,0E0,0E0,0E0,0E0,0E0],"parents":[2147483647,0,0,1,1,2,2,3,3,5,5,6,6,9,9,10,10,12,12],"right_children":[2,4,6,8,-1,10,12,-1,-1,14,16,-1,18,-1,-1,-1,-1,-1,-1],"split_conditions":[1.28E2,1.59E2,1.7E2,7.8E1,6.29276E-2,1.46E2,4.6E1,4.6826243E-2,-1.0795765E-1,7.1E1,1.48E2,1.23486035E-1,5.7E1,-8.144286E-2,1.2972921E-1,-8.0186695E-2,6.4661294E-2,8.298608E-2,-9.326817E-2],"split_indices":[138,192,153,323,0,78,333,0,0,133,16,0,135,0,0,0,0,0,0],"split_type":[0,0,0,0,0,0,0,0,0,0,0,0,0,0,0,0,0,0,0],"sum_hessian":[5.8133896E1,1.4275284E1,4.3858612E1,1.2493439E1,1.7818459E0,3.1049545E1,1.2809065E1,1.4601985E0,1.103324E1,1.8037745E1,1.3011801E1,1.0988477E0,1.1710217E1,2.1525228E0,1.5885222E1,7.0222416E0,5.989559E0,1.0359195E0,1.0674298E1],"tree_param":{"num_deleted":"0","num_feature":"384","num_nodes":"19","size_leaf_vector":"1"}},{"base_weights":[1.0401889E-2,3.0262244E-1,-4.3624783E-1,-1.6942385E-1,8.7997013E-1,5.3827846E-1,-7.490809E-1,-4.3360236E-1,1.8190895E-1,1.3434178E0,-3.9907828E-1,-3.1216955E-1,1.9123416E-1,3.5874325E-1,-9.802912E-1,4.69253E-2,-7.7726625E-2,1.740256E-1,-4.7091406E-2,-9.0057954E-2,8.365696E-2,8.7686375E-2,-8.728235E-2,1.5497737E-1,-7.475573E-2,8.265575E-3,-1.09948866E-1],"categories":[],"categories_nodes":[],"categories_segments":[],"categories_sizes":[],"default_left":[0,0,0,0,0,0,0,0,0,0,0,0,0,0,0,0,0,0,0,0,0,0,0,0,0,0,0],"id":4,"left_children":[1,3,5,7,9,11,13,15,-1,17,19,21,-1,23,25,-1,-1,-1,-1,-1,-1,-1,-1,-1,-1,-1,-1],"loss_changes":[7.816597E0,1.0009808E1,7.6269774E0,1.1686376E1,1.0279453E1,8.005533E0,5.053176E0,6.2970667E0,0E0,9.67131E0,3.9401917E0,3.949033E0,0E0,6.299263E0,2.048873E0,0E0,0E0,0E0,0E0,0E0,0E0,0E0,0E0,0E0,0E0,0E0,0E0],"parents":[2147483647,0,0,1,1,2,2,3,3,4,4,5,5,6,6,7,7,9,9,10,10,11,11,13,13,14,14],"right_children":[2,4,6,8,10,12,14,16,-1,18,20,22,-1,24,26,-1,-1,-1,-1,-1,-1,-1,-1,-1,-1,-1,-1],"split_conditions":[1.49E2,1.51E2,9.2E1,1.29E2,1.04E2,1.53E2,1.03E2,5.7E1,1.8190895E-1,1.57E2,2.04E2,1.26E2,1.9123416E-1,1.33E2,1.1E2,4.69253E-2,-7.7726625E-2,1.740256E-1,-4.7091406E-2,-9.0057954E-2,8.365696E-2,8.7686375E-2,-8.728235E-2,1.5497737E-1,-7.475573E-2,8.265575E-3,-1.09948866E-1],"split_indices":[304,27,324,380,277,129,54,7,0,24,127,360,0,102,226,0,0,0,0,0,0,0,0,0,0,0,0],"split_type":[0,0,0,0,0,0,0,0,0,0,0,0,0,0,0,0,0,0,0,0,0,0,0,0,0,0,0],"sum_hessian":[5.7876537E1,3.5181503E1,2.2695034E1,1.9744617E1,1.5436885E1,5.3398542E0,1.735518E1,1.8119366E1,1.6252526E0,1.129423E1,4.142654E0,3.7757466E0,1.5641078E0,2.9014666E0,1.4453713E1,4.8947353E0,1.3224629E1,9.300758E0,1.9934721E0,3.1395864E0,1.0030674E0,1.0291426E0,2.746604E0,1.2041892E0,1.6972773E0,1.4883013E0,1.2965412E1],"tree_param":{"num_deleted":"0","num_feature":"384","num_nodes":"27","size_leaf_vector":"1"}},{"base_weights":[1.3259881E-2,-4.856692E-1,2.6297528E-1,-7.5762784E-1,8.0531245E-1,-3.6937532E-1,5.972814E-1,3.3964664E-1,-9.5205176E-1,-6.1239213E-2,1.6005583E-1,-7.099831E-1,1.2676659E-1,-7.817668E-2,1.2531013E0,-6.38354E-2,1.21887885E-1,6.9204704E-3,-1.07726336E-1,-9.7986035E-2,7.129698E-2,1.0337161E-1,-6.843606E-2,-7.698692E-2,1.6432402E-1],"categories":[],"categories_nodes":[],"categories_segments":[],"categories_sizes":[],"default_left":[0,0,0,0,0,0,0,0,0,0,0,0,0,0,0,0,0,0,0,0,0,0,0,0,0],"id":5,"left_children":[1,3,5,7,9,11,13,15,17,-1,-1,19,-1,21,23,-1,-1,-1,-1,-1,-1,-1,-1,-1,-1],"loss_changes":[7.388077E0,7.557887E0,8.56769E0,3.9203844E0,5.4088073E0,8.858638E0,1.1709192E1,3.594137E0,1.9396973E0,0E0,0E0,5.4819937E0,0E0,1.00450535E1,1.1807663E1,0E0,0E0,0E0,0E0,0E0,0E0,0E0,0E0,0E0,0E0],"parents":[2147483647,0,0,1,1,2,2,3,3,4,4,5,5,6,6,7,7,8,8,11,11,13,13,14,14],"right_children":[2,4,6,8,10,12,14,16,18,-1,-1,20,-1,22,24,-1,-1,-1,-1,-1,-1,-1,-1,-1,-1],"split_conditions":[1.35E2,1.84E2,2.01E2,8.7E1,1.23E2,1.84E2,9.7E1,1.22E2,9.7E1,-6.1239213E-2,1.6005583E-1,1.75E2,1.2676659E-1,1.23E2,1.39E2,-6.38354E-2,1.21887885E-1,6.9204704E-3,-1.07726336E-1,-9.7986035E-2,7.129698E-2,1.0337161E-1,-6.843606E-2,-7.698692E-2,1.6432402E-1],"split_indices":[138,46,273,321,103,201,335,312,268,0,0,147,0,264,120,0,0,0,0,0,0,0,0,0,0],"split_type":[0,0,0,0,0,0,0,0,0,0,0,0,0,0,0,0,0,0,0,0,0,0,0,0,0],"sum_hessian":[5.7273872E1,1.878891E1,3.8484962E1,1.58608055E1,2.9281049E0,1.3273265E1,2.5211699E1,2.2749095E0,1.3585896E1,1.1348726E0,1.7932323E0,1.14559965E1,1.8172686E0,1.2853797E1,1.2357902E1,1.2066618E0,1.0682477E0,1.532637E0,1.2053259E1,9.891386E0,1.5646102E0,4.2863235E0,8.567473E0,1.8405987E0,1.05173025E1],"tree_param":{"num_deleted":"0","num_feature":"384","num_nodes":"25","size_leaf_vector":"1"}},{"base_weights":[1.3264562E-2,-7.950408E-1,1.4912026E-1,-9.995452E-2,3.4203295E-2,3.0787137E-1,-6.843661E-1,-2.6356953E-1,5.748342E-1,6.716503E-2,-1.0051022E-1,-6.7180656E-2,8.758795E-2,-7.575936E-2,7.9472445E-2],"categories":[],"categories_nodes":[],"categories_segments":[],"categories_sizes":[],"default_left":[0,0,0,0,0,0,0,0,0,0,0,0,0,0,0],"id":6,"left_children":[1,3,5,-1,-1,7,9,11,13,-1,-1,-1,-1,-1,-1],"loss_changes":[6.44491E0,2.3062325E0,6.8480835E0,0E0,0E0,6.68489E0,4.3005886E0,7.2507315E0,9.246495E0,0E0,0E0,0E0,0E0,0E0,0E0],"parents":[2147483647,0,0,1,1,2,2,5,5,6,6,7,7,8,8],"right_children":[2,4,6,-1,-1,8,10,12,14,-1,-1,-1,-1,-1,-1],"split_conditions":[1.74E2,1.69E2,1.81E2,-9.995452E-2,3.4203295E-2,1E2,9.4E1,1.29E2,6.6E1,6.716503E-2,-1.0051022E-1,-6.7180656E-2,8.758795E-2,-7.575936E-2,7.9472445E-2],"split_indices":[127,293,153,0,0,240,22,65,33,0,0,0,0,0,0],"split_type":[0,0,0,0,0,0,0,0,0,0,0,0,0,0,0],"sum_hessian":[5.6610306E1,7.447509E0,4.91628E1,6.414755E0,1.0327537E0,4.1826817E1,7.33598E0,1.3322459E1,2.8504358E1,1.1939743E0,6.142006E0,1.01105175E1,3.2119422E0,3.6913345E0,2.4813025E1],"tree_param":{"num_deleted":"0","num_feature":"384","num_nodes":"15","size_leaf_vector":"1"}},{"base_weights":[8.616874E-3,-5.821047E-1,1.8431899E-1,-9.3496233E-1,2.2865652E-1,8.733092E-1,-3.7086133E-2,-1.5804328E-2,-1.00754716E-1,1.24006905E-1,-5.614858E-1,1.5684032E0,-3.8276652E-1,1.0155127E0,-2.0866099E-1,-6.806367E-2,-1.395153E-2,4.166898E-3,2.1875396E-1,-8.759215E-2,6.9802925E-2,1.6248521E-1,-6.49198E-2,-3.802749E-2,1.1244638E-1],"categories":[],"categories_nodes":[],"categories_segments":[],"categories_sizes":[],"default_left":[0,0,0,0,0,0,0,0,0,0,0,0,0,0,0,0,0,0,0,0,0,0,0,0,0],"id":7,"left_children":[1,3,5,7,9,11,13,-1,-1,-1,15,17,19,21,23,-1,-1,-1,-1,-1,-1,-1,-1,-1,-1],"loss_changes":[6.066895E0,4.0483913E0,6.899309E0,3.785076E-1,4.5866623E0,1.0194147E1,6.5377717E0,0E0,0E0,0E0,7.705915E-2,6.780838E0,3.126306E0,6.207558E0,7.5078354E0,0E0,0E0,0E0,0E0,0E0,0E0,0E0,0E0,0E0,0E0],"parents":[2147483647,0,0,1,1,2,2,3,3,4,4,5,5,6,6,10,10,11,11,12,12,13,13,14,14],"right_children":[2,4,6,8,10,12,14,-1,-1,-1,16,18,20,22,24,-1,-1,-1,-1,-1,-1,-1,-1,-1,-1],"split_conditions":[1.28E2,1.7E2,9.8E1,6.7E1,1.01E2,1.22E2,5.4E1,-1.5804328E-2,-1.00754716E-1,1.24006905E-1,1.42E2,1.05E2,1.63E2,1.5E2,1.74E2,-6.806367E-2,-1.395153E-2,4.166898E-3,2.1875396E-1,-8.759215E-2,6.9802925E-2,1.6248521E-1,-6.49198E-2,-3.802749E-2,1.1244638E-1],"split_indices":[138,260,329,289,271,335,53,0,0,0,266,275,27,320,186,0,0,0,0,0,0,0,0,0,0],"split_type":[0,0,0,0,0,0,0,0,0,0,0,0,0,0,0,0,0,0,0,0,0,0,0,0,0],"sum_hessian":[5.641924E1,1.2403814E1,4.4015423E1,8.535726E0,3.8680892E0,9.988338E0,3.4027084E1,1.0008101E0,7.534915E0,1.4467582E0,2.4213312E0,6.269973E0,3.7183652E0,4.079694E0,2.9947392E1,1.4101534E0,1.0111777E0,2.116984E0,4.152989E0,2.6834817E0,1.0348836E0,3.0040538E0,1.0756401E0,2.7165155E1,2.7822368E0],"tree_param":{"num_deleted":"0","num_feature":"384","num_nodes":"25","size_leaf_vector":"1"}},{"base_weights":[1.0969167E-2,2.5599054E-1,-3.7809736E-1,4.188272E-1,-9.0915784E-2,-6.312259E-1,4.6319935E-1,-2.2879246E-1,7.2413707E-1,2.230346E-1,-9.389904E-1,-4.145043E-1,1.525227E-1,-9.729005E-2,5.2948803E-2,1.8530427E-1,3.2158602E-2,1.2930968E-1,-6.3306235E-2,-1.07421674E-1,2.9593706E-2,3.240865E-2,-7.796376E-2],"categories":[],"categories_nodes":[],"categories_segments":[],"categories_sizes":[],"default_left":[0,0,0,0,0,0,0,0,0,0,0,0,0,0,0,0,0,0,0,0,0,0,0],"id":8,"left_children":[1,3,5,7,-1,9,11,13,15,17,19,21,-1,-1,-1,-1,-1,-1,-1,-1,-1,-1,-1],"loss_changes":[5.508516E0,7.1026106E0,5.0498185E0,6.4471903E0,0E0,4.835668E0,5.9862275E0,6.6870494E0,9.324827E0,5.8281374E0,2.5101662E0,1.3128217E0,0E0,0E0,0E0,0E0,0E0,0E0,0E0,0E0,0E0,0E0,0E0],"parents":[2147483647,0,0,1,1,2,2,3,3,5,5,6,6,7,7,8,8,9,9,10,10,11,11],"right_children":[2,4,6,8,-1,10,12,14,16,18,20,22,-1,-1,-1,-1,-1,-1,-1,-1,-1,-1,-1],"split_conditions":[1.66E2,1.33E2,1.42E2,9.8E1,-9.0915784E-2,1.2E2,1.61E2,1.07E2,6.5E1,1E2,1.57E2,1.19E2,1.525227E-1,-9.729005E-2,5.2948803E-2,1.8530427E-1,3.2158602E-2,1.2930968E-1,-6.3306235E-2,-1.07421674E-1,2.9593706E-2,3.240865E-2,-7.796376E-2],"split_indices":[119,33,48,265,0,209,142,281,305,375,216,41,0,0,0,0,0,0,0,0,0,0,0],"split_type":[0,0,0,0,0,0,0,0,0,0,0,0,0,0,0,0,0,0,0,0,0,0,0],"sum_hessian":[5.5768578E1,3.4428608E1,2.1339972E1,3.076899E1,3.6596186E0,1.6596216E1,4.7437544E0,9.938398E0,2.0830591E1,4.468456E0,1.2127761E1,2.931087E0,1.8126671E0,4.873223E0,5.065176E0,4.5282936E0,1.6302298E1,1.7591649E0,2.7092907E0,1.1048115E1,1.0796467E0,1.0068496E0,1.9242375E0],"tree_param":{"num_deleted":"0","num_feature":"384","num_nodes":"23","size_leaf_vector":"1"}},{"base_weights":[1.0829949E-2,1.3618167E-1,-6.931289E-1,-3.8193616E-1,3.8274798E-1,7.262125E-2,-1.0003141E-1,-6.662772E-1,6.7878306E-1,-4.716739E-1,6.926356E-1,8.045509E-2,-8.60882E-2,1.35879E-1,-5.9851814E-2,-1.0003915E-1,7.3535636E-2,-6.49553E-2,8.91675E-2],"categories":[],"categories_nodes":[],"categories_segments":[],"categories_sizes":[],"default_left":[0,0,0,0,0,0,0,0,0,0,0,0,0,0,0,0,0,0,0],"id":9,"left_children":[1,3,5,7,9,-1,-1,11,13,15,17,-1,-1,-1,-1,-1,-1,-1,-1],"loss_changes":[5.04639E0,6.338443E0,4.496347E0,5.3171005E0,9.154752E0,0E0,0E0,4.477919E0,4.2051554E0,6.7785444E0,7.2239075E0,0E0,0E0,0E0,0E0,0E0,0E0,0E0,0E0],"parents":[2147483647,0,0,1,1,2,2,3,3,4,4,7,7,8,8,9,9,10,10],"right_children":[2,4,6,8,10,-1,-1,12,14,16,18,-1,-1,-1,-1,-1,-1,-1,-1],"split_conditions":[1.56E2,1.42E2,8.2E1,1.52E2,8E1,7.262125E-2,-1.0003141E-1,8.3E1,1.16E2,1.21E2,8.3E1,8.045509E-2,-8.60882E-2,1.35879E-1,-5.9851814E-2,-1.0003915E-1,7.3535636E-2,-6.49553E-2,8.91675E-2],"split_indices":[347,152,285,224,133,0,0,287,302,335,173,0,0,0,0,0,0,0,0],"split_type":[0,0,0,0,0,0,0,0,0,0,0,0,0,0,0,0,0,0,0],"sum_hessian":[5.51181E1,4.747154E1,7.646559E0,1.5129792E1,3.2341747E1,1.1177837E0,6.528775E0,1.2224659E1,2.9051332E0,8.4689865E0,2.387276E1,1.0622052E0,1.1162455E1,1.8542004E0,1.0509328E0,6.008339E0,2.4606476E0,2.7907002E0,2.1082062E1],"tree_param":{"num_deleted":"0","num_feature":"384","num_nodes":"19","size_leaf_vector":"1"}},{"base_weights":[8.264801E-3,2.3238353E-1,-3.6721817E-1,-6.143887E-1,4.2770547E-1,5.2112085E-1,-6.8604463E-1,4.193475E-2,-9.5654726E-2,-4.2497292E-1,7.381926E-1,1.2503343E0,-5.371977E-1,3.067863E-1,-9.2182964E-1,7.597756E-2,-8.703011E-2,1.8048042E-1,3.9703716E-2,1.8572274E-1,4.371536E-3,-1.4176309E-2,-6.5305114E-2,1.1530292E-1,-6.7151405E-2,-1.0560037E-1,1.1117776E-2],"categories":[],"categories_nodes":[],"categories_segments":[],"categories_sizes":[],"default_left":[0,0,0,0,0,0,0,0,0,0,0,0,0,0,0,0,0,0,0,0,0,0,0,0,0,0,0],"id":10,"left_children":[1,3,5,7,9,11,13,-1,-1,15,17,19,21,23,25,-1,-1,-1,-1,-1,-1,-1,-1,-1,-1,-1,-1],"loss_changes":[4.76085E0,6.1185503E0,6.3490696E0,2.8934815E0,8.086291E0,5.4221296E0,4.028127E0,0E0,0E0,5.130779E0,7.247758E0,2.8076386E0,5.4506004E-2,3.9373708E0,1.9439754E0,0E0,0E0,0E0,0E0,0E0,0E0,0E0,0E0,0E0,0E0,0E0,0E0],"parents":[2147483647,0,0,1,1,2,2,3,3,4,4,5,5,6,6,9,9,10,10,11,11,12,12,13,13,14,14],"right_children":[2,4,6,8,10,12,14,-1,-1,16,18,20,22,24,26,-1,-1,-1,-1,-1,-1,-1,-1,-1,-1,-1,-1],"split_conditions":[1.49E2,1.3E2,9.2E1,1.4E2,9.6E1,1.24E2,1.03E2,4.193475E-2,-9.5654726E-2,1.13E2,9.7E1,9E1,1.27E2,1.33E2,1.65E2,7.597756E-2,-8.703011E-2,1.8048042E-1,3.9703716E-2,1.8572274E-1,4.371536E-3,-1.4176309E-2,-6.5305114E-2,1.1530292E-1,-6.7151405E-2,-1.0560037E-1,1.1117776E-2],"split_indices":[304,274,324,246,6,121,54,0,0,178,287,23,301,102,219,0,0,0,0,0,0,0,0,0,0,0,0],"split_type":[0,0,0,0,0,0,0,0,0,0,0,0,0,0,0,0,0,0,0,0,0,0,0,0,0,0,0],"sum_hessian":[5.4559845E1,3.440516E1,2.0154688E1,6.046493E0,2.8358665E1,5.1555095E0,1.4999178E1,1.4475454E0,4.598948E0,7.4714346E0,2.0887232E1,2.9449296E0,2.2105799E0,2.8207188E0,1.2178459E1,1.8482524E0,5.6231823E0,4.0220747E0,1.6865156E1,1.6006508E0,1.3442789E0,1.0047561E0,1.2058238E0,1.4166731E0,1.4040456E0,1.0758774E1,1.419685E0],"tree_param":{"num_deleted":"0","num_feature":"384","num_nodes":"27","size_leaf_vector":"1"}},{"base_weights":[9.257469E-3,-4.1675603E-1,1.994682E-1,-6.8704045E-1,6.9412863E-1,3.2304215E-1,-8.7054096E-2,2.8384745E-1,-8.8685757E-1,-2.57523E-2,1.2479726E-1,-1.4193572E-1,6.9737583E-1,-6.018293E-2,1.0498762E-1,-1.0244351E-1,8.911791E-3,5.936731E-2,-6.9764934E-2,9.90787E-2,-4.2080164E-2],"categories":[],"categories_nodes":[],"categories_segments":[],"categories_sizes":[],"default_left":[0,0,0,0,0,0,0,0,0,0,0,0,0,0,0,0,0,0,0,0,0],"id":11,"left_children":[1,3,5,7,9,11,-1,13,15,-1,-1,17,19,-1,-1,-1,-1,-1,-1,-1,-1],"loss_changes":[4.526282E0,5.655902E0,5.382886E0,3.0406432E0,2.3626451E0,6.2463045E0,0E0,2.8105125E0,1.7246647E0,0E0,0E0,7.192982E0,6.89176E0,0E0,0E0,0E0,0E0,0E0,0E0,0E0,0E0],"parents":[2147483647,0,0,1,1,2,2,3,3,4,4,5,5,7,7,8,8,11,11,12,12],"right_children":[2,4,6,8,10,12,-1,14,16,-1,-1,18,20,-1,-1,-1,-1,-1,-1,-1,-1],"split_conditions":[1.35E2,1.84E2,1.24E2,8.7E1,1.29E2,1.25E2,-8.7054096E-2,1.24E2,1.65E2,-2.57523E-2,1.2479726E-1,1.23E2,1.42E2,-6.018293E-2,1.0498762E-1,-1.0244351E-1,8.911791E-3,5.936731E-2,-6.9764934E-2,9.90787E-2,-4.2080164E-2],"split_indices":[138,46,168,321,344,37,0,312,158,0,0,362,221,0,0,0,0,0,0,0,0],"split_type":[0,0,0,0,0,0,0,0,0,0,0,0,0,0,0,0,0,0,0,0,0],"sum_hessian":[5.3831833E1,1.6248707E1,3.7583126E1,1.3375831E1,2.8728764E0,3.4317894E1,3.2652347E0,2.2112226E0,1.1164608E1,1.2537042E0,1.6191722E0,1.55827E1,1.8735193E1,1.1249338E0,1.0862887E0,9.741723E0,1.4228855E0,6.676535E0,8.906165E0,1.4931164E1,3.804029E0],"tree_param":{"num_deleted":"0","num_feature":"384","num_nodes":"21","size_leaf_vector":"1"}},{"base_weights":[6.695179E-3,-7.13913E-1,1.1130525E-1,2.947249E-2,-9.352004E-2,2.2452667E-1,-6.728815E-1,-2.5378966E-1,4.554275E-1,2.956796E-2,-9.206373E-2,-5.936193E-2,6.512543E-2,1.1943225E-1,1.1606916E-2],"categories":[],"categories_nodes":[],"categories_segments":[],"categories_sizes":[],"default_left":[0,0,0,0,0,0,0,0,0,0,0,0,0,0,0],"id":12,"left_children":[1,3,5,-1,-1,7,9,11,13,-1,-1,-1,-1,-1,-1],"loss_changes":[4.160235E0,1.837405E0,4.4249797E0,0E0,0E0,4.8440433E0,1.789608E0,4.871126E0,7.1914034E0,0E0,0E0,0E0,0E0,0E0,0E0],"parents":[2147483647,0,0,1,1,2,2,5,5,6,6,7,7,8,8],"right_children":[2,4,6,-1,-1,8,10,12,14,-1,-1,-1,-1,-1,-1],"split_conditions":[1.74E2,1.19E2,1.83E2,2.947249E-2,-9.352004E-2,1E2,9.2E1,1.99E2,7.6E1,2.956796E-2,-9.206373E-2,-5.936193E-2,6.512543E-2,1.1943225E-1,1.1606916E-2],"split_indices":[127,150,153,0,0,265,238,234,305,0,0,0,0,0,0],"split_type":[0,0,0,0,0,0,0,0,0,0,0,0,0,0,0],"sum_hessian":[5.313395E1,5.9972534E0,4.7136696E1,1.0193126E0,4.977941E0,4.181334E1,5.3233566E0,1.35809555E1,2.8232386E1,1.0449322E0,4.2784243E0,1.0123748E1,3.4572074E0,8.092654E0,2.013973E1],"tree_param":{"num_deleted":"0","num_feature":"384","num_nodes":"15","size_leaf_vector":"1"}},{"base_weights":[5.1210267E-3,3.5440364E-1,-2.0706236E-1,-1.6831228E-1,9.962036E-1,-3.641755E-1,7.9216844E-1,8.8682824E-1,-8.231259E-1,1.3356705E0,-6.474992E-2,9.908962E-2,-7.3108685E-1,1.2409915E0,-3.044853E-2,-6.1150678E-2,1.4556731E-1,-9.991001E-2,1.8737694E-2,1.6317384E-1,-2.3394106E-2,1.1191976E-1,-3.1308774E-2,-8.677488E-2,6.675082E-2,1.5591952E-1,2.2917716E-2],"categories":[],"categories_nodes":[],"categories_segments":[],"categories_sizes":[],"default_left":[0,0,0,0,0,0,0,0,0,0,0,0,0,0,0,0,0,0,0,0,0,0,0,0,0,0,0],"id":13,"left_children":[1,3,5,7,9,11,13,15,17,19,-1,21,23,25,-1,-1,-1,-1,-1,-1,-1,-1,-1,-1,-1,-1,-1],"loss_changes":[4.0468726E0,7.0887012E0,5.623775E0,9.176779E0,6.112586E0,5.1805925E0,2.8056154E0,5.2906914E0,1.6208906E0,4.155876E0,0E0,6.3053093E0,3.8073654E0,8.3296824E-1,0E0,0E0,0E0,0E0,0E0,0E0,0E0,0E0,0E0,0E0,0E0,0E0,0E0],"parents":[2147483647,0,0,1,1,2,2,3,3,4,4,5,5,6,6,7,7,8,8,9,9,11,11,12,12,13,13],"right_children":[2,4,6,8,10,12,14,16,18,20,-1,22,24,26,-1,-1,-1,-1,-1,-1,-1,-1,-1,-1,-1,-1,-1],"split_conditions":[1.38E2,8.4E1,1.56E2,1.18E2,9.9E1,9.7E1,1.21E2,1.23E2,1.7E2,1.93E2,-6.474992E-2,7.5E1,1.71E2,1.1E2,-3.044853E-2,-6.1150678E-2,1.4556731E-1,-9.991001E-2,1.8737694E-2,1.6317384E-1,-2.3394106E-2,1.1191976E-1,-3.1308774E-2,-8.677488E-2,6.675082E-2,1.5591952E-1,2.2917716E-2],"split_indices":[150,71,192,209,258,255,64,205,124,202,0,123,350,176,0,0,0,0,0,0,0,0,0,0,0,0,0],"split_type":[0,0,0,0,0,0,0,0,0,0,0,0,0,0,0,0,0,0,0,0,0,0,0,0,0,0,0],"sum_hessian":[5.2614674E1,1.9630287E1,3.2984383E1,1.1225442E1,8.404846E0,2.905197E1,3.9324157E0,4.1630106E0,7.062431E0,7.121479E0,1.283367E0,1.3162645E1,1.5889324E1,2.6970062E0,1.2354095E0,1.1249362E0,3.0380745E0,6.0245657E0,1.037865E0,5.9580593E0,1.1634196E0,3.2942626E0,9.868382E0,1.4820696E1,1.0686284E0,1.6401949E0,1.0568112E0],"tree_param":{"num_deleted":"0","num_feature":"384","num_nodes":"27","size_leaf_vector":"1"}},{"base_weights":[8.271508E-3,-2.820683E-1,2.4531846E-1,-8.040137E-1,1.2189902E-1,-3.2415065E-1,5.726599E-1,4.7363717E-2,-1.0212654E-1,-4.8553067E-1,7.756066E-1,-9.6491724E-2,3.39843E-1,-9.996987E-2,9.9057424E-1,-8.642062E-2,6.9004215E-2,1.1346763E-1,-6.289739E-2,-7.570796E-2,1.01667404E-1,8.827762E-2,-6.7503534E-2,1.3233672E-1,-3.754944E-3],"categories":[],"categories_nodes":[],"categories_segments":[],"categories_sizes":[],"default_left":[0,0,0,0,0,0,0,0,0,0,0,0,0,0,0,0,0,0,0,0,0,0,0,0,0],"id":14,"left_children":[1,3,5,7,9,11,13,-1,-1,15,17,-1,19,21,23,-1,-1,-1,-1,-1,-1,-1,-1,-1,-1],"loss_changes":[3.6762624E0,5.163033E0,5.6638336E0,3.4293742E0,6.098445E0,5.1634502E0,5.44629E0,0E0,0E0,4.195148E0,4.4082456E0,0E0,5.462624E0,5.2289915E0,4.095454E0,0E0,0E0,0E0,0E0,0E0,0E0,0E0,0E0,0E0,0E0],"parents":[2147483647,0,0,1,1,2,2,3,3,4,4,5,5,6,6,9,9,10,10,12,12,13,13,14,14],"right_children":[2,4,6,8,10,12,14,-1,-1,16,18,-1,20,22,24,-1,-1,-1,-1,-1,-1,-1,-1,-1,-1],"split_conditions":[1.29E2,1.13E2,1E2,9E1,1.59E2,1.59E2,1.7E2,4.7363717E-2,-1.0212654E-1,1.34E2,1.67E2,-9.6491724E-2,1.07E2,1.43E2,1.64E2,-8.642062E-2,6.9004215E-2,1.1346763E-1,-6.289739E-2,-7.570796E-2,1.01667404E-1,8.827762E-2,-6.7503534E-2,1.3233672E-1,-3.754944E-3],"split_indices":[74,165,265,340,294,151,118,0,0,65,107,0,189,118,360,0,0,0,0,0,0,0,0,0,0],"split_type":[0,0,0,0,0,0,0,0,0,0,0,0,0,0,0,0,0,0,0,0,0,0,0,0,0],"sum_hessian":[5.140987E1,2.3022062E1,2.8387808E1,9.612262E0,1.34098015E1,1.0365284E1,1.8022524E1,1.2254274E0,8.386834E0,7.084293E0,6.325509E0,5.044267E0,5.321017E0,7.198072E0,1.08244505E1,5.558615E0,1.5256776E0,5.1907067E0,1.1348022E0,1.9851578E0,3.335859E0,2.4596379E0,4.7384343E0,7.9605393E0,2.8639114E0],"tree_param":{"num_deleted":"0","num_feature":"384","num_nodes":"25","size_leaf_vector":"1"}},{"base_weights":[6.517176E-3,-5.0181395E-1,1.376582E-1,-8.6395967E-1,1.7883974E-1,-2.4893132E-1,3.8398746E-1,-9.2202485E-2,-2.5600463E-2,-6.644304E-2,7.887785E-1,-6.5049845E-1,4.8707935E-1,1.5209246E-1,1.2503066E0,1.0758551E-1,1.2753295E-2,-8.747625E-2,4.225374E-2,1.1637062E-1,-3.8638864E-2,8.88189E-2,-1.6132524E-2,9.817E-3,1.557905E-1],"categories":[],"categories_nodes":[],"categories_segments":[],"categories_sizes":[],"default_left":[0,0,0,0,0,0,0,0,0,0,0,0,0,0,0,0,0,0,0,0,0,0,0,0,0],"id":15,"left_children":[1,3,5,7,9,11,13,-1,-1,-1,15,17,19,21,23,-1,-1,-1,-1,-1,-1,-1,-1,-1,-1],"loss_changes":[3.4922369E0,2.8033552E0,4.057479E0,1.7616749E-2,2.8696969E0,5.281873E0,4.9939957E0,0E0,0E0,0E0,4.519304E-1,3.0881667E0,4.2923155E0,5.1022677E0,1.729063E0,0E0,0E0,0E0,0E0,0E0,0E0,0E0,0E0,0E0,0E0],"parents":[2147483647,0,0,1,1,2,2,3,3,4,4,5,5,6,6,10,10,11,11,12,12,13,13,14,14],"right_children":[2,4,6,8,10,12,14,-1,-1,-1,16,18,20,22,24,-1,-1,-1,-1,-1,-1,-1,-1,-1,-1],"split_conditions":[1.28E2,1.7E2,1.41E2,1.52E2,9.7E1,1.6E2,1.34E2,-9.2202485E-2,-2.5600463E-2,-6.644304E-2,8.4E1,1.64E2,1.01E2,1.04E2,1.29E2,1.0758551E-1,1.2753295E-2,-8.747625E-2,4.225374E-2,1.1637062E-1,-3.8638864E-2,8.88189E-2,-1.6132524E-2,9.817E-3,1.557905E-1],"split_indices":[138,260,353,296,228,147,65,0,0,0,378,95,241,302,272,0,0,0,0,0,0,0,0,0,0],"split_type":[0,0,0,0,0,0,0,0,0,0,0,0,0,0,0,0,0,0,0,0,0,0,0,0,0],"sum_hessian":[5.0350147E1,9.746002E0,4.0604145E1,6.185606E0,3.560396E0,1.5798847E1,2.48053E1,5.174769E0,1.0108371E0,1.4568667E0,2.1035292E0,1.0296994E1,5.5018525E0,2.0494835E1,4.3104644E0,1.0295442E0,1.0739851E0,8.66979E0,1.6272048E0,2.9130177E0,2.5888348E0,5.572743E0,1.49220915E1,1.1862836E0,3.1241808E0],"tree_param":{"num_deleted":"0","num_feature":"384","num_nodes":"25","size_leaf_vector":"1"}},{"base_weights":[8.860841E-3,9.0104565E-2,-7.617263E-2,1.6731435E-1,-8.3095126E-2,2.3902982E-1,-7.865703E-2,4.987349E-2,-9.867957E-3],"categories":[],"categories_nodes":[],"categories_segments":[],"categories_sizes":[],"default_left":[0,0,0,0,0,0,0,0,0],"id":16,"left_children":[1,3,-1,5,-1,7,-1,-1,-1],"loss_changes":[3.2276285E0,3.4487367E0,0E0,3.1824694E0,0E0,3.687156E0,0E0,0E0,0E0],"parents":[2147483647,0,0,1,1,3,3,5,5],"right_children":[2,4,-1,6,-1,8,-1,-1,-1],"split_conditions":[1.08E2,1.78E2,-7.617263E-2,1.6E2,-8.3095126E-2,1.43E2,-7.865703E-2,4.987349E-2,-9.867957E-3],"split_indices":[254,132,0,310,0,304,0,0,0],"split_type":[0,0,0,0,0,0,0,0,0],"sum_hessian":[4.9458828E1,4.554052E1,3.9183097E0,4.277329E1,2.7672317E0,4.0479362E1,2.293927E0,2.2612835E1,1.7866526E1],"tree_param":{"num_deleted":"0","num_feature":"384","num_nodes":"9","size_leaf_vector":"1"}},{"base_weights":[3.4411238E-3,1.00884885E-1,-6.1667204E-1,-1.7995311E-1,4.090479E-1,-9.505444E-2,6.212048E-2,1.1041266E-1,-3.2446307E-1,-2.2819929E-1,7.438421E-1,-5.26115E-2,5.175985E-2,-8.8821016E-2,5.1127937E-2,-1.3935956E-2,1.0200393E-1],"categories":[],"categories_nodes":[],"categories_segments":[],"categories_sizes":[],"default_left":[0,0,0,0,0,0,0,0,0,0,0,0,0,0,0,0,0],"id":17,"left_children":[1,3,5,7,9,-1,-1,-1,11,13,15,-1,-1,-1,-1,-1,-1],"loss_changes":[3.0984466E0,3.906024E0,3.4686978E0,4.7863436E0,4.739585E0,0E0,0E0,0E0,4.045705E0,4.4282928E0,3.6248684E0,0E0,0E0,0E0,0E0,0E0,0E0],"parents":[2147483647,0,0,1,1,2,2,3,3,4,4,8,8,9,9,10,10],"right_children":[2,4,6,8,10,-1,-1,-1,12,14,16,-1,-1,-1,-1,-1,-1],"split_conditions":[1.83E2,1.35E2,1.63E2,1.14E2,9.8E1,-9.505444E-2,6.212048E-2,1.1041266E-1,1.87E2,8.3E1,7.2E1,-5.26115E-2,5.175985E-2,-8.8821016E-2,5.1127937E-2,-1.3935956E-2,1.0200393E-1],"split_indices":[205,74,291,343,265,0,0,0,118,311,33,0,0,0,0,0,0],"split_type":[0,0,0,0,0,0,0,0,0,0,0,0,0,0,0,0,0],"sum_hessian":[4.9247013E1,4.3282906E1,5.9641066E0,2.286312E1,2.0419786E1,4.8800163E0,1.0840901E0,1.6410114E0,2.1222109E1,7.1427226E0,1.3277064E1,1.742458E1,3.7975297E0,3.6678796E0,3.4748428E0,3.2809467E0,9.996118E0],"tree_param":{"num_deleted":"0","num_feature":"384","num_nodes":"17","size_leaf_vector":"1"}},{"base_weights":[4.524195E-3,-4.8365033E-1,1.2563425E-1,-8.400775E-2,1.5419872E-1,-4.8757476E-1,2.6097223E-1,-6.404508E-2,7.122702E-1,5.208003E-1,-9.397451E-2,-5.488684E-1,4.1839558E-1,9.560605E-2,1.1860228E-2,1.19799515E-2,6.639693E-2,-9.092535E-2,4.9675893E-2,5.5553544E-2,-6.581377E-2],"categories":[],"categories_nodes":[],"categories_segments":[],"categories_sizes":[],"default_left":[0,0,0,0,0,0,0,0,0,0,0,0,0,0,0,0,0,0,0,0,0],"id":18,"left_children":[1,3,5,-1,7,9,11,-1,13,15,-1,17,19,-1,-1,-1,-1,-1,-1,-1,-1],"loss_changes":[2.9839714E0,2.4107776E0,3.4807873E0,0E0,2.4260545E0,3.9795828E0,4.532892E0,0E0,3.3279312E-1,9.344751E-2,0E0,2.6847994E0,4.621673E0,0E0,0E0,0E0,0E0,0E0,0E0,0E0,0E0],"parents":[2147483647,0,0,1,1,2,2,4,4,5,5,6,6,8,8,9,9,11,11,12,12],"right_children":[2,4,6,-1,8,10,12,-1,14,16,-1,18,20,-1,-1,-1,-1,-1,-1,-1,-1],"split_conditions":[1.28E2,1.7E2,7.8E1,-8.400775E-2,9.7E1,8.1E1,1.35E2,-6.404508E-2,8.4E1,1.81E2,-9.397451E-2,1.76E2,1.74E2,9.560605E-2,1.1860228E-2,1.19799515E-2,6.639693E-2,-9.092535E-2,4.9675893E-2,5.5553544E-2,-6.581377E-2],"split_indices":[138,260,190,0,228,368,252,0,378,227,0,120,360,0,0,0,0,0,0,0,0],"split_type":[0,0,0,0,0,0,0,0,0,0,0,0,0,0,0,0,0,0,0,0,0],"sum_hessian":[4.8442963E1,9.034185E0,3.940878E1,5.592227E0,3.4419582E0,6.654583E0,3.2754196E1,1.3590974E0,2.082861E0,2.0132036E0,4.6413794E0,4.9260902E0,2.7828106E1,1.0437955E0,1.0390655E0,1.0129133E0,1.0002903E0,3.7604423E0,1.1656481E0,2.5112923E1,2.7151825E0],"tree_param":{"num_deleted":"0","num_feature":"384","num_nodes":"21","size_leaf_vector":"1"}},{"base_weights":[6.444523E-4,8.644328E-2,-6.6016734E-1,2.3171574E-1,-4.9828395E-1,1.9139633E-2,-8.845486E-2,4.7444507E-1,-3.243885E-1,4.6843526E-1,-9.660722E-2,-1.954447E-2,6.717667E-2,4.5311667E-2,-7.691071E-2,-3.0001387E-2,1.0059787E-1],"categories":[],"categories_nodes":[],"categories_segments":[],"categories_sizes":[],"default_left":[0,0,0,0,0,0,0,0,0,0,0,0,0,0,0,0,0],"id":19,"left_children":[1,3,5,7,9,-1,-1,11,13,15,-1,-1,-1,-1,-1,-1,-1],"loss_changes":[2.8258977E0,3.8621876E0,1.2637513E0,5.015012E0,4.5654936E0,0E0,0E0,3.4988341E0,4.3375087E0,1.8051147E0,0E0,0E0,0E0,0E0,0E0,0E0,0E0],"parents":[2147483647,0,0,1,1,2,2,3,3,4,4,7,7,8,8,9,9],"right_children":[2,4,6,8,10,-1,-1,12,14,16,-1,-1,-1,-1,-1,-1,-1],"split_conditions":[1.33E2,1.52E2,1.09E2,1.42E2,1.03E2,1.9139633E-2,-8.845486E-2,1.36E2,1.05E2,1.37E2,-9.660722E-2,-1.954447E-2,6.717667E-2,4.5311667E-2,-7.691071E-2,-3.0001387E-2,1.0059787E-1],"split_indices":[33,94,290,221,356,0,0,138,379,359,0,0,0,0,0,0,0],"split_type":[0,0,0,0,0,0,0,0,0,0,0,0,0,0,0,0,0],"sum_hessian":[4.7835682E1,4.310781E1,4.7278686E0,3.5012787E1,8.095026E0,1.0166225E0,3.711246E0,2.447621E1,1.0536576E1,2.6393106E0,5.455715E0,5.571378E0,1.890483E1,3.8269699E0,6.7096066E0,1.2682106E0,1.3711001E0],"tree_param":{"num_deleted":"0","num_feature":"384","num_nodes":"17","size_leaf_vector":"1"}},{"base_weights":[-2.2831778E-3,1.6772811E-1,-3.064766E-1,-2.5087613E-1,4.3338028E-1,-5.433786E-1,3.6534175E-1,-8.43082E-1,2.6500788E-1,5.853568E-1,-7.291037E-2,-8.027354E-1,2.4325375E-1,-5.9457272E-2,7.72703E-1,-2.0853719E-2,-9.2499614E-2,-6.83626E-2,6.271457E-2,7.770422E-2,-4.0852062E-2,2.7029539E-2,-9.933555E-2,-6.572553E-2,9.783535E-2,9.867436E-4,1.0796081E-1],"categories":[],"categories_nodes":[],"categories_segments":[],"categories_sizes":[],"default_left":[0,0,0,0,0,0,0,0,0,0,0,0,0,0,0,0,0,0,0,0,0,0,0,0,0,0,0],"id":20,"left_children":[1,3,5,7,9,11,13,15,17,19,-1,21,23,-1,25,-1,-1,-1,-1,-1,-1,-1,-1,-1,-1,-1,-1],"loss_changes":[2.5425763E0,3.6167836E0,3.0033932E0,4.1586223E0,3.901118E0,2.9354692E0,2.4898174E0,1.312375E-1,3.0550065E0,3.736476E0,0E0,2.3821063E0,3.3555853E0,0E0,9.446058E-1,0E0,0E0,0E0,0E0,0E0,0E0,0E0,0E0,0E0,0E0,0E0,0E0],"parents":[2147483647,0,0,1,1,2,2,3,3,4,4,5,5,6,6,7,7,8,8,9,9,11,11,12,12,14,14],"right_children":[2,4,6,8,10,12,14,16,18,20,-1,22,24,-1,26,-1,-1,-1,-1,-1,-1,-1,-1,-1,-1,-1,-1],"split_conditions":[1.66E2,1.47E2,1.52E2,1.75E2,1.52E2,1.65E2,1.19E2,1.16E2,1.55E2,1.59E2,-7.291037E-2,4.9E1,1.92E2,-5.9457272E-2,1.56E2,-2.0853719E-2,-9.2499614E-2,-6.83626E-2,6.271457E-2,7.770422E-2,-4.0852062E-2,2.7029539E-2,-9.933555E-2,-6.572553E-2,9.783535E-2,9.867436E-4,1.0796081E-1],"split_indices":[119,16,344,166,94,27,18,74,96,180,0,57,234,0,81,0,0,0,0,0,0,0,0,0,0,0,0],"split_type":[0,0,0,0,0,0,0,0,0,0,0,0,0,0,0,0,0,0,0,0,0,0,0,0,0,0,0],"sum_hessian":[4.7169933E1,3.0546406E1,1.662353E1,1.1880773E1,1.8665632E1,1.2431143E1,4.1923866E0,5.2359495E0,6.644823E0,1.6946592E1,1.7190405E0,9.333401E0,3.097742E0,1.1121417E0,3.080245E0,1.004035E0,4.2319145E0,1.5905542E0,5.054269E0,1.4389511E1,2.5570805E0,1.3448797E0,7.9885206E0,1.439827E0,1.6579151E0,1.1798329E0,1.9004121E0],"tree_param":{"num_deleted":"0","num_feature":"384","num_nodes":"27","size_leaf_vector":"1"}},{"base_weights":[-6.6352547E-3,-4.9671227E-1,9.705037E-2,-9.2564754E-2,1.7999223E-1,-2.8436518E-1,3.3701628E-1,-4.452482E-2,7.9947904E-2,5.55747E-1,-5.485513E-1,-7.180638E-2,4.4610578E-1,-5.728499E-2,1.079302E-1,-8.054779E-2,3.573832E-2,6.497168E-2,-2.7927568E-2],"categories":[],"categories_nodes":[],"categories_segments":[],"categories_sizes":[],"default_left":[0,0,0,0,0,0,0,0,0,0,0,0,0,0,0,0,0,0,0],"id":21,"left_children":[1,3,5,-1,7,9,11,-1,-1,13,15,-1,17,-1,-1,-1,-1,-1,-1],"loss_changes":[2.4489582E0,2.6088068E0,3.7415447E0,0E0,1.9445311E0,3.8393037E0,3.1871245E0,0E0,0E0,3.1629162E0,3.224883E0,0E0,3.6065416E0,0E0,0E0,0E0,0E0,0E0,0E0],"parents":[2147483647,0,0,1,1,2,2,4,4,5,5,6,6,9,9,10,10,12,12],"right_children":[2,4,6,-1,8,10,12,-1,-1,14,16,-1,18,-1,-1,-1,-1,-1,-1],"split_conditions":[1.21E2,1.61E2,1.49E2,-9.2564754E-2,1.08E2,8.6E1,7.5E1,-4.452482E-2,7.9947904E-2,1.35E2,1.86E2,-7.180638E-2,1.38E2,-5.728499E-2,1.079302E-1,-8.054779E-2,3.573832E-2,6.497168E-2,-2.7927568E-2],"split_indices":[349,186,151,0,333,287,299,0,0,1,118,0,340,0,0,0,0,0,0],"split_type":[0,0,0,0,0,0,0,0,0,0,0,0,0,0,0,0,0,0,0],"sum_hessian":[4.6245934E1,7.413757E0,3.8832176E1,4.312417E0,3.10134E0,1.49248085E1,2.3907368E1,1.6834836E0,1.4178566E0,3.3065045E0,1.1618304E1,1.7171624E0,2.2190205E1,1.0179707E0,2.2885337E0,9.137704E0,2.4806006E0,1.7408136E1,4.782068E0],"tree_param":{"num_deleted":"0","num_feature":"384","num_nodes":"19","size_leaf_vector":"1"}},{"base_weights":[-9.032899E-3,-7.108372E-2,7.8418434E-1,3.6186505E-2,-6.430844E-1,8.399758E-3,1.0364083E-1,2.3367321E-1,-4.021033E-1,-9.1158494E-2,1.5401418E-2,-2.651066E-2,5.2147765E-2,-7.421283E-2,3.6030006E-2],"categories":[],"categories_nodes":[],"categories_segments":[],"categories_sizes":[],"default_left":[0,0,0,0,0,0,0,0,0,0,0,0,0,0,0],"id":22,"left_children":[1,3,5,7,9,-1,-1,11,13,-1,-1,-1,-1,-1,-1],"loss_changes":[2.3437004E0,2.7248237E0,5.23221E-1,3.3850598E0,1.6398952E0,0E0,0E0,3.9917836E0,3.4244256E0,0E0,0E0,0E0,0E0,0E0,0E0],"parents":[2147483647,0,0,1,1,2,2,3,3,4,4,7,7,8,8],"right_children":[2,4,6,8,10,-1,-1,12,14,-1,-1,-1,-1,-1,-1],"split_conditions":[1.86E2,1.67E2,1.84E2,1.53E2,1.3E2,8.399758E-3,1.0364083E-1,1E2,1.53E2,-9.1158494E-2,1.5401418E-2,-2.651066E-2,5.2147765E-2,-7.421283E-2,3.6030006E-2],"split_indices":[163,132,202,187,159,0,0,265,224,0,0,0,0,0,0],"split_type":[0,0,0,0,0,0,0,0,0,0,0,0,0,0,0],"sum_hessian":[4.5484516E1,4.3028893E1,2.4556253E0,3.702259E1,6.0062995E0,1.0033373E0,1.452288E0,2.5844366E1,1.11782255E1,4.385445E0,1.6208544E0,9.485087E0,1.6359278E1,7.7488866E0,3.4293387E0],"tree_param":{"num_deleted":"0","num_feature":"384","num_nodes":"15","size_leaf_vector":"1"}},{"base_weights":[-8.501161E-3,-3.0703154E-1,1.5973261E-1,5.7896966E-1,-5.4025185E-1,-3.702672E-1,4.117563E-1,1.0642809E-1,-2.9701805E-2,5.2244883E-2,-7.20826E-1,-6.483632E-1,7.0639305E-2,-4.0601832E-1,5.870645E-1,-9.78603E-2,-2.2625206E-2,-9.091873E-2,6.1826378E-2,4.0600237E-2,-7.820618E-2,-1.7261926E-2,8.25579E-2],"categories":[],"categories_nodes":[],"categories_segments":[],"categories_sizes":[],"default_left":[0,0,0,0,0,0,0,0,0,0,0,0,0,0,0,0,0,0,0,0,0,0,0],"id":23,"left_children":[1,3,5,7,9,11,13,-1,-1,-1,15,17,-1,19,21,-1,-1,-1,-1,-1,-1,-1,-1],"loss_changes":[2.3539925E0,3.8015332E0,4.16106E0,2.016995E0,3.0406604E0,3.5114625E0,3.2221024E0,0E0,0E0,0E0,1.3450179E0,3.4119E0,0E0,1.6199136E0,3.322019E0,0E0,0E0,0E0,0E0,0E0,0E0,0E0,0E0],"parents":[2147483647,0,0,1,1,2,2,3,3,4,4,5,5,6,6,10,10,11,11,13,13,14,14],"right_children":[2,4,6,8,10,12,14,-1,-1,-1,16,18,-1,20,22,-1,-1,-1,-1,-1,-1,-1,-1],"split_conditions":[1.41E2,8.3E1,1.42E2,8.4E1,1.14E2,1.47E2,7.4E1,1.0642809E-1,-2.9701805E-2,5.2244883E-2,1.42E2,1.7E2,7.0639305E-2,8.4E1,8.7E1,-9.78603E-2,-2.2625206E-2,-9.091873E-2,6.1826378E-2,4.0600237E-2,-7.820618E-2,-1.7261926E-2,8.25579E-2],"split_indices":[353,285,152,277,343,167,175,0,0,0,213,0,0,13,133,0,0,0,0,0,0,0,0],"split_type":[0,0,0,0,0,0,0,0,0,0,0,0,0,0,0,0,0,0,0,0,0,0,0],"sum_hessian":[4.4894398E1,1.588373E1,2.9010668E1,3.0008886E0,1.2882841E1,9.198102E0,1.9812565E1,1.792735E0,1.2081536E0,1.5961343E0,1.1286707E1,7.626116E0,1.5719858E0,3.2651808E0,1.6547384E1,6.776203E0,4.510504E0,6.557908E0,1.0682077E0,1.0082715E0,2.2569094E0,4.019929E0,1.2527455E1],"tree_param":{"num_deleted":"0","num_feature":"384","num_nodes":"23","size_leaf_vector":"1"}},{"base_weights":[-7.3900116E-3,2.6122102E-1,-1.7925735E-1,-1.5877545E-1,7.255416E-1,3.420571E-1,-3.9580613E-1,6.083624E-1,-8.374541E-2,1.1154634E0,2.5091747E-2,8.5590553E-1,-5.0501865E-1,3.823276E-1,-6.2051266E-1,-4.0136345E-2,1.0586587E-1,3.4880515E-2,1.23464406E-1,-7.329835E-2,9.44799E-2,-2.1585025E-2,1.1579969E-1,-7.291703E-2,7.5213225E-3,9.1097645E-2,-3.0592734E-2,-7.754396E-2,5.213492E-2],"categories":[],"categories_nodes":[],"categories_segments":[],"categories_sizes":[],"default_left":[0,0,0,0,0,0,0,0,0,0,0,0,0,0,0,0,0,0,0,0,0,0,0,0,0,0,0,0,0],"id":24,"left_children":[1,3,5,7,9,11,13,15,-1,17,19,21,23,25,27,-1,-1,-1,-1,-1,-1,-1,-1,-1,-1,-1,-1,-1,-1],"loss_changes":[2.118869E0,3.6097436E0,3.2921798E0,5.835268E0,2.3454947E0,4.2378674E0,3.7727883E0,2.8714962E0,0E0,7.733059E-2,3.572462E0,2.1320376E0,5.6599104E-1,2.152318E0,3.2472744E0,0E0,0E0,0E0,0E0,0E0,0E0,0E0,0E0,0E0,0E0,0E0,0E0,0E0,0E0],"parents":[2147483647,0,0,1,1,2,2,3,3,4,4,5,5,6,6,7,7,9,9,10,10,11,11,12,12,13,13,14,14],"right_children":[2,4,6,8,10,12,14,16,-1,18,20,22,24,26,28,-1,-1,-1,-1,-1,-1,-1,-1,-1,-1,-1,-1,-1,-1],"split_conditions":[1.38E2,8.4E1,9.6E1,1.22E2,1.7E2,1.6E2,9E1,1.18E2,-8.374541E-2,1.29E2,1.82E2,1.38E2,1.07E2,9.5E1,1.64E2,-4.0136345E-2,1.0586587E-1,3.4880515E-2,1.23464406E-1,-7.329835E-2,9.44799E-2,-2.1585025E-2,1.1579969E-1,-7.291703E-2,7.5213225E-3,9.1097645E-2,-3.0592734E-2,-7.754396E-2,5.213492E-2],"split_indices":[150,71,51,209,215,360,375,302,0,74,118,19,82,173,350,0,0,0,0,0,0,0,0,0,0,0,0,0,0],"split_type":[0,0,0,0,0,0,0,0,0,0,0,0,0,0,0,0,0,0,0,0,0,0,0,0,0,0,0,0,0],"sum_hessian":[4.3882977E1,1.6919552E1,2.6963425E1,9.229316E0,7.690236E0,7.743153E0,1.922027E1,4.3809543E0,4.8483615E0,4.5595565E0,3.1306796E0,4.813059E0,2.9300947E0,4.1495137E0,1.5070757E1,1.3846779E0,2.9962766E0,1.1417384E0,3.4178178E0,1.8274316E0,1.3032482E0,1.1211034E0,3.6919553E0,1.9284283E0,1.0016663E0,2.163854E0,1.9856598E0,1.355282E1,1.5179367E0],"tree_param":{"num_deleted":"0","num_feature":"384","num_nodes":"29","size_leaf_vector":"1"}},{"base_weights":[-2.653653E-3,9.6586294E-2,-4.6513492E-1,-9.4375275E-2,5.393826E-1,5.9046417E-2,-8.342968E-2,2.4814397E-1,-4.2635977E-1,7.07563E-1,-5.7152268E-2,-3.204189E-2,6.673484E-2,-6.765891E-2,3.609791E-2,-2.2616904E-2,9.058089E-2],"categories":[],"categories_nodes":[],"categories_segments":[],"categories_sizes":[],"default_left":[0,0,0,0,0,0,0,0,0,0,0,0,0,0,0,0,0],"id":25,"left_children":[1,3,5,7,9,-1,-1,11,13,15,-1,-1,-1,-1,-1,-1,-1],"loss_changes":[2.0408888E0,3.148498E0,3.553638E0,3.1130118E0,2.4944997E0,0E0,0E0,3.4669008E0,2.9625444E0,2.0861192E0,0E0,0E0,0E0,0E0,0E0,0E0,0E0],"parents":[2147483647,0,0,1,1,2,2,3,3,4,4,7,7,8,8,9,9],"right_children":[2,4,6,8,10,-1,-1,12,14,16,-1,-1,-1,-1,-1,-1,-1],"split_conditions":[1.52E2,1.2E2,8.2E1,1.17E2,1.39E2,5.9046417E-2,-8.342968E-2,1.37E2,1.49E2,1.12E2,-5.7152268E-2,-3.204189E-2,6.673484E-2,-6.765891E-2,3.609791E-2,-2.2616904E-2,9.058089E-2],"split_indices":[347,7,285,125,287,0,0,155,224,76,0,0,0,0,0,0,0],"split_type":[0,0,0,0,0,0,0,0,0,0,0,0,0,0,0,0,0],"sum_hessian":[4.2488235E1,3.563317E1,6.8550653E0,2.5446087E1,1.0187086E1,1.6208515E0,5.234214E0,1.2648627E1,1.2797459E1,9.162974E0,1.0241113E0,5.468035E0,7.180592E0,9.817848E0,2.9796104E0,1.5800654E0,7.582909E0],"tree_param":{"num_deleted":"0","num_feature":"384","num_nodes":"17","size_leaf_vector":"1"}},{"base_weights":[-3.4959675E-3,5.4962423E-2,-7.48721E-2,1.3374342E-1,-5.927653E-1,2.4975768E-1,-3.991395E-1,-7.889437E-2,5.442321E-3,4.2766087E-2,-2.20066E-2,4.9763277E-2,-8.901513E-2],"categories":[],"categories_nodes":[],"categories_segments":[],"categories_sizes":[],"default_left":[0,0,0,0,0,0,0,0,0,0,0,0,0],"id":26,"left_children":[1,3,-1,5,7,9,11,-1,-1,-1,-1,-1,-1],"loss_changes":[1.9019637E0,2.1479023E0,0E0,2.3845372E0,6.2443376E-1,2.682341E0,3.5219855E0,0E0,0E0,0E0,0E0,0E0,0E0],"parents":[2147483647,0,0,1,1,3,3,4,4,5,5,6,6],"right_children":[2,4,-1,6,8,10,12,-1,-1,-1,-1,-1,-1],"split_conditions":[1.6E2,1.33E2,-7.48721E-2,1.52E2,1.82E2,1.42E2,1.03E2,-7.889437E-2,5.442321E-3,4.2766087E-2,-2.20066E-2,4.9763277E-2,-8.901513E-2],"split_indices":[310,33,0,94,118,221,356,0,0,0,0,0,0],"split_type":[0,0,0,0,0,0,0,0,0,0,0,0,0],"sum_hessian":[4.1713806E1,3.9538498E1,2.1753085E0,3.5958504E1,3.579996E0,2.9965914E1,5.9925885E0,2.5791583E0,1.0008377E0,2.1800638E1,8.165276E0,2.1154666E0,3.877122E0],"tree_param":{"num_deleted":"0","num_feature":"384","num_nodes":"13","size_leaf_vector":"1"}},{"base_weights":[-7.815637E-3,-3.0153722E-1,1.387024E-1,-7.3121303E-1,1.653561E-1,6.3490903E-1,-5.6174316E-2,9.303081E-3,-9.2342846E-2,5.6985664E-1,-5.070738E-1,9.467593E-1,-2.9837731E-2,-3.0102366E-1,4.7512203E-1,9.427123E-2,-3.609577E-2,-7.362908E-3,-6.57145E-2,1.1834221E-1,1.3999581E-2,-7.250366E-2,1.2003865E-2,-3.4420025E-2,8.999232E-2],"categories":[],"categories_nodes":[],"categories_segments":[],"categories_sizes":[],"default_left":[0,0,0,0,0,0,0,0,0,0,0,0,0,0,0,0,0,0,0,0,0,0,0,0,0],"id":27,"left_children":[1,3,5,7,9,11,13,-1,-1,15,17,19,-1,21,23,-1,-1,-1,-1,-1,-1,-1,-1,-1,-1],"loss_changes":[1.8616664E0,3.007483E0,2.8300982E0,1.3022661E0,2.3864224E0,2.677859E0,2.961761E0,0E0,0E0,2.1747494E0,1.7443913E-1,1.0579171E0,0E0,2.8444467E0,2.8238559E0,0E0,0E0,0E0,0E0,0E0,0E0,0E0,0E0,0E0,0E0],"parents":[2147483647,0,0,1,1,2,2,3,3,4,4,5,5,6,6,9,9,10,10,11,11,13,13,14,14],"right_children":[2,4,6,8,10,12,14,-1,-1,16,18,20,-1,22,24,-1,-1,-1,-1,-1,-1,-1,-1,-1,-1],"split_conditions":[1.49E2,1.5E2,8.6E1,9.1E1,1.61E2,1.03E2,1.46E2,9.303081E-3,-9.2342846E-2,1.54E2,1.45E2,1.53E2,-2.9837731E-2,1.46E2,1.41E2,9.427123E-2,-3.609577E-2,-7.362908E-3,-6.57145E-2,1.1834221E-1,1.3999581E-2,-7.250366E-2,1.2003865E-2,-3.4420025E-2,8.999232E-2],"split_indices":[260,229,49,65,328,145,74,0,0,369,343,76,0,225,342,0,0,0,0,0,0,0,0,0,0],"split_type":[0,0,0,0,0,0,0,0,0,0,0,0,0,0,0,0,0,0,0,0,0,0,0,0,0],"sum_hessian":[4.1287E1,1.3388778E1,2.789822E1,6.6774673E0,6.7113104E0,7.230214E0,2.0668005E1,1.3603066E0,5.3171606E0,4.285754E0,2.4255564E0,5.408553E0,1.8216611E0,1.4444592E1,6.2234125E0,3.0508823E0,1.2348717E0,1.0071814E0,1.4183749E0,3.8208394E0,1.5877137E0,6.837378E0,7.607215E0,2.189746E0,4.0336666E0],"tree_param":{"num_deleted":"0","num_feature":"384","num_nodes":"25","size_leaf_vector":"1"}},{"base_weights":[-7.912347E-3,-4.3503487E-1,9.1395065E-2,1.8792154E-1,-7.570008E-1,-1.0865104E-2,7.274086E-1,-3.5808753E-2,6.501278E-2,-8.365439E-2,-2.0420425E-2,-1.5425453E-1,5.207675E-1,1.037172E-1,-9.752247E-3,-7.840093E-2,4.5104083E-5,9.1174304E-2,-1.2832637E-2],"categories":[],"categories_nodes":[],"categories_segments":[],"categories_sizes":[],"default_left":[0,0,0,0,0,0,0,0,0,0,0,0,0,0,0,0,0,0,0],"id":28,"left_children":[1,3,5,7,9,11,13,-1,-1,-1,-1,15,17,-1,-1,-1,-1,-1,-1],"loss_changes":[1.7916664E0,1.7398136E0,2.2411737E0,1.1198992E0,6.881571E-2,2.410437E0,1.3202691E0,0E0,0E0,0E0,0E0,2.420923E0,1.8227894E0,0E0,0E0,0E0,0E0,0E0,0E0],"parents":[2147483647,0,0,1,1,2,2,3,3,4,4,5,5,6,6,11,11,12,12],"right_children":[2,4,6,8,10,12,14,-1,-1,-1,-1,16,18,-1,-1,-1,-1,-1,-1],"split_conditions":[1.28E2,1.45E2,1.63E2,1.75E2,1.09E2,1.55E2,1.57E2,-3.5808753E-2,6.501278E-2,-8.365439E-2,-2.0420425E-2,9.1E1,1.39E2,1.037172E-1,-9.752247E-3,-7.840093E-2,4.5104083E-5,9.1174304E-2,-1.2832637E-2],"split_indices":[138,223,282,120,123,209,107,0,0,0,0,318,259,0,0,0,0,0,0],"split_type":[0,0,0,0,0,0,0,0,0,0,0,0,0,0,0,0,0,0,0],"sum_hessian":[4.0302536E1,6.965054E0,3.3337482E1,2.515079E0,4.449975E0,2.9566593E1,3.7708888E0,1.2562833E0,1.2587957E0,3.4414792E0,1.0084958E0,2.3845064E1,5.72153E0,2.5544167E0,1.2164721E0,3.9003377E0,1.9944725E1,3.3182023E0,2.4033275E0],"tree_param":{"num_deleted":"0","num_feature":"384","num_nodes":"19","size_leaf_vector":"1"}},{"base_weights":[-7.2004506E-3,9.0418294E-2,-4.452385E-1,-2.938099E-1,2.6110584E-1,-7.182455E-1,3.6892086E-2,-6.096721E-1,4.5179376E-1,-1.2861471E-1,5.2756506E-1,-8.7256365E-2,2.043029E-3,-8.604139E-2,1.8830223E-2,-3.5005603E-2,9.3639985E-2,3.5185374E-2,-6.0663607E-2,8.047407E-2,-1.8972702E-2],"categories":[],"categories_nodes":[],"categories_segments":[],"categories_sizes":[],"default_left":[0,0,0,0,0,0,0,0,0,0,0,0,0,0,0,0,0,0,0,0,0],"id":29,"left_children":[1,3,5,7,9,11,-1,13,15,17,19,-1,-1,-1,-1,-1,-1,-1,-1,-1,-1],"loss_changes":[1.7833176E0,2.3173962E0,1.953685E0,2.8612275E0,2.5794392E0,7.050779E-1,0E0,1.7903152E0,1.8205596E0,2.6538184E0,3.0475683E0,0E0,0E0,0E0,0E0,0E0,0E0,0E0,0E0,0E0,0E0],"parents":[2147483647,0,0,1,1,2,2,3,3,4,4,5,5,7,7,8,8,9,9,10,10],"right_children":[2,4,6,8,10,12,-1,14,16,18,20,-1,-1,-1,-1,-1,-1,-1,-1,-1,-1],"split_conditions":[1.78E2,1E2,1.76E2,1.29E2,1.41E2,1.61E2,3.6892086E-2,1.35E2,1.5E2,1.54E2,1.62E2,-8.7256365E-2,2.043029E-3,-8.604139E-2,1.8830223E-2,-3.5005603E-2,9.3639985E-2,3.5185374E-2,-6.0663607E-2,8.047407E-2,-1.8972702E-2],"split_indices":[153,240,233,65,353,24,0,352,211,119,229,0,0,0,0,0,0,0,0,0,0],"split_type":[0,0,0,0,0,0,0,0,0,0,0,0,0,0,0,0,0,0,0,0,0],"sum_hessian":[3.9763107E1,3.3165592E1,6.5975175E0,9.979589E0,2.3186003E1,5.028986E0,1.5685314E0,7.1380057E0,2.8415833E0,9.625362E0,1.3560639E1,4.009996E0,1.01899E0,5.371812E0,1.7661939E0,1.17501E0,1.6665733E0,4.932026E0,4.693337E0,9.693115E0,3.8675241E0],"tree_param":{"num_deleted":"0","num_feature":"384","num_nodes":"21","size_leaf_vector":"1"}},{"base_weights":[-7.971141E-3,-6.6675246E-2,6.861243E-1,-3.1114778E-1,1.6610603E-1,2.0795103E-2,8.162003E-2,-6.8676645E-1,7.616135E-2,3.4426346E-1,-6.853565E-2,-8.359018E-2,2.916168E-2,4.9739942E-2,-6.032086E-2,6.340413E-3,8.362085E-2],"categories":[],"categories_nodes":[],"categories_segments":[],"categories_sizes":[],"default_left":[0,0,0,0,0,0,0,0,0,0,0,0,0,0,0,0,0],"id":30,"left_children":[1,3,5,7,9,-1,-1,11,13,15,-1,-1,-1,-1,-1,-1,-1],"loss_changes":[1.671657E0,2.1973107E0,2.9323578E-2,2.778283E0,3.2645626E0,0E0,0E0,1.6463032E0,3.197712E0,2.3201814E0,0E0,0E0,0E0,0E0,0E0,0E0,0E0],"parents":[2147483647,0,0,1,1,2,2,3,3,4,4,7,7,8,8,9,9],"right_children":[2,4,6,8,10,-1,-1,12,14,16,-1,-1,-1,-1,-1,-1,-1],"split_conditions":[1.86E2,1.51E2,1.33E2,9.6E1,1.63E2,2.0795103E-2,8.162003E-2,1.7E2,1.23E2,1.2E2,-6.853565E-2,-8.359018E-2,2.916168E-2,4.9739942E-2,-6.032086E-2,6.340413E-3,8.362085E-2],"split_indices":[163,27,304,60,187,0,0,371,29,165,0,0,0,0,0,0,0],"split_type":[0,0,0,0,0,0,0,0,0,0,0,0,0,0,0,0,0],"sum_hessian":[3.890329E1,3.670302E1,2.2002702E0,1.7737751E1,1.896527E1,1.0262722E0,1.173998E0,8.612264E0,9.125487E0,1.6176273E1,2.788995E0,7.5994983E0,1.012765E0,5.7982063E0,3.3272808E0,1.1015966E1,5.160308E0],"tree_param":{"num_deleted":"0","num_feature":"384","num_nodes":"17","size_leaf_vector":"1"}},{"base_weights":[-6.511633E-3,-4.2361498E-1,8.861133E-2,1.9678436E-1,-7.0588124E-1,1.8780598E-1,-5.1274717E-1,-2.8499916E-2,5.99582E-2,-8.203571E-2,-1.0764501E-2,3.3488593E-1,-3.785513E-1,-8.32621E-2,3.6288794E-2,4.261525E-2,-6.303059E-2,4.6459164E-2,-8.575777E-2],"categories":[],"categories_nodes":[],"categories_segments":[],"categories_sizes":[],"default_left":[0,0,0,0,0,0,0,0,0,0,0,0,0,0,0,0,0,0,0],"id":31,"left_children":[1,3,5,7,9,11,13,-1,-1,-1,-1,15,17,-1,-1,-1,-1,-1,-1],"loss_changes":[1.5928121E0,1.4439709E0,2.049694E0,7.7487946E-1,2.7740026E-1,2.5292988E0,1.6759629E0,0E0,0E0,0E0,0E0,2.3322477E0,2.9895084E0,0E0,0E0,0E0,0E0,0E0,0E0],"parents":[2147483647,0,0,1,1,2,2,3,3,4,4,5,5,6,6,11,11,12,12],"right_children":[2,4,6,8,10,12,14,-1,-1,-1,-1,16,18,-1,-1,-1,-1,-1,-1],"split_conditions":[1.28E2,1.01E2,1.51E2,1.29E2,1.7E2,1.52E2,1.24E2,-2.8499916E-2,5.99582E-2,-8.203571E-2,-1.0764501E-2,1.24E2,1.03E2,-8.32621E-2,3.6288794E-2,4.261525E-2,-6.303059E-2,4.6459164E-2,-8.575777E-2],"split_indices":[138,271,249,318,253,94,33,0,0,0,0,168,356,0,0,0,0,0,0],"split_type":[0,0,0,0,0,0,0,0,0,0,0,0,0,0,0,0,0,0,0],"sum_hessian":[3.8199287E1,6.452494E0,3.1746794E1,2.1124136E0,4.3400803E0,2.7841936E1,3.904857E0,1.0950649E0,1.0173488E0,3.3313208E0,1.0087595E0,2.2426579E1,5.415359E0,2.896042E0,1.0088149E0,2.0999397E1,1.4271815E0,1.9729203E0,3.4424388E0],"tree_param":{"num_deleted":"0","num_feature":"384","num_nodes":"19","size_leaf_vector":"1"}},{"base_weights":[-1.1165826E-2,-6.774612E-2,6.530946E-2,-3.006339E-1,1.5064456E-1,-6.2223643E-1,1.0317074E-1,3.133104E-1,-6.550128E-2,1.9469436E-2,-8.835316E-2,-6.4524904E-2,3.3177238E-2,4.2626586E-2,-6.0294725E-2],"categories":[],"categories_nodes":[],"categories_segments":[],"categories_sizes":[],"default_left":[0,0,0,0,0,0,0,0,0,0,0,0,0,0,0],"id":32,"left_children":[1,3,-1,5,7,9,11,13,-1,-1,-1,-1,-1,-1,-1],"loss_changes":[1.4943771E0,1.8997258E0,0E0,2.399004E0,2.758454E0,2.3386977E0,1.724544E0,2.0046632E0,0E0,0E0,0E0,0E0,0E0,0E0,0E0],"parents":[2147483647,0,0,1,1,3,3,4,4,5,5,6,6,7,7],"right_children":[2,4,-1,6,8,10,12,14,-1,-1,-1,-1,-1,-1,-1],"split_conditions":[1.86E2,1.51E2,6.530946E-2,1.48E2,1.63E2,1.07E2,9.1E1,1.33E2,-6.550128E-2,1.9469436E-2,-8.835316E-2,-6.4524904E-2,3.3177238E-2,4.2626586E-2,-6.0294725E-2],"split_indices":[163,27,0,344,187,108,318,33,0,0,0,0,0,0,0],"split_type":[0,0,0,0,0,0,0,0,0,0,0,0,0,0,0],"sum_hessian":[3.7583725E1,3.5461227E1,2.1224997E0,1.697878E1,1.8482447E1,9.15028E0,7.828501E0,1.58860855E1,2.5963604E0,2.2792294E0,6.8710504E0,1.4052515E0,6.4232497E0,1.4618682E1,1.2674035E0],"tree_param":{"num_deleted":"0","num_feature":"384","num_nodes":"15","size_leaf_vector":"1"}},{"base_weights":[-1.4140647E-2,7.7182785E-2,-4.238451E-1,-2.785963E-1,2.3127848E-1,3.6674626E-2,-6.94249E-1,-5.7709837E-1,4.1589767E-1,-1.24396935E-1,4.712531E-1,-8.48243E-2,5.652267E-4,-8.260121E-2,1.667536E-2,-3.112033E-2,8.367657E-2,3.1417545E-2,-5.7682045E-2,-1.9972544E-2,7.563761E-2],"categories":[],"categories_nodes":[],"categories_segments":[],"categories_sizes":[],"default_left":[0,0,0,0,0,0,0,0,0,0,0,0,0,0,0,0,0,0,0,0,0],"id":33,"left_children":[1,3,5,7,9,-1,11,13,15,17,19,-1,-1,-1,-1,-1,-1,-1,-1,-1,-1],"loss_changes":[1.4535505E0,1.8132485E0,1.7672557E0,2.3326023E0,2.0050647E0,0E0,6.1031437E-1,1.5224357E0,1.3668065E0,2.1611888E0,2.7961304E0,0E0,0E0,0E0,0E0,0E0,0E0,0E0,0E0,0E0,0E0],"parents":[2147483647,0,0,1,1,2,2,3,3,4,4,6,6,7,7,8,8,9,9,10,10],"right_children":[2,4,6,8,10,-1,12,14,16,18,20,-1,-1,-1,-1,-1,-1,-1,-1,-1,-1],"split_conditions":[1.78E2,1E2,9.2E1,1.29E2,1.41E2,3.6674626E-2,1.8E2,1.35E2,1.5E2,1.54E2,1.42E2,-8.48243E-2,5.652267E-4,-8.260121E-2,1.667536E-2,-3.112033E-2,8.367657E-2,3.1417545E-2,-5.7682045E-2,-1.9972544E-2,7.563761E-2],"split_indices":[153,240,355,65,353,0,14,352,211,119,152,0,0,0,0,0,0,0,0,0,0],"split_type":[0,0,0,0,0,0,0,0,0,0,0,0,0,0,0,0,0,0,0,0,0],"sum_hessian":[3.6974434E1,3.0898703E1,6.0757303E0,9.094109E0,2.1804594E1,1.4576491E0,4.618081E0,6.4785748E0,2.6155336E0,8.97864E0,1.2825954E1,3.611519E0,1.006562E0,4.7714586E0,1.7071159E0,1.0544355E0,1.5610981E0,4.7142706E0,4.2643685E0,3.9141996E0,8.911756E0],"tree_param":{"num_deleted":"0","num_feature":"384","num_nodes":"21","size_leaf_vector":"1"}},{"base_weights":[-1.4549695E-2,-2.4200217E-1,1.5001525E-1,1.1947466E-1,-6.6755724E-1,-2.3542504E-1,3.7245017E-1,-5.7605315E-2,4.0306267E-1,8.981457E-3,-8.995596E-2,4.0242976E-1,-8.610328E-2,4.9637395E-1,-5.7833094E-2,7.457101E-2,-1.7469436E-2,-3.6878828E-2,7.288664E-2,7.577381E-2,-1.9013924E-5],"categories":[],"categories_nodes":[],"categories_segments":[],"categories_sizes":[],"default_left":[0,0,0,0,0,0,0,0,0,0,0,0,0,0,0,0,0,0,0,0,0],"id":34,"left_children":[1,3,5,7,9,11,13,-1,15,-1,-1,17,-1,19,-1,-1,-1,-1,-1,-1,-1],"loss_changes":[1.4275177E0,2.5387483E0,1.9895009E0,2.1043386E0,1.3975291E0,3.8300815E0,1.9899454E0,0E0,1.5815308E0,0E0,0E0,1.528585E0,0E0,1.7294211E0,0E0,0E0,0E0,0E0,0E0,0E0,0E0],"parents":[2147483647,0,0,1,1,2,2,3,3,4,4,5,5,6,6,8,8,11,11,13,13],"right_children":[2,4,6,8,10,12,14,-1,16,-1,-1,18,-1,20,-1,-1,-1,-1,-1,-1,-1],"split_conditions":[1.45E2,1.23E2,1.22E2,1E2,8.3E1,1.52E2,1.3E2,-5.7605315E-2,1.45E2,8.981457E-3,-8.995596E-2,1.17E2,-8.610328E-2,1.25E2,-5.7833094E-2,7.457101E-2,-1.7469436E-2,-3.6878828E-2,7.288664E-2,7.577381E-2,-1.9013924E-5],"split_indices":[80,264,37,265,352,223,9,0,341,0,0,302,0,326,0,0,0,0,0,0,0],"split_type":[0,0,0,0,0,0,0,0,0,0,0,0,0,0,0,0,0,0,0,0,0],"sum_hessian":[3.616771E1,1.4985304E1,2.1182407E1,8.4915905E0,6.4937134E0,7.7297387E0,1.3452668E1,2.160774E0,6.330816E0,1.6664522E0,4.8272614E0,4.0040464E0,3.7256923E0,1.2324266E1,1.1284014E0,3.7915072E0,2.5393088E0,1.152198E0,2.8518486E0,7.729774E0,4.5944924E0],"tree_param":{"num_deleted":"0","num_feature":"384","num_nodes":"21","size_leaf_vector":"1"}},{"base_weights":[-1.7345976E-2,-3.258241E-1,9.825772E-2,-5.46633E-1,4.4179473E-2,2.3737063E-1,-3.7465638E-1,1.9072643E-2,-7.2661513E-1,3.6265796E-1,-4.7381392E-1,-6.840131E-1,3.711244E-2,7.840935E-3,-8.852377E-2,6.2191635E-2,-2.31335E-3,-6.884273E-2,4.898433E-3,-8.328858E-2,-4.910051E-3],"categories":[],"categories_nodes":[],"categories_segments":[],"categories_sizes":[],"default_left":[0,0,0,0,0,0,0,0,0,0,0,0,0,0,0,0,0,0,0,0,0],"id":35,"left_children":[1,3,5,7,-1,9,11,-1,13,15,17,19,-1,-1,-1,-1,-1,-1,-1,-1,-1],"loss_changes":[1.3259966E0,1.9573207E0,1.8759048E0,1.241226E0,0E0,2.0964966E0,1.7677467E0,0E0,9.487612E-1,1.9079268E0,4.4537157E-1,4.3073606E-1,0E0,0E0,0E0,0E0,0E0,0E0,0E0,0E0,0E0],"parents":[2147483647,0,0,1,1,2,2,3,3,5,5,6,6,8,8,9,9,10,10,11,11],"right_children":[2,4,6,8,-1,10,12,-1,14,16,18,20,-1,-1,-1,-1,-1,-1,-1,-1,-1],"split_conditions":[1.35E2,1.84E2,1.46E2,8.7E1,4.4179473E-2,1.7E2,1.47E2,1.9072643E-2,9.8E1,1.32E2,1.2E2,1.56E2,3.711244E-2,7.840935E-3,-8.852377E-2,6.2191635E-2,-2.31335E-3,-6.884273E-2,4.898433E-3,-8.328858E-2,-4.910051E-3],"split_indices":[138,46,331,321,0,138,196,0,268,178,10,246,0,0,0,0,0,0,0,0,0],"split_type":[0,0,0,0,0,0,0,0,0,0,0,0,0,0,0,0,0,0,0,0,0],"sum_hessian":[3.5285416E1,9.123013E0,2.6162401E1,7.308559E0,1.8144542E0,2.0600582E1,5.5618205E0,1.4222244E0,5.8863344E0,1.7931675E1,2.6689065E0,3.989685E0,1.5721352E0,1.0521678E0,4.8341665E0,1.03585205E1,7.573155E0,1.66755E0,1.0013566E0,2.9792955E0,1.0103896E0],"tree_param":{"num_deleted":"0","num_feature":"384","num_nodes":"21","size_leaf_vector":"1"}},{"base_weights":[-1.869972E-2,-2.844631E-1,1.11949205E-1,8.786121E-2,-7.218236E-1,-2.987666E-1,2.9022074E-1,-5.313275E-2,4.304792E-1,-8.479986E-2,-7.0603536E-3,-8.067558E-2,1.326671E-1,4.5298517E-1,-5.0324714E-1,6.857338E-2,-2.9735481E-2,-2.8659806E-2,6.1669435E-2,6.558613E-2,-1.9186148E-2,-6.615903E-2,-5.7744714E-3],"categories":[],"categories_nodes":[],"categories_segments":[],"categories_sizes":[],"default_left":[0,0,0,0,0,0,0,0,0,0,0,0,0,0,0,0,0,0,0,0,0,0,0],"id":36,"left_children":[1,3,5,7,9,11,13,-1,15,-1,-1,-1,17,19,21,-1,-1,-1,-1,-1,-1,-1,-1],"loss_changes":[1.2686539E0,2.021113E0,1.8877788E0,1.7955048E0,4.032898E-1,1.8467654E0,2.5087702E0,0E0,1.189853E0,0E0,0E0,0E0,1.2221173E0,2.1118202E0,2.0726722E-1,0E0,0E0,0E0,0E0,0E0,0E0,0E0,0E0],"parents":[2147483647,0,0,1,1,2,2,3,3,4,4,5,5,6,6,8,8,12,12,13,13,14,14],"right_children":[2,4,6,8,10,12,14,-1,16,-1,-1,-1,18,20,22,-1,-1,-1,-1,-1,-1,-1,-1],"split_conditions":[1.49E2,1.13E2,9.1E1,1.51E2,1.2E2,1.3E2,1.56E2,-5.313275E-2,1.04E2,-8.479986E-2,-7.0603536E-3,-8.067558E-2,1.47E2,1.28E2,1.28E2,6.857338E-2,-2.9735481E-2,-2.8659806E-2,6.1669435E-2,6.558613E-2,-1.9186148E-2,-6.615903E-2,-5.7744714E-3],"split_indices":[260,257,335,151,323,5,191,0,381,0,0,0,62,335,159,0,0,0,0,0,0,0,0],"split_type":[0,0,0,0,0,0,0,0,0,0,0,0,0,0,0,0,0,0,0,0,0,0,0],"sum_hessian":[3.4620617E1,1.1022192E1,2.3598427E1,6.3854113E0,4.6367807E0,6.9380655E0,1.6660362E1,2.0784295E0,4.306982E0,3.631083E0,1.0056978E0,2.7868102E0,4.151255E0,1.4180596E1,2.4797647E0,3.2315176E0,1.0754642E0,2.443007E0,1.7082483E0,1.0773918E1,3.4066782E0,1.4716566E0,1.0081081E0],"tree_param":{"num_deleted":"0","num_feature":"384","num_nodes":"23","size_leaf_vector":"1"}},{"base_weights":[-2.295272E-2,3.1908867E-1,-1.2261296E-1,5.642037E-1,-5.076411E-2,2.3384335E-2,-5.728542E-1,7.947329E-1,-1.59154E-2,-1.0889362E-1,6.7538613E-1,3.5468347E-2,-8.111789E-2,1.5518109E-2,9.2604905E-2,-5.406356E-2,1.4727615E-2,1.7349876E-4,9.139224E-2],"categories":[],"categories_nodes":[],"categories_segments":[],"categories_sizes":[],"default_left":[0,0,0,0,0,0,0,0,0,0,0,0,0,0,0,0,0,0,0],"id":37,"left_children":[1,3,5,7,-1,9,11,13,-1,15,17,-1,-1,-1,-1,-1,-1,-1,-1],"loss_changes":[1.228419E0,1.937866E0,1.8368239E0,1.2536609E0,0E0,1.9629998E0,1.7978764E0,3.0079627E-1,0E0,2.1891937E0,6.1447895E-1,0E0,0E0,0E0,0E0,0E0,0E0,0E0,0E0],"parents":[2147483647,0,0,1,1,2,2,3,3,5,5,6,6,7,7,9,9,10,10],"right_children":[2,4,6,8,-1,10,12,14,-1,16,18,-1,-1,-1,-1,-1,-1,-1,-1],"split_conditions":[7.5E1,1.45E2,1.28E2,1.35E2,-5.076411E-2,1.63E2,9E1,9.8E1,-1.59154E-2,1.29E2,2.08E2,3.5468347E-2,-8.111789E-2,1.5518109E-2,9.2604905E-2,-5.406356E-2,1.4727615E-2,1.7349876E-4,9.139224E-2],"split_indices":[123,249,335,154,0,282,268,265,0,243,197,0,0,0,0,0,0,0,0],"split_type":[0,0,0,0,0,0,0,0,0,0,0,0,0,0,0,0,0,0,0],"sum_hessian":[3.3889027E1,7.1495323E0,2.6739494E1,5.7594695E0,1.390063E0,2.0907873E1,5.83162E0,4.2927322E0,1.4667372E0,1.8074009E1,2.8338645E0,1.0922905E0,4.73933E0,1.1029156E0,3.1898167E0,6.317015E0,1.1756994E1,1.0044546E0,1.8294098E0],"tree_param":{"num_deleted":"0","num_feature":"384","num_nodes":"19","size_leaf_vector":"1"}},{"base_weights":[-2.0002527E-2,3.1036329E-2,-6.5562576E-2,1.07652806E-1,-4.7101888E-1,-1.2526515E-2,5.670048E-1,2.8074203E-2,-7.774108E-2,1.6843913E-2,-5.1488508E-2,-2.8636768E-2,8.092939E-2],"categories":[],"categories_nodes":[],"categories_segments":[],"categories_sizes":[],"default_left":[0,0,0,0,0,0,0,0,0,0,0,0,0],"id":38,"left_children":[1,3,-1,5,7,9,11,-1,-1,-1,-1,-1,-1],"loss_changes":[1.1299948E0,1.3053411E0,0E0,1.6142428E0,1.2557979E0,2.2734373E0,1.4844812E0,0E0,0E0,0E0,0E0,0E0,0E0],"parents":[2147483647,0,0,1,1,3,3,4,4,5,5,6,6],"right_children":[2,4,-1,6,8,10,12,-1,-1,-1,-1,-1,-1],"split_conditions":[1.6E2,1.83E2,-6.5562576E-2,1.14E2,1.28E2,1.51E2,1.43E2,2.8074203E-2,-7.774108E-2,1.6843913E-2,-5.1488508E-2,-2.8636768E-2,8.092939E-2],"split_indices":[310,205,0,72,259,304,107,0,0,0,0,0,0],"split_type":[0,0,0,0,0,0,0,0,0,0,0,0,0],"sum_hessian":[3.3204556E1,3.1616968E1,1.5875866E0,2.8112429E1,3.5045404E0,2.3053673E1,5.0587554E0,1.0389922E0,2.4655483E0,1.7437008E1,5.616665E0,1.0784379E0,3.9803174E0],"tree_param":{"num_deleted":"0","num_feature":"384","num_nodes":"13","size_leaf_vector":"1"}},{"base_weights":[-2.1492751E-2,-5.2207184E-1,4.1349865E-2,-6.8489976E-2,-3.443564E-3,2.0488845E-1,-2.334172E-1,3.931512E-1,-2.7375656E-1,4.2152894E-1,-4.8486552E-1,5.927208E-2,-2.6677659E-2,-6.8019874E-2,2.6593357E-2,-2.1946501E-2,7.7773735E-2,-7.2401136E-2,2.4411893E-2],"categories":[],"categories_nodes":[],"categories_segments":[],"categories_sizes":[],"default_left":[0,0,0,0,0,0,0,0,0,0,0,0,0,0,0,0,0,0,0],"id":39,"left_children":[1,3,5,-1,-1,7,9,11,13,15,17,-1,-1,-1,-1,-1,-1,-1,-1],"loss_changes":[1.0834135E0,2.8117383E-1,1.4370289E0,0E0,0E0,1.9020278E0,2.1810405E0,2.0944471E0,1.5432564E0,1.0530946E0,1.7698007E0,0E0,0E0,0E0,0E0,0E0,0E0,0E0,0E0],"parents":[2147483647,0,0,1,1,2,2,5,5,6,6,7,7,8,8,9,9,10,10],"right_children":[2,4,6,-1,-1,8,10,12,14,16,18,-1,-1,-1,-1,-1,-1,-1,-1],"split_conditions":[1.74E2,1.51E2,1.11E2,-6.8489976E-2,-3.443564E-3,1.3E2,6.5E1,1.17E2,1.46E2,1.35E2,1.9E2,5.927208E-2,-2.6677659E-2,-6.8019874E-2,2.6593357E-2,-2.1946501E-2,7.7773735E-2,-7.2401136E-2,2.4411893E-2],"split_indices":[127,293,198,0,0,326,305,3,344,59,202,0,0,0,0,0,0,0,0],"split_type":[0,0,0,0,0,0,0,0,0,0,0,0,0,0,0,0,0,0,0],"sum_hessian":[3.275409E1,2.8382354E0,2.9915852E1,1.8244861E0,1.0137491E0,1.8913216E1,1.1002636E1,1.370236E1,5.210856E0,2.8646622E0,8.137974E0,1.0598957E1,3.1034036E0,2.8238535E0,2.3870022E0,1.1604065E0,1.7042557E0,6.132883E0,2.0050912E0],"tree_param":{"num_deleted":"0","num_feature":"384","num_nodes":"19","size_leaf_vector":"1"}},{"base_weights":[-2.2493023E-2,-2.8213263E-1,9.772149E-2,-5.988837E-1,2.3717895E-1,-3.3086663E-1,2.8399327E-1,-8.126357E-2,2.8276226E-2,-2.581849E-1,7.023519E-2,1.978427E-1,-7.5957716E-2,5.63941E-1,-4.1934904E-2,-5.619038E-2,1.803319E-2,5.6616195E-2,-3.7309248E-2,-1.7413594E-2,7.5297974E-2,3.962021E-2,-4.933781E-2],"categories":[],"categories_nodes":[],"categories_segments":[],"categories_sizes":[],"default_left":[0,0,0,0,0,0,0,0,0,0,0,0,0,0,0,0,0,0,0,0,0,0,0],"id":40,"left_children":[1,3,5,7,9,11,13,-1,-1,15,-1,17,-1,19,21,-1,-1,-1,-1,-1,-1,-1,-1],"loss_changes":[1.06044E0,1.9070367E0,1.9590151E0,1.5392475E0,1.2831286E0,1.8591578E0,1.5585687E0,0E0,0E0,5.0711906E-1,0E0,1.0879737E0,0E0,1.4034116E0,1.9170035E0,0E0,0E0,0E0,0E0,0E0,0E0,0E0,0E0],"parents":[2147483647,0,0,1,1,2,2,3,3,4,4,5,5,6,6,9,9,11,11,13,13,14,14],"right_children":[2,4,6,8,10,12,14,-1,-1,16,-1,18,-1,20,22,-1,-1,-1,-1,-1,-1,-1,-1],"split_conditions":[1.38E2,1.6E2,1.42E2,1.7E2,1.17E2,1.37E2,1.66E2,-8.126357E-2,2.8276226E-2,1.27E2,7.023519E-2,1E2,-7.5957716E-2,1.16E2,1.54E2,-5.619038E-2,1.803319E-2,5.6616195E-2,-3.7309248E-2,-1.7413594E-2,7.5297974E-2,3.962021E-2,-4.933781E-2],"split_indices":[353,147,152,95,165,186,383,0,0,41,0,284,0,243,163,0,0,0,0,0,0,0,0],"split_type":[0,0,0,0,0,0,0,0,0,0,0,0,0,0,0,0,0,0,0,0,0,0,0],"sum_hessian":[3.2091587E1,9.729936E0,2.2361652E1,5.9484735E0,3.7814627E0,6.5392947E0,1.5822357E1,4.85071E0,1.0977635E0,2.0467951E0,1.7346673E0,3.1692808E0,3.3700142E0,8.118724E0,7.7036333E0,1.0430207E0,1.0037745E0,1.9315609E0,1.2377198E0,1.6714804E0,6.447243E0,3.9715295E0,3.7321038E0],"tree_param":{"num_deleted":"0","num_feature":"384","num_nodes":"23","size_leaf_vector":"1"}},{"base_weights":[-2.2290818E-2,7.191817E-2,-3.5750592E-1,1.6591348E-1,-4.4634882E-1,4.064214E-2,-5.58287E-1,2.781347E-1,-4.1272244E-1,-7.5544946E-2,2.7165774E-2,-7.99476E-2,2.8740302E-2,-3.80196E-2,3.962761E-2,2.6938293E-2,-7.21445E-2],"categories":[],"categories_nodes":[],"categories_segments":[],"categories_sizes":[],"default_left":[0,0,0,0,0,0,0,0,0,0,0,0,0,0,0,0,0],"id":41,"left_children":[1,3,5,7,9,-1,11,13,15,-1,-1,-1,-1,-1,-1,-1,-1],"loss_changes":[1.0441834E0,1.3410059E0,1.3377984E0,1.5916715E0,1.1514937E0,0E0,1.4855362E0,1.6787158E0,1.0571084E0,0E0,0E0,0E0,0E0,0E0,0E0,0E0,0E0],"parents":[2147483647,0,0,1,1,2,2,3,3,4,4,6,6,7,7,8,8],"right_children":[2,4,6,8,10,-1,12,14,16,-1,-1,-1,-1,-1,-1,-1,-1],"split_conditions":[1.56E2,1.78E2,4.6E1,1.52E2,1.9E2,4.064214E-2,1.61E2,1.36E2,1E2,-7.5544946E-2,2.7165774E-2,-7.99476E-2,2.8740302E-2,-3.80196E-2,3.962761E-2,2.6938293E-2,-7.21445E-2],"split_indices":[77,79,333,347,166,0,74,252,350,0,0,0,0,0,0,0,0],"split_type":[0,0,0,0,0,0,0,0,0,0,0,0,0,0,0,0,0],"sum_hessian":[3.1250263E1,2.500758E1,6.2426834E0,2.1743877E1,3.2637022E0,1.0861031E0,5.1565804E0,1.8646822E1,3.0970564E0,2.2450597E0,1.0186427E0,4.0548053E0,1.1017747E0,2.499648E0,1.6147173E1,1.0046859E0,2.0923705E0],"tree_param":{"num_deleted":"0","num_feature":"384","num_nodes":"17","size_leaf_vector":"1"}},{"base_weights":[-2.4322055E-2,-2.7653128E-1,9.610033E-2,-6.4700747E-1,1.14640184E-1,3.3667803E-1,-1.7182922E-1,-8.293847E-2,8.666874E-3,5.311159E-1,-2.8036973E-1,5.8163726E-1,-2.7449843E-1,-5.867379E-1,1.6127814E-1,9.865989E-3,7.0480876E-2,-6.491005E-2,2.7700797E-2,3.8022463E-5,7.7614695E-2,-6.2960185E-2,4.1496947E-2,-8.297592E-2,1.9460794E-2,-2.351549E-2,6.638735E-2],"categories":[],"categories_nodes":[],"categories_segments":[],"categories_sizes":[],"default_left":[0,0,0,0,0,0,0,0,0,0,0,0,0,0,0,0,0,0,0,0,0,0,0,0,0,0,0],"id":42,"left_children":[1,3,5,7,9,11,13,-1,-1,15,17,19,21,23,25,-1,-1,-1,-1,-1,-1,-1,-1,-1,-1,-1,-1],"loss_changes":[9.8942685E-1,1.5962737E0,1.4887697E0,8.138001E-1,1.1291244E0,1.9613965E0,1.6376915E0,0E0,0E0,1.7427456E-1,9.428002E-1,1.0072796E0,1.2706444E0,1.1464958E0,1.546291E0,0E0,0E0,0E0,0E0,0E0,0E0,0E0,0E0,0E0,0E0,0E0,0E0],"parents":[2147483647,0,0,1,1,2,2,3,3,4,4,5,5,6,6,9,9,10,10,11,11,12,12,13,13,14,14],"right_children":[2,4,6,8,10,12,14,-1,-1,16,18,20,22,24,26,-1,-1,-1,-1,-1,-1,-1,-1,-1,-1,-1,-1],"split_conditions":[1.49E2,1.5E2,1.02E2,1.61E2,9.8E1,1.35E2,1.5E2,-8.293847E-2,8.666874E-3,1.39E2,1.61E2,1.37E2,1.5E2,1.12E2,2.02E2,9.865989E-3,7.0480876E-2,-6.491005E-2,2.7700797E-2,3.8022463E-5,7.7614695E-2,-6.2960185E-2,4.1496947E-2,-8.297592E-2,1.9460794E-2,-2.351549E-2,6.638735E-2],"split_indices":[260,229,23,327,245,40,152,0,0,76,80,274,162,82,234,0,0,0,0,0,0,0,0,0,0,0,0],"split_type":[0,0,0,0,0,0,0,0,0,0,0,0,0,0,0,0,0,0,0,0,0,0,0,0,0,0,0],"sum_hessian":[3.0702343E1,9.50306E0,2.1199284E1,4.544739E0,4.958321E0,1.1034584E1,1.01647E1,3.5354474E0,1.0092916E0,2.245856E0,2.7124648E0,7.91185E0,3.122734E0,4.1874847E0,5.9772143E0,1.0928698E0,1.1529864E0,1.533454E0,1.1790109E0,2.2349777E0,5.6768723E0,2.1184683E0,1.0042659E0,3.1467826E0,1.0407022E0,3.638996E0,2.3382187E0],"tree_param":{"num_deleted":"0","num_feature":"384","num_nodes":"27","size_leaf_vector":"1"}},{"base_weights":[-2.2980101E-2,-7.489571E-2,5.359701E-2,-2.8923088E-1,1.3603604E-1,-6.40217E-1,6.68636E-2,2.6750547E-1,-5.5176385E-2,-8.273979E-2,6.993532E-3,3.9767876E-2,-5.293856E-2,-3.4206074E-2,4.2595346E-2],"categories":[],"categories_nodes":[],"categories_segments":[],"categories_sizes":[],"default_left":[0,0,0,0,0,0,0,0,0,0,0,0,0,0,0],"id":43,"left_children":[1,3,-1,5,7,9,11,13,-1,-1,-1,-1,-1,-1,-1],"loss_changes":[9.3499583E-1,1.354699E0,0E0,1.8863972E0,1.5350449E0,1.0578918E0,1.8333745E0,1.4548974E0,0E0,0E0,0E0,0E0,0E0,0E0,0E0],"parents":[2147483647,0,0,1,1,3,3,4,4,5,5,6,6,7,7],"right_children":[2,4,-1,6,8,10,12,14,-1,-1,-1,-1,-1,-1,-1],"split_conditions":[1.86E2,1.52E2,5.359701E-2,9.6E1,1.63E2,1.95E2,1.23E2,1.72E2,-5.5176385E-2,-8.273979E-2,6.993532E-3,3.9767876E-2,-5.293856E-2,-3.4206074E-2,4.2595346E-2],"split_indices":[163,27,0,60,187,166,29,234,0,0,0,0,0,0,0],"split_type":[0,0,0,0,0,0,0,0,0,0,0,0,0,0,0],"sum_hessian":[2.983764E1,2.8094238E1,1.7434022E0,1.3750582E1,1.4343657E1,6.523137E0,7.2274446E0,1.2554919E1,1.7887379E0,5.031771E0,1.491366E0,4.862584E0,2.3648605E0,2.351114E0,1.0203805E1],"tree_param":{"num_deleted":"0","num_feature":"384","num_nodes":"15","size_leaf_vector":"1"}},{"base_weights":[-2.4367971E-2,5.5882346E-2,-3.8609433E-1,-2.6866767E-1,1.9594851E-1,2.8697034E-2,-6.3086176E-1,-5.383436E-1,3.459471E-1,3.83326E-1,-1.7924993E-1,-1.041964E-2,-7.556554E-2,-7.570807E-2,1.0996779E-2,-1.263948E-2,6.33947E-2,-1.0095279E-2,6.42117E-2,-5.477888E-2,3.398692E-2],"categories":[],"categories_nodes":[],"categories_segments":[],"categories_sizes":[],"default_left":[0,0,0,0,0,0,0,0,0,0,0,0,0,0,0,0,0,0,0,0,0],"id":44,"left_children":[1,3,5,7,9,-1,11,13,15,17,19,-1,-1,-1,-1,-1,-1,-1,-1,-1,-1],"loss_changes":[9.006216E-1,1.218983E0,1.1076896E0,1.5381577E0,1.3693786E0,0E0,2.1291089E-1,9.42665E-1,5.0132096E-1,1.6511213E0,1.4954276E0,0E0,0E0,0E0,0E0,0E0,0E0,0E0,0E0,0E0,0E0],"parents":[2147483647,0,0,1,1,2,2,3,3,4,4,6,6,7,7,8,8,9,9,10,10],"right_children":[2,4,6,8,10,-1,12,14,16,18,20,-1,-1,-1,-1,-1,-1,-1,-1,-1,-1],"split_conditions":[1.78E2,1E2,9.2E1,1.29E2,1.62E2,2.8697034E-2,1.79E2,1.35E2,1.51E2,1.41E2,1.44E2,-1.041964E-2,-7.556554E-2,-7.570807E-2,1.0996779E-2,-1.263948E-2,6.33947E-2,-1.0095279E-2,6.42117E-2,-5.477888E-2,3.398692E-2],"split_indices":[153,240,355,65,229,0,127,352,211,353,191,0,0,0,0,0,0,0,0,0,0],"split_type":[0,0,0,0,0,0,0,0,0,0,0,0,0,0,0,0,0,0,0,0,0],"sum_hessian":[2.9282001E1,2.4657219E1,4.624782E0,7.156532E0,1.7500687E1,1.1873555E0,3.4374266E0,5.0603056E0,2.0962262E0,1.1657275E1,5.843411E0,1.0099777E0,2.427449E0,3.658255E0,1.4020506E0,1.006545E0,1.0896813E0,4.272325E0,7.3849506E0,3.3850386E0,2.4583724E0],"tree_param":{"num_deleted":"0","num_feature":"384","num_nodes":"21","size_leaf_vector":"1"}},{"base_weights":[-2.4133682E-2,-2.7372178E-1,9.202295E-2,3.0558127E-1,-5.420246E-1,4.7694764E-1,-1.0130276E-1,-3.4806535E-2,6.9520704E-2,1.240844E-2,-7.877172E-2,6.3131803E-1,-2.1379339E-2,1.1125229E-1,-7.004273E-2,2.029173E-3,8.416235E-2,-6.2192388E-2,2.6289865E-2],"categories":[],"categories_nodes":[],"categories_segments":[],"categories_sizes":[],"default_left":[0,0,0,0,0,0,0,0,0,0,0,0,0,0,0,0,0,0,0],"id":45,"left_children":[1,3,5,7,9,11,13,-1,-1,-1,-1,15,-1,17,-1,-1,-1,-1,-1],"loss_changes":[8.850617E-1,1.6688141E0,1.6101911E0,1.1844926E0,1.2385027E0,9.018793E-1,1.9621797E0,0E0,0E0,0E0,0E0,7.708278E-1,0E0,1.4737415E0,0E0,0E0,0E0,0E0,0E0],"parents":[2147483647,0,0,1,1,2,2,3,3,4,4,5,5,6,6,11,11,13,13],"right_children":[2,4,6,8,10,12,14,-1,-1,-1,-1,16,-1,18,-1,-1,-1,-1,-1],"split_conditions":[1E2,9.5E1,7.6E1,1.19E2,1.2E2,1.52E2,1.17E2,-3.4806535E-2,6.9520704E-2,1.240844E-2,-7.877172E-2,1.73E2,-2.1379339E-2,6.2E1,-7.004273E-2,2.029173E-3,8.416235E-2,-6.2192388E-2,2.6289865E-2],"split_indices":[265,134,305,184,224,37,198,0,0,0,0,256,0,33,0,0,0,0,0],"split_type":[0,0,0,0,0,0,0,0,0,0,0,0,0,0,0,0,0,0,0],"sum_hessian":[2.8659674E1,8.671201E0,1.9988474E1,2.7008178E0,5.970383E0,6.1922374E0,1.3796236E1,1.0484974E0,1.6523204E0,1.7421409E0,4.228242E0,5.13146E0,1.0607773E0,1.07844715E1,3.0117643E0,1.5946919E0,3.5367684E0,1.3168156E0,9.467656E0],"tree_param":{"num_deleted":"0","num_feature":"384","num_nodes":"19","size_leaf_vector":"1"}},{"base_weights":[-2.5153682E-2,2.7813724E-1,-1.1547206E-1,5.01975E-1,-4.6095245E-2,1.707217E-2,-5.289134E-1,6.959271E-1,-1.3090037E-2,-3.556281E-1,2.315355E-1,-8.1159666E-2,1.8972047E-2,1.6496701E-2,8.095516E-2,3.9026137E-2,-5.7883807E-2,-4.795586E-2,4.3371137E-2],"categories":[],"categories_nodes":[],"categories_segments":[],"categories_sizes":[],"default_left":[0,0,0,0,0,0,0,0,0,0,0,0,0,0,0,0,0,0,0],"id":46,"left_children":[1,3,5,7,-1,9,11,13,-1,15,17,-1,-1,-1,-1,-1,-1,-1,-1],"loss_changes":[8.2665974E-1,1.3810103E0,1.2725109E0,8.0455506E-1,0E0,1.5553031E0,1.297384E0,1.4440799E-1,0E0,1.4121765E0,1.9767163E0,0E0,0E0,0E0,0E0,0E0,0E0,0E0,0E0],"parents":[2147483647,0,0,1,1,2,2,3,3,5,5,6,6,7,7,9,9,10,10],"right_children":[2,4,6,8,-1,10,12,14,-1,16,18,-1,-1,-1,-1,-1,-1,-1,-1],"split_conditions":[7.5E1,1.45E2,1.28E2,1.35E2,-4.6095245E-2,9.1E1,1.65E2,1.27E2,-1.3090037E-2,1.18E2,9.5E1,-8.1159666E-2,1.8972047E-2,1.6496701E-2,8.095516E-2,3.9026137E-2,-5.7883807E-2,-4.795586E-2,4.3371137E-2],"split_indices":[123,249,335,154,0,335,332,210,0,350,149,0,0,0,0,0,0,0,0],"split_type":[0,0,0,0,0,0,0,0,0,0,0,0,0,0,0,0,0,0,0],"sum_hessian":[2.8005585E1,5.949047E0,2.2056538E1,4.8124022E0,1.1366448E0,1.7428032E1,4.6285067E0,3.607281E0,1.2051212E0,6.1252246E0,1.1302807E1,3.2289858E0,1.3995209E0,1.0680785E0,2.5392025E0,1.2384276E0,4.8867965E0,2.1984432E0,9.104363E0],"tree_param":{"num_deleted":"0","num_feature":"384","num_nodes":"19","size_leaf_vector":"1"}},{"base_weights":[-2.5235716E-2,-2.4880295E-1,9.532943E-2,-6.6613734E-1,7.344577E-2,3.123568E-1,-2.0168954E-1,-7.62337E-2,-1.6430667E-2,-4.447023E-2,3.8738102E-1,4.7598267E-1,-2.3121357E-1,3.7301978E-1,-4.8935816E-1,6.913752E-2,-1.5392164E-2,-6.470758E-3,6.942812E-2,-5.9383597E-2,2.858898E-2,-6.223446E-3,6.435292E-2,-7.13131E-2,2.6455788E-2],"categories":[],"categories_nodes":[],"categories_segments":[],"categories_sizes":[],"default_left":[0,0,0,0,0,0,0,0,0,0,0,0,0,0,0,0,0,0,0,0,0,0,0,0,0],"id":47,"left_children":[1,3,5,7,9,11,13,-1,-1,-1,15,17,19,21,23,-1,-1,-1,-1,-1,-1,-1,-1,-1,-1],"loss_changes":[7.889212E-1,1.423755E0,1.2984562E0,9.457159E-2,1.25713E0,1.1299107E0,1.6207709E0,0E0,0E0,0E0,8.7775844E-1,1.1237872E0,7.934586E-1,4.4853267E-1,1.239705E0,0E0,0E0,0E0,0E0,0E0,0E0,0E0,0E0,0E0,0E0],"parents":[2147483647,0,0,1,1,2,2,3,3,4,4,5,5,6,6,10,10,11,11,12,12,13,13,14,14],"right_children":[2,4,6,8,10,12,14,-1,-1,-1,16,18,20,22,24,-1,-1,-1,-1,-1,-1,-1,-1,-1,-1],"split_conditions":[2.01E2,1.28E2,2.23E2,1.35E2,1.09E2,1.72E2,9.8E1,-7.62337E-2,-1.6430667E-2,-4.447023E-2,8E1,1.49E2,1.28E2,8.9E1,1.41E2,6.913752E-2,-1.5392164E-2,-6.470758E-3,6.942812E-2,-5.9383597E-2,2.858898E-2,-6.223446E-3,6.435292E-2,-7.13131E-2,2.6455788E-2],"split_indices":[273,272,273,257,240,153,329,0,0,0,36,151,380,277,172,0,0,0,0,0,0,0,0,0,0],"split_type":[0,0,0,0,0,0,0,0,0,0,0,0,0,0,0,0,0,0,0,0,0,0,0,0,0],"sum_hessian":[2.7388777E1,9.222888E0,1.816589E1,3.5535898E0,5.669298E0,1.0466519E1,7.6993704E0,2.5463495E0,1.0072403E0,1.9818034E0,3.6874948E0,8.140425E0,2.326095E0,2.4693537E0,5.2300167E0,2.1838222E0,1.5036724E0,2.543692E0,5.596732E0,1.2800568E0,1.0460383E0,1.2415748E0,1.2277789E0,4.0746894E0,1.1553271E0],"tree_param":{"num_deleted":"0","num_feature":"384","num_nodes":"25","size_leaf_vector":"1"}},{"base_weights":[-2.50613E-2,-2.6718405E-1,8.72912E-2,2.7495855E-1,-5.192541E-1,4.4546825E-1,-9.5849395E-2,-2.3674285E-2,6.036408E-2,1.1277266E-2,-7.608392E-2,-5.299234E-3,6.3851124E-1,9.884905E-2,-6.6484764E-2,5.3551807E-3,7.997619E-2,-5.7998456E-2,2.3535455E-2],"categories":[],"categories_nodes":[],"categories_segments":[],"categories_sizes":[],"default_left":[0,0,0,0,0,0,0,0,0,0,0,0,0,0,0,0,0,0,0],"id":48,"left_children":[1,3,5,7,9,11,13,-1,-1,-1,-1,-1,15,17,-1,-1,-1,-1,-1],"loss_changes":[7.7639306E-1,1.3755075E0,1.3325051E0,7.3438525E-1,1.078856E0,6.909919E-1,1.5982099E0,0E0,0E0,0E0,0E0,0E0,4.287517E-1,1.1722262E0,0E0,0E0,0E0,0E0,0E0],"parents":[2147483647,0,0,1,1,2,2,3,3,4,4,5,5,6,6,12,12,13,13],"right_children":[2,4,6,8,10,12,14,-1,-1,-1,-1,-1,16,18,-1,-1,-1,-1,-1],"split_conditions":[1E2,9.5E1,7.6E1,1.18E2,1.2E2,1.08E2,1.17E2,-2.3674285E-2,6.036408E-2,1.1277266E-2,-7.608392E-2,-5.299234E-3,1.74E2,6.2E1,-6.6484764E-2,5.3551807E-3,7.997619E-2,-5.7998456E-2,2.3535455E-2],"split_indices":[265,134,305,6,224,319,198,0,0,0,0,0,256,33,0,0,0,0,0],"split_type":[0,0,0,0,0,0,0,0,0,0,0,0,0,0,0,0,0,0,0],"sum_hessian":[2.6683252E1,8.020584E0,1.8662668E1,2.5167825E0,5.503802E0,5.829414E0,1.2833255E1,1.0937397E0,1.4230427E0,1.669447E0,3.8343546E0,1.8298938E0,3.9995203E0,1.017714E1,2.6561143E0,1.1521258E0,2.8473945E0,1.1599548E0,9.017185E0],"tree_param":{"num_deleted":"0","num_feature":"384","num_nodes":"19","size_leaf_vector":"1"}},{"base_weights":[-2.5201071E-2,5.1249523E-2,-3.7726223E-1,-9.979463E-2,3.6889315E-1,4.2132612E-2,-7.212807E-2,1.5432107E-1,-3.528336E-1,5.2032E-1,-2.9160244E-2,-2.975049E-2,4.2062826E-2,-5.860577E-2,2.955472E-2,-5.2294866E-3,6.961015E-2],"categories":[],"categories_nodes":[],"categories_segments":[],"categories_sizes":[],"default_left":[0,0,0,0,0,0,0,0,0,0,0,0,0,0,0,0,0],"id":49,"left_children":[1,3,5,7,9,-1,-1,11,13,15,-1,-1,-1,-1,-1,-1,-1],"loss_changes":[7.495162E-1,1.1484319E0,1.6664551E0,1.1147473E0,9.1982305E-1,0E0,0E0,1.1987925E0,1.4686277E0,7.0138454E-1,0E0,0E0,0E0,0E0,0E0,0E0,0E0],"parents":[2147483647,0,0,1,1,2,2,3,3,4,4,7,7,8,8,9,9],"right_children":[2,4,6,8,10,-1,-1,12,14,16,-1,-1,-1,-1,-1,-1,-1],"split_conditions":[1.52E2,1.2E2,8.2E1,1.17E2,1.31E2,4.2132612E-2,-7.212807E-2,1.36E2,1.49E2,1.19E2,-2.9160244E-2,-2.975049E-2,4.2062826E-2,-5.860577E-2,2.955472E-2,-5.2294866E-3,6.961015E-2],"split_indices":[347,7,285,125,326,0,0,155,224,293,0,0,0,0,0,0,0],"split_type":[0,0,0,0,0,0,0,0,0,0,0,0,0,0,0,0,0],"sum_hessian":[2.6128883E1,2.2169233E1,3.9596508E0,1.5489553E1,6.6796794E0,1.1245209E0,2.83513E0,7.922984E0,7.5665693E0,5.6065383E0,1.073141E0,2.8946579E0,5.028326E0,5.6355643E0,1.9310048E0,1.4818517E0,4.1246867E0],"tree_param":{"num_deleted":"0","num_feature":"384","num_nodes":"17","size_leaf_vector":"1"}}]},"name":"gbtree"},"learner_model_param":{"base_score":"[1.7475729E-1]","boost_from_average":"1","num_class":"0","num_feature":"384","num_target":"1"},"objective":{"name":"binary:logistic","reg_loss_param":{"scale_pos_weight":"1"}}},"version":[3,1,2]}