{"learner":{"attributes":{"scikit_learn":"{\"_estimator_type\": \"classifier\"}"},"feature_names":[],"feature_types":[],"gradient_booster":{"model":{"cats":{"enc":[],"feature_segments":[],"sorted_idx":[]},"gbtree_model_param":{"num_parallel_tree":"1","num_trees":"100"},"iteration_indptr":[0,1,2,3,4,5,6,7,8,9,10,11,12,13,14,15,16,17,18,19,20,21,22,23,24,25,26,27,28,29,30,31,32,33,34,35,36,37,38,39,40,41,42,43,44,45,46,47,48,49,50,51,52,53,54,55,56,57,58,59,60,61,62,63,64,65,66,67,68,69,70,71,72,73,74,75,76,77,78,79,80,81,82,83,84,85,86,87,88,89,90,91,92,93,94,95,96,97,98,99,100],"tree_info":[0,0,0,0,0,0,0,0,0,0,0,0,0,0,0,0,0,0,0,0,0,0,0,0,0,0,0,0,0,0,0,0,0,0,0,0,0,0,0,0,0,0,0,0,0,0,0,0,0,0,0,0,0,0,0,0,0,0,0,0,0,0,0,0,0,0,0,0,0,0,0,0,0,0,0,0,0,0,0,0,0,0,0,0,0,0,0,0,0,0,0,0,0,0,0,0,0,0,0,0],"trees":[{"base_weights":[6.978739E-8,-1.0248965E0,1.8328878E0,1.2214737E0,-1.2198501E0,2.6533515E0,-2.4429126E-1,-8.5025126E-1,2.6084375E0,-1.3474519E0,3.0399692E-1,2.8407035E0,-8.371394E-1,2.3966804E0,-8.144098E-1,-1.2642909E0,1.805213E-1,-9.0560175E-2,2.773817E0,1.457612E0,-1.376413E0,2.6401088E0,-6.802601E-1,2.9369168E0,-4.2464653E-1,-1.3290461E0,1.7780386E-1,2.7994626E0,-1.02654636E-1,2.136496E0,-1.1407949E0,6.652917E-2,-1.4254074E-1,2.9003568E0,-7.8265496E-2,2.4972914E-1,-9.921921E-2,1.2508422E0,-1.4002168E0,2.8536743E-1,-3.074862E-2,-1.0847812E0,2.290775E-1,2.9887824E0,-3.4010848E-1,2.0197271E-1,-1.3012339E-1,-1.3866322E-1,-3.074862E-2,6.428513E-2,2.8854808E-1,2.719911E-1,-9.0560175E-2,2.3077299E-1,-1.4123702E0,6.428513E-2,2.9515865E-1,-9.921922E-2,2.3972622E-1,-1.4487696E-1,-5.862266E-2,1.2759309E-1,-1.2813047E-1,-9.0560175E-2,3.0120203E-1,1.5931888E-1,-1.1623793E-1,-1.0542705E-1,1.8842925E-1,-1.4478946E-1,1.317655E-2],"categories":[],"categories_nodes":[],"categories_segments":[],"categories_sizes":[],"default_left":[0,0,0,0,0,0,0,0,0,0,0,0,0,0,0,0,0,0,0,0,0,0,0,0,0,0,0,0,0,0,0,0,0,0,0,0,0,0,0,0,0,0,0,0,0,0,0,0,0,0,0,0,0,0,0,0,0,0,0,0,0,0,0,0,0,0,0,0,0,0,0],"id":0,"left_children":[1,3,5,7,9,11,13,15,17,19,21,23,25,27,29,31,-1,-1,33,35,37,39,41,43,45,47,-1,49,-1,51,53,-1,-1,55,-1,-1,-1,57,59,-1,-1,61,-1,63,65,-1,-1,-1,-1,-1,-1,-1,-1,67,69,-1,-1,-1,-1,-1,-1,-1,-1,-1,-1,-1,-1,-1,-1,-1,-1],"loss_changes":[2.4085142E3,3.6161414E2,7.842892E2,1.9234093E2,1.4763452E2,2.1798828E2,1.9936278E2,3.2284E1,2.5687653E1,5.8777832E1,1.3818886E2,9.9625E1,2.4962643E1,3.532022E1,1.0701395E2,8.470177E0,0E0,0E0,1.9521057E1,2.1904083E1,4.5041138E1,1.2075485E1,5.3599255E1,5.2736572E1,2.3704071E1,4.7714233E-1,0E0,2.1006622E0,0E0,2.2272713E1,3.6985184E1,0E0,0E0,2.40802E0,0E0,0E0,0E0,1.9719135E1,2.628064E1,0E0,0E0,1.931623E1,0E0,2.984668E1,1.0816118E1,0E0,0E0,0E0,0E0,0E0,0E0,0E0,0E0,3.837649E1,4.704895E0,0E0,0E0,0E0,0E0,0E0,0E0,0E0,0E0,0E0,0E0,0E0,0E0,0E0,0E0,0E0,0E0],"parents":[2147483647,0,0,1,1,2,2,3,3,4,4,5,5,6,6,7,7,8,8,9,9,10,10,11,11,12,12,13,13,14,14,15,15,18,18,19,19,20,20,21,21,22,22,23,23,24,24,25,25,27,27,29,29,30,30,33,33,37,37,38,38,41,41,43,43,44,44,53,53,54,54],"right_children":[2,4,6,8,10,12,14,16,18,20,22,24,26,28,30,32,-1,-1,34,36,38,40,42,44,46,48,-1,50,-1,52,54,-1,-1,56,-1,-1,-1,58,60,-1,-1,62,-1,64,66,-1,-1,-1,-1,-1,-1,-1,-1,68,70,-1,-1,-1,-1,-1,-1,-1,-1,-1,-1,-1,-1,-1,-1,-1,-1],"split_conditions":[1.96E2,7E1,1.86E2,1.94E2,1.75E2,1.48E2,1.16E2,1.4E2,1.54E2,1.17E2,8.5E1,7.8E1,1.32E2,1.42E2,8.8E1,8.2E1,1.805213E-1,-9.0560175E-2,9.7E1,1.22E2,1.6E1,1.58E2,2.06E2,1.31E2,1.03E2,1.13E2,1.7780386E-1,1.02E2,-1.02654636E-1,1.51E2,3.6E1,6.652917E-2,-1.4254074E-1,1.1E2,-7.8265496E-2,2.4972914E-1,-9.921921E-2,1.6E2,1.8E2,2.8536743E-1,-3.074862E-2,1.2E2,2.290775E-1,7.7E1,1.22E2,2.0197271E-1,-1.3012339E-1,-1.3866322E-1,-3.074862E-2,6.428513E-2,2.8854808E-1,2.719911E-1,-9.0560175E-2,9.6E1,1.88E2,6.428513E-2,2.9515865E-1,-9.921922E-2,2.3972622E-1,-1.4487696E-1,-5.862266E-2,1.2759309E-1,-1.2813047E-1,-9.0560175E-2,3.0120203E-1,1.5931888E-1,-1.1623793E-1,-1.0542705E-1,1.8842925E-1,-1.4478946E-1,1.317655E-2],"split_indices":[210,189,166,78,344,58,279,381,27,50,259,39,97,370,115,371,0,0,98,1,39,25,78,57,178,40,0,55,0,0,39,0,0,193,0,0,0,210,276,0,0,307,0,265,24,0,0,0,0,0,0,0,0,322,232,0,0,0,0,0,0,0,0,0,0,0,0,0,0,0,0],"split_type":[0,0,0,0,0,0,0,0,0,0,0,0,0,0,0,0,0,0,0,0,0,0,0,0,0,0,0,0,0,0,0,0,0,0,0,0,0,0,0,0,0,0,0,0,0,0,0,0,0,0,0,0,0,0,0,0,0,0,0,0,0,0,0,0,0,0,0,0,0,0,0],"sum_hessian":[1.2801337E3,8.213178E2,4.588158E2,6.516642E1,7.561514E2,3.2870386E2,1.3011194E2,2.6287472E1,3.8878952E1,6.9783295E2,5.8318424E1,3.121361E2,1.6567734E1,2.253212E1,1.0757982E2,2.3194828E1,3.0926437E0,1.5463219E0,3.733263E1,6.627094E0,6.912059E2,1.6788637E1,4.152979E1,3.033E2,8.836124E0,1.4358703E1,2.2090313E0,2.0323088E1,2.209031E0,1.0161544E1,9.7418274E1,1.5463219E0,2.1648506E1,3.622811E1,1.1045157E0,4.6389656E0,1.9881282E0,5.743481E0,6.854624E2,1.5684122E1,1.1045156E0,3.7111725E1,4.4180627E0,2.9866104E2,4.6389656E0,1.9881282E0,6.8479967E0,1.3254188E1,1.1045157E0,1.1045157E0,1.9218573E1,8.615222E0,1.5463219E0,1.6125929E1,8.129235E1,1.1045157E0,3.5123596E1,1.9881281E0,3.7553532E0,6.4614166E2,3.9320755E1,2.4299345E0,3.468179E1,1.5463219E0,2.9711472E2,1.1045157E0,3.53445E0,9.277931E0,6.8479967E0,7.952512E1,1.767225E0],"tree_param":{"num_deleted":"0","num_feature":"384","num_nodes":"71","size_leaf_vector":"1"}},{"base_weights":[-5.314251E-3,-9.632805E-1,1.5637485E0,-1.2676945E0,3.689114E-1,2.2117748E0,-2.2568078E-1,1.5861145E0,-1.3234569E0,1.755965E0,-7.461992E-1,2.355767E0,-7.8085715E-1,2.0028853E0,-7.6674414E-1,2.3387527E-1,-1.0340829E-1,-3.172676E-1,-1.363166E0,2.3394449E0,-3.0445868E-2,-1.1241809E0,1.77225E0,2.428793E0,-3.8609147E-1,-1.3281998E-1,1.3468285E0,2.3165736E0,-9.819187E-2,1.826923E0,-1.0844465E0,-1.0948075E0,1.5354757E0,2.2048649E-1,-1.378489E0,-9.242951E-2,2.4756367E0,1.7758367E0,-9.962292E-1,-1.2017329E0,1.7393547E-1,2.3559634E-1,-9.192147E-2,-8.468109E-2,2.4615426E0,1.8070787E-1,-1.2411436E-1,1.2612516E-2,1.7855257E-1,2.4252029E-1,1.0390295E-2,2.3030913E-1,-8.684399E-2,-1.1909102E0,1.9514051E-1,8.1669755E-2,-1.294236E-1,-8.478321E-2,2.2115724E-1,1.8737029E-1,-1.0973126E-1,-1.3896671E-1,-2.1652952E-2,2.5462827E-1,-2.9901793E-2,1.3310312E-2,2.0997535E-1,1.0335038E-1,-1.3070695E-1,1.4209525E-1,-1.2808032E-1,-2.607019E-2,2.4905132E-1,-1.3756089E-1,6.401884E-3],"categories":[],"categories_nodes":[],"categories_segments":[],"categories_sizes":[],"default_left":[0,0,0,0,0,0,0,0,0,0,0,0,0,0,0,0,0,0,0,0,0,0,0,0,0,0,0,0,0,0,0,0,0,0,0,0,0,0,0,0,0,0,0,0,0,0,0,0,0,0,0,0,0,0,0,0,0,0,0,0,0,0,0,0,0,0,0,0,0,0,0,0,0,0,0],"id":1,"left_children":[1,3,5,7,9,11,13,15,17,19,21,23,25,27,29,-1,-1,31,33,35,37,39,41,43,45,-1,47,49,-1,51,53,55,57,59,61,-1,63,65,67,69,-1,-1,-1,-1,71,-1,-1,-1,-1,-1,-1,-1,-1,73,-1,-1,-1,-1,-1,-1,-1,-1,-1,-1,-1,-1,-1,-1,-1,-1,-1,-1,-1,-1,-1],"loss_changes":[1.9126549E3,3.2087732E2,5.598629E2,1.0447937E2,2.2981177E2,1.5448059E2,1.5726804E2,2.7630917E1,2.4801636E1,6.900786E1,8.06181E1,6.865674E1,2.1600992E1,2.6157478E1,8.8210625E1,0E0,0E0,3.810151E1,1.5040649E1,2.4453491E1,3.1896917E1,1.8174873E1,1.9709301E1,3.7439575E1,2.0314846E1,0E0,1.9048004E0,5.3675385E0,0E0,1.7134377E1,3.2658188E1,8.068176E0,1.458823E1,1.6612936E1,7.5129395E0,0E0,1.01979065E1,3.113428E0,8.855069E0,1.6566704E1,0E0,0E0,0E0,0E0,2.6404175E1,0E0,0E0,0E0,0E0,0E0,0E0,0E0,0E0,2.1248688E1,0E0,0E0,0E0,0E0,0E0,0E0,0E0,0E0,0E0,0E0,0E0,0E0,0E0,0E0,0E0,0E0,0E0,0E0,0E0,0E0,0E0],"parents":[2147483647,0,0,1,1,2,2,3,3,4,4,5,5,6,6,7,7,8,8,9,9,10,10,11,11,12,12,13,13,14,14,17,17,18,18,19,19,20,20,21,21,22,22,23,23,24,24,26,26,27,27,29,29,30,30,31,31,32,32,33,33,34,34,36,36,37,37,38,38,39,39,44,44,53,53],"right_children":[2,4,6,8,10,12,14,16,18,20,22,24,26,28,30,-1,-1,32,34,36,38,40,42,44,46,-1,48,50,-1,52,54,56,58,60,62,-1,64,66,68,70,-1,-1,-1,-1,72,-1,-1,-1,-1,-1,-1,-1,-1,74,-1,-1,-1,-1,-1,-1,-1,-1,-1,-1,-1,-1,-1,-1,-1,-1,-1,-1,-1,-1,-1],"split_conditions":[1.96E2,2E2,1.86E2,1.17E2,8E1,1.48E2,1.17E2,1.22E2,6.9E1,1.36E2,1.71E2,7.8E1,1.12E2,1.42E2,8.8E1,2.3387527E-1,-1.0340829E-1,1.57E2,6.3E1,1.2E2,1.16E2,1.86E2,1.08E2,1.2E2,1.03E2,-1.3281998E-1,5.8E1,1.82E2,-9.819187E-2,1.51E2,1.42E2,5.9E1,1.17E2,1.03E2,1.86E2,-9.242951E-2,1.42E2,1E2,1.5E2,5.9E1,1.7393547E-1,2.3559634E-1,-9.192147E-2,-8.468109E-2,9.6E1,1.8070787E-1,-1.2411436E-1,1.2612516E-2,1.7855257E-1,2.4252029E-1,1.0390295E-2,2.3030913E-1,-8.684399E-2,1.03E2,1.9514051E-1,8.1669755E-2,-1.294236E-1,-8.478321E-2,2.2115724E-1,1.8737029E-1,-1.0973126E-1,-1.3896671E-1,-2.1652952E-2,2.5462827E-1,-2.9901793E-2,1.3310312E-2,2.0997535E-1,1.0335038E-1,-1.3070695E-1,1.4209525E-1,-1.2808032E-1,-2.607019E-2,2.4905132E-1,-1.3756089E-1,6.401884E-3],"split_indices":[210,78,166,50,189,58,279,1,189,156,344,39,204,370,115,0,0,379,259,136,270,77,137,33,178,0,17,119,0,0,283,69,5,323,249,0,140,36,50,259,0,0,0,0,213,0,0,0,0,0,0,0,0,97,0,0,0,0,0,0,0,0,0,0,0,0,0,0,0,0,0,0,0,0,0],"split_type":[0,0,0,0,0,0,0,0,0,0,0,0,0,0,0,0,0,0,0,0,0,0,0,0,0,0,0,0,0,0,0,0,0,0,0,0,0,0,0,0,0,0,0,0,0,0,0,0,0,0,0,0,0,0,0,0,0,0,0,0,0,0,0,0,0,0,0,0,0,0,0,0,0,0,0],"sum_hessian":[1.2704635E3,7.890858E2,4.813777E2,6.423527E2,1.467331E2,3.532245E2,1.281532E2,1.1784828E1,6.305679E2,6.513672E1,8.1596375E1,3.3721213E2,1.6012363E1,2.4507675E1,1.0364552E2,9.2385235E0,2.5463045E0,2.4281769E1,6.0628613E2,4.886635E1,1.627037E1,7.14295E1,1.0166882E1,3.2857513E2,8.636989E0,1.3034914E1,2.9774497E0,2.2379568E1,2.1281066E0,1.07919035E1,9.285362E1,1.7391975E1,6.889794E0,5.681746E0,6.006044E2,1.7256479E0,4.71407E1,5.376351E0,1.089402E1,7.011104E1,1.318457E0,8.457342E0,1.7095389E0,3.006536E0,3.255686E2,2.1104267E0,6.5265627E0,1.1275284E0,1.8499212E0,2.124072E1,1.1388478E0,9.295311E0,1.496593E0,9.029481E1,2.5588114E0,1.350675E0,1.60413E1,1.4664394E0,5.4233546E0,2.3330393E0,3.348707E0,5.9468756E2,5.9168105E0,4.6050503E1,1.0901972E0,1.1178956E0,4.2584553E0,1.1380278E0,9.755993E0,1.5552168E0,6.8555824E1,3.3440175E0,3.2222458E2,7.862652E1,1.1668294E1],"tree_param":{"num_deleted":"0","num_feature":"384","num_nodes":"75","size_leaf_vector":"1"}},{"base_weights":[-8.072565E-3,-1.0040122E0,1.2634516E0,-1.2456089E0,1.159533E-1,1.8694766E0,-3.0740446E-1,-1.2886014E0,1.1729287E0,-5.5661833E-1,1.8300725E0,2.0352173E0,-3.8794997E-1,1.5917026E0,-8.236617E-1,-3.1663686E-1,-1.3212503E0,2.097355E-1,-1.0189938E-1,1.5759059E0,-9.935465E-1,2.1532335E0,-1.0603567E-1,-8.437963E-1,2.0885692E0,-1.1540077E0,1.0117145E0,2.1525209E-1,-3.555652E-1,-1.0794224E0,1.4166353E0,-9.840095E-1,1.9177844E-1,-2.4587667E-2,-1.3324889E0,-4.7690755E-1,1.9780193E-1,-1.0990831E0,1.690836E-1,4.365655E-2,2.2051822E-1,-1.1594216E-1,3.2132406E-2,2.1222358E0,-9.12298E-2,5.7876665E-2,-1.2994562E-1,1.9111978E-1,-1.0277157E-1,1.4770286E-1,-1.1709924E-1,-1.1573677E0,1.4922665E-1,2.0639001E-1,-9.7860105E-2,9.472474E-2,-1.21648304E-1,1.4755052E-1,-1.0352743E-1,6.0623378E-2,-1.3375448E-1,1.0424602E-2,-8.066881E-2,-1.1604965E-1,1.4589936E-1,2.1545449E-1,-3.3348024E-2,-1.2172099E-1,1.4764048E-1],"categories":[],"categories_nodes":[],"categories_segments":[],"categories_sizes":[],"default_left":[0,0,0,0,0,0,0,0,0,0,0,0,0,0,0,0,0,0,0,0,0,0,0,0,0,0,0,0,0,0,0,0,0,0,0,0,0,0,0,0,0,0,0,0,0,0,0,0,0,0,0,0,0,0,0,0,0,0,0,0,0,0,0,0,0,0,0,0,0],"id":2,"left_children":[1,3,5,7,9,11,13,15,17,19,21,23,25,27,29,31,33,-1,-1,35,37,39,-1,41,43,45,47,-1,49,51,53,55,-1,57,59,61,-1,63,-1,-1,-1,-1,-1,65,-1,-1,-1,-1,-1,-1,-1,67,-1,-1,-1,-1,-1,-1,-1,-1,-1,-1,-1,-1,-1,-1,-1,-1,-1],"loss_changes":[1.5742775E3,1.8877014E2,5.2038574E2,6.1143616E1,1.4467946E2,1.4826465E2,1.5118858E2,1.747821E1,2.3494404E1,8.566897E1,3.530168E1,5.8189453E1,3.0975346E1,3.6820023E1,7.077629E1,3.1179287E1,7.9141235E0,0E0,0E0,1.393251E1,2.3255249E1,1.9020538E0,0E0,3.0924063E0,3.8404297E1,5.39793E0,2.0980358E1,0E0,1.4043844E1,2.3583984E1,2.1888885E1,8.239973E0,0E0,1.0176553E1,6.1098633E0,7.324959E-1,0E0,1.3204849E1,0E0,0E0,0E0,0E0,0E0,2.9064209E1,0E0,0E0,0E0,0E0,0E0,0E0,0E0,1.8565933E1,0E0,0E0,0E0,0E0,0E0,0E0,0E0,0E0,0E0,0E0,0E0,0E0,0E0,0E0,0E0,0E0,0E0],"parents":[2147483647,0,0,1,1,2,2,3,3,4,4,5,5,6,6,7,7,8,8,9,9,10,10,11,11,12,12,13,13,14,14,15,15,16,16,19,19,20,20,21,21,23,23,24,24,25,25,26,26,28,28,29,29,30,30,31,31,33,33,34,34,35,35,37,37,43,43,51,51],"right_children":[2,4,6,8,10,12,14,16,18,20,22,24,26,28,30,32,34,-1,-1,36,38,40,-1,42,44,46,48,-1,50,52,54,56,-1,58,60,62,-1,64,-1,-1,-1,-1,-1,66,-1,-1,-1,-1,-1,-1,-1,68,-1,-1,-1,-1,-1,-1,-1,-1,-1,-1,-1,-1,-1,-1,-1,-1,-1],"split_conditions":[1.91E2,2E2,1.86E2,1.89E2,1.69E2,1.39E2,9.3E1,8E1,9.9E1,6.9E1,1.29E2,6.5E1,1.13E2,1.41E2,1.63E2,1.31E2,6.3E1,2.097355E-1,-1.0189938E-1,1.15E2,1.71E2,1.12E2,-1.0603567E-1,1.45E2,1.9E2,4.8E1,1.2E2,2.1525209E-1,8.4E1,1.42E2,1.27E2,7.5E1,1.9177844E-1,8.5E1,3.8E1,8.8E1,1.9780193E-1,1.61E2,1.690836E-1,4.365655E-2,2.2051822E-1,-1.1594216E-1,3.2132406E-2,1.16E2,-9.12298E-2,5.7876665E-2,-1.2994562E-1,1.9111978E-1,-1.0277157E-1,1.4770286E-1,-1.1709924E-1,1.89E2,1.4922665E-1,2.0639001E-1,-9.7860105E-2,9.472474E-2,-1.21648304E-1,1.4755052E-1,-1.0352743E-1,6.0623378E-2,-1.3375448E-1,1.0424602E-2,-8.066881E-2,-1.1604965E-1,1.4589936E-1,2.1545449E-1,-3.3348024E-2,-1.2172099E-1,1.4764048E-1],"split_indices":[210,78,166,134,344,58,115,58,253,189,370,9,353,1,34,117,259,0,0,209,192,318,0,31,50,124,189,0,189,283,115,340,0,51,124,83,0,381,0,0,0,0,0,189,0,0,0,0,0,0,0,249,0,0,0,0,0,0,0,0,0,0,0,0,0,0,0,0,0],"split_type":[0,0,0,0,0,0,0,0,0,0,0,0,0,0,0,0,0,0,0,0,0,0,0,0,0,0,0,0,0,0,0,0,0,0,0,0,0,0,0,0,0,0,0,0,0,0,0,0,0,0,0,0,0,0,0,0,0,0,0,0,0,0,0,0,0,0,0,0,0],"sum_hessian":[1.2411486E3,6.96116E2,5.4503253E2,5.7250433E2,1.23611664E2,3.93163E2,1.5186955E2,5.629642E2,9.540159E0,8.926277E1,3.4348896E1,3.6636298E2,2.6800003E1,3.2015175E1,1.19854385E2,1.8643465E1,5.4432074E2,6.740535E0,2.7996242E0,1.4735608E1,7.452716E1,3.1124146E1,3.2247512E0,6.396113E0,3.599669E2,1.7433756E1,9.366248E0,2.4774614E1,7.24056E0,1.0803848E2,1.1815898E1,1.4786634E1,3.8568306E0,4.704679E0,5.39616E2,2.3832045E0,1.2352404E1,7.2276184E1,2.2509756E0,1.1904039E0,2.9933743E1,5.0366116E0,1.3595014E0,3.562628E2,3.7040827E0,1.1193534E0,1.6314402E1,6.543248E0,2.8229995E0,1.9797988E0,5.2607613E0,1.0539405E2,2.6444325E0,9.411076E0,2.4048233E0,1.2583486E0,1.3528286E1,1.7086875E0,2.9959917E0,1.0942689E0,5.385218E2,1.1103646E0,1.2728398E0,7.111522E1,1.1609684E0,3.5175748E2,4.50532E0,1.0357848E2,1.8155707E0],"tree_param":{"num_deleted":"0","num_feature":"384","num_nodes":"69","size_leaf_vector":"1"}},{"base_weights":[-9.443798E-3,-9.7603965E-1,1.1246505E0,-1.206398E0,7.300155E-2,1.6688645E0,-3.0238494E-1,-1.2531638E0,8.3047247E-1,9.833753E-1,-9.95357E-1,1.817815E0,-3.9627752E-1,1.1034359E0,-9.10535E-1,-3.5871494E-1,-1.2836354E0,-9.1038203E-1,1.8767619E-1,1.7225664E0,-8.3280236E-1,-1.1468481E0,1.2110318E0,-8.001804E-1,1.8637731E0,1.6653368E-1,-8.3819366E-1,-7.832134E-1,1.6880251E0,-1.0570498E0,1.7665492E-1,-1.2233537E-1,1.0867563E0,1.7356084E-1,-1.292023E0,-1.9466069E-2,-1.02959216E-1,-9.000232E-2,1.8581694E0,-1.2119775E0,1.2774609E-1,-1.2723434E0,5.931067E-1,1.5719083E-1,1.0990317E-2,-1.1137102E-1,3.0145694E-2,-6.25239E-1,1.9003211E0,1.4097129E-1,-1.0804456E0,-1.21065415E-1,1.300058E-1,1.9856471E0,-1.02408126E-1,-1.1910261E0,5.946054E-1,-8.755723E-2,1.907885E-1,1.2061012E-1,-8.1074744E-2,1.4468159E-2,-1.2978223E-1,2.007714E-1,-6.741657E-2,-2.5468012E-2,-1.2570202E-1,-1.3108684E-1,2.6235742E-2,-7.2727956E-2,1.3465306E-1,-1.1226465E-1,7.631349E-2,1.9298641E-1,-1.0273499E-2,-1.2331959E-1,8.838412E-2,2.0336004E-1,3.8233116E-2,-1.2358643E-1,1.03191115E-1,-1.0280051E-1,1.8196544E-1],"categories":[],"categories_nodes":[],"categories_segments":[],"categories_sizes":[],"default_left":[0,0,0,0,0,0,0,0,0,0,0,0,0,0,0,0,0,0,0,0,0,0,0,0,0,0,0,0,0,0,0,0,0,0,0,0,0,0,0,0,0,0,0,0,0,0,0,0,0,0,0,0,0,0,0,0,0,0,0,0,0,0,0,0,0,0,0,0,0,0,0,0,0,0,0,0,0,0,0,0,0,0,0],"id":3,"left_children":[1,3,5,7,9,11,13,15,17,19,21,23,25,27,29,31,33,35,-1,37,39,41,43,45,47,-1,49,51,53,55,-1,-1,57,59,61,-1,-1,-1,63,65,-1,67,69,-1,-1,-1,-1,71,73,-1,75,-1,-1,77,-1,79,81,-1,-1,-1,-1,-1,-1,-1,-1,-1,-1,-1,-1,-1,-1,-1,-1,-1,-1,-1,-1,-1,-1,-1,-1,-1,-1],"loss_changes":[1.3166661E3,1.567854E2,4.2971692E2,5.1691956E1,1.1544921E2,1.23837524E2,1.3217624E2,1.3717834E1,2.4542019E1,8.742018E1,1.965414E1,4.6430054E1,2.6675156E1,5.2918064E1,4.408895E1,2.4483376E1,6.368225E0,2.5855112E-1,0E0,1.7977112E1,1.6912493E1,1.2032402E1,1.4156632E0,2.8029637E0,3.460608E1,0E0,1.4328142E1,1.20366125E1,3.1117775E1,2.3430504E1,0E0,0E0,1.3696657E1,4.7976823E0,4.3529663E0,0E0,0E0,0E0,1.7985764E1,4.038372E-1,0E0,3.210968E0,5.114364E0,0E0,0E0,0E0,0E0,5.047592E0,2.1636963E1,0E0,7.628834E0,0E0,0E0,1.7450256E0,0E0,1.0775421E1,1.8511187E1,0E0,0E0,0E0,0E0,0E0,0E0,0E0,0E0,0E0,0E0,0E0,0E0,0E0,0E0,0E0,0E0,0E0,0E0,0E0,0E0,0E0,0E0,0E0,0E0,0E0,0E0],"parents":[2147483647,0,0,1,1,2,2,3,3,4,4,5,5,6,6,7,7,8,8,9,9,10,10,11,11,12,12,13,13,14,14,15,15,16,16,17,17,19,19,20,20,21,21,22,22,23,23,24,24,26,26,27,27,28,28,29,29,32,32,33,33,34,34,38,38,39,39,41,41,42,42,47,47,48,48,50,50,53,53,55,55,56,56],"right_children":[2,4,6,8,10,12,14,16,18,20,22,24,26,28,30,32,34,36,-1,38,40,42,44,46,48,-1,50,52,54,56,-1,-1,58,60,62,-1,-1,-1,64,66,-1,68,70,-1,-1,-1,-1,72,74,-1,76,-1,-1,78,-1,80,82,-1,-1,-1,-1,-1,-1,-1,-1,-1,-1,-1,-1,-1,-1,-1,-1,-1,-1,-1,-1,-1,-1,-1,-1,-1,-1],"split_conditions":[1.9E2,2E2,1.86E2,1.84E2,1.08E2,1.39E2,1.27E2,8E1,1.55E2,1.17E2,1.94E2,6.5E1,6.8E1,1.16E2,1.42E2,1.78E2,6.3E1,1.01E2,1.8767619E-1,1.42E2,1.31E2,1.71E2,1.53E2,1.45E2,1.32E2,1.6653368E-1,4.3E1,1.08E2,1.53E2,1.59E2,1.7665492E-1,-1.2233537E-1,1.66E2,1.65E2,5.2E1,-1.9466069E-2,-1.02959216E-1,-9.000232E-2,1.5E2,1.73E2,1.2774609E-1,1.74E2,7.6E1,1.5719083E-1,1.0990317E-2,-1.1137102E-1,3.0145694E-2,1.43E2,1.47E2,1.4097129E-1,1.76E2,-1.21065415E-1,1.300058E-1,1.52E2,-1.02408126E-1,1.94E2,1.21E2,-8.755723E-2,1.907885E-1,1.2061012E-1,-8.1074744E-2,1.4468159E-2,-1.2978223E-1,2.007714E-1,-6.741657E-2,-2.5468012E-2,-1.2570202E-1,-1.3108684E-1,2.6235742E-2,-7.2727956E-2,1.3465306E-1,-1.1226465E-1,7.631349E-2,1.9298641E-1,-1.0273499E-2,-1.2331959E-1,8.838412E-2,2.0336004E-1,3.8233116E-2,-1.2358643E-1,1.03191115E-1,-1.0280051E-1,1.8196544E-1],"split_indices":[210,78,166,134,57,58,279,58,306,329,232,9,371,346,283,27,259,156,0,31,263,344,8,31,245,0,124,291,326,381,0,0,20,2,278,0,0,0,58,160,0,52,0,0,0,0,0,12,185,0,276,0,0,82,0,249,314,0,0,0,0,0,0,0,0,0,0,0,0,0,0,0,0,0,0,0,0,0,0,0,0,0,0],"split_type":[0,0,0,0,0,0,0,0,0,0,0,0,0,0,0,0,0,0,0,0,0,0,0,0,0,0,0,0,0,0,0,0,0,0,0,0,0,0,0,0,0,0,0,0,0,0,0,0,0,0,0,0,0,0,0,0,0,0,0,0,0,0,0,0,0,0,0,0,0,0,0,0,0,0,0,0,0,0,0,0,0,0,0],"sum_hessian":[1.1991053E3,6.474332E2,5.516721E2,5.3073865E2,1.1669459E2,3.992462E2,1.5242595E2,5.192027E2,1.1535947E1,6.304877E1,5.3645817E1,3.7249908E2,2.6747091E1,4.5781475E1,1.0664447E2,1.7525919E1,5.0167676E2,4.3793387E0,7.1566086E0,4.4847298E1,1.8201473E1,5.0648495E1,2.9973207E0,6.1431837E0,3.6635593E2,4.232643E0,2.2514448E1,1.0749562E1,3.5031914E1,1.0168451E2,4.959964E0,1.1062387E1,6.463532E0,2.7584336E0,4.9891833E2,1.0011991E0,3.3781395E0,1.9277153E0,4.2919582E1,1.5789981E1,2.411492E0,4.7491867E1,3.1566305E0,1.9354626E0,1.0618579E0,4.773632E0,1.3695514E0,5.068544E0,3.6128738E2,1.7214603E0,2.0792988E1,9.267041E0,1.482521E0,3.1809095E1,3.2228181E0,9.431306E1,7.3714466E0,1.8872025E0,4.5763297E0,1.2362633E0,1.5221702E0,1.9095099E0,4.9700882E2,4.0721954E1,2.1976278E0,1.0085865E0,1.4781394E1,4.6471165E1,1.0206999E0,1.159424E0,1.9972064E0,3.8725386E0,1.1960052E0,3.5607224E2,5.2151427E0,1.9638052E1,1.1549364E0,3.0624771E1,1.184324E0,9.288357E1,1.4294891E0,3.2403548E0,4.131092E0],"tree_param":{"num_deleted":"0","num_feature":"384","num_nodes":"83","size_leaf_vector":"1"}},{"base_weights":[-1.04552135E-2,-9.3735915E-1,1.0373608E0,-1.1645277E0,6.699167E-2,1.5273926E0,-2.845544E-1,-1.2111083E0,7.6229304E-1,9.0028656E-1,-9.502854E-1,1.6304941E0,-9.134041E-1,1.0127448E0,-8.673793E-1,-3.39672E-1,-1.2415992E0,-8.736888E-1,1.7097446E-1,1.5583249E0,-7.919754E-1,-1.1027952E0,1.120671E0,-2.3214655E-1,1.7044096E0,1.0695702E-1,-1.2099445E-1,-5.9691876E-1,1.5952107E0,-1.0114588E0,1.6173097E-1,-1.1816511E-1,9.9369866E-1,1.6833776E-1,-1.2501289E0,-9.9712126E-2,-2.1411369E-2,-8.663782E-2,1.6803025E0,-1.1682587E0,1.18382476E-1,-1.22839E0,5.54702E-1,8.727687E-3,1.4608015E-1,-9.999003E-1,1.376816E-1,1.7397766E0,-7.260883E-1,1.2822881E-1,-1.1065848E0,-7.407423E-2,1.8268655E-1,-1.1439221E0,5.5142903E-1,-8.436622E-2,1.7319195E-1,1.1355437E-1,-7.8168266E-2,1.1767681E-2,-1.2562643E-1,1.8011953E-1,-8.392229E-2,-1.21340565E-1,-2.5411656E-2,-1.2682386E-1,2.4773372E-2,-7.021206E-2,1.2596644E-1,-1.1995237E-1,3.591837E-2,-1.4113945E-2,1.7625336E-1,4.4022363E-2,-1.08435445E-1,-1.1680609E-1,-2.6550842E-2,-1.2009716E-1,6.741636E-2,-9.8977886E-2,1.6601877E-1],"categories":[],"categories_nodes":[],"categories_segments":[],"categories_sizes":[],"default_left":[0,0,0,0,0,0,0,0,0,0,0,0,0,0,0,0,0,0,0,0,0,0,0,0,0,0,0,0,0,0,0,0,0,0,0,0,0,0,0,0,0,0,0,0,0,0,0,0,0,0,0,0,0,0,0,0,0,0,0,0,0,0,0,0,0,0,0,0,0,0,0,0,0,0,0,0,0,0,0,0,0],"id":4,"left_children":[1,3,5,7,9,11,13,15,17,19,21,23,25,27,29,31,33,35,-1,37,39,41,43,45,47,-1,-1,49,51,53,-1,-1,55,57,59,-1,-1,-1,61,63,-1,65,67,-1,-1,69,-1,71,73,-1,75,-1,-1,77,79,-1,-1,-1,-1,-1,-1,-1,-1,-1,-1,-1,-1,-1,-1,-1,-1,-1,-1,-1,-1,-1,-1,-1,-1,-1,-1],"loss_changes":[1.1169032E3,1.3929889E2,3.5010327E2,4.5592712E1,9.7071945E1,1.0063104E2,1.1189467E2,1.2500549E1,2.0654173E1,7.1286545E1,1.7532093E1,5.2487427E1,1.1060158E1,4.4058952E1,3.8097687E1,2.1177662E1,5.8569336E0,2.0946455E-1,0E0,1.4951782E1,1.4970483E1,1.0790527E1,1.2907705E0,2.0303179E1,3.2555664E1,0E0,0E0,1.3816418E1,1.976957E1,2.0688194E1,0E0,0E0,1.155212E1,4.291729E0,4.0653687E0,0E0,0E0,0E0,1.4848587E1,3.4602356E-1,0E0,2.9877243E0,4.5254126E0,0E0,0E0,3.4020462E0,0E0,1.5619995E1,2.9538736E0,0E0,2.441206E-1,0E0,0E0,1.0107117E1,1.5731802E1,0E0,0E0,0E0,0E0,0E0,0E0,0E0,0E0,0E0,0E0,0E0,0E0,0E0,0E0,0E0,0E0,0E0,0E0,0E0,0E0,0E0,0E0,0E0,0E0,0E0,0E0],"parents":[2147483647,0,0,1,1,2,2,3,3,4,4,5,5,6,6,7,7,8,8,9,9,10,10,11,11,12,12,13,13,14,14,15,15,16,16,17,17,19,19,20,20,21,21,22,22,23,23,24,24,27,27,28,28,29,29,32,32,33,33,34,34,38,38,39,39,41,41,42,42,45,45,47,47,48,48,50,50,53,53,54,54],"right_children":[2,4,6,8,10,12,14,16,18,20,22,24,26,28,30,32,34,36,-1,38,40,42,44,46,48,-1,-1,50,52,54,-1,-1,56,58,60,-1,-1,-1,62,64,-1,66,68,-1,-1,70,-1,72,74,-1,76,-1,-1,78,80,-1,-1,-1,-1,-1,-1,-1,-1,-1,-1,-1,-1,-1,-1,-1,-1,-1,-1,-1,-1,-1,-1,-1,-1,-1,-1],"split_conditions":[1.9E2,2E2,1.86E2,1.84E2,1.08E2,1.52E2,1.27E2,8E1,1.55E2,1.17E2,1.94E2,1.15E2,8.3E1,1.05E2,1.42E2,1.78E2,6.3E1,1.49E2,1.7097446E-1,1.42E2,1.31E2,1.71E2,1.69E2,1.42E2,1.62E2,1.0695702E-1,-1.2099445E-1,1.22E2,1.2E2,1.59E2,1.6173097E-1,-1.1816511E-1,1.66E2,1.65E2,5.3E1,-9.9712126E-2,-2.1411369E-2,-8.663782E-2,1.53E2,1.35E2,1.18382476E-1,1.74E2,7.6E1,8.727687E-3,1.4608015E-1,1.34E2,1.376816E-1,9.5E1,1.19E2,1.2822881E-1,1.14E2,-7.407423E-2,1.8268655E-1,1.54E2,1.21E2,-8.436622E-2,1.7319195E-1,1.1355437E-1,-7.8168266E-2,1.1767681E-2,-1.2562643E-1,1.8011953E-1,-8.392229E-2,-1.21340565E-1,-2.5411656E-2,-1.2682386E-1,2.4773372E-2,-7.021206E-2,1.2596644E-1,-1.1995237E-1,3.591837E-2,-1.4113945E-2,1.7625336E-1,4.4022363E-2,-1.08435445E-1,-1.1680609E-1,-2.6550842E-2,-1.2009716E-1,6.741636E-2,-9.8977886E-2,1.6601877E-1],"split_indices":[210,78,166,134,57,58,279,58,306,329,232,193,69,353,283,27,259,303,0,31,263,344,21,381,369,0,0,119,232,381,0,0,20,2,360,0,0,0,45,158,0,52,0,0,0,44,0,34,301,0,63,0,0,308,314,0,0,0,0,0,0,0,0,0,0,0,0,0,0,0,0,0,0,0,0,0,0,0,0,0,0],"split_type":[0,0,0,0,0,0,0,0,0,0,0,0,0,0,0,0,0,0,0,0,0,0,0,0,0,0,0,0,0,0,0,0,0,0,0,0,0,0,0,0,0,0,0,0,0,0,0,0,0,0,0,0,0,0,0,0,0,0,0,0,0,0,0,0,0,0,0,0,0,0,0,0,0,0,0,0,0,0,0,0,0],"sum_hessian":[1.1479934E3,6.091984E2,5.38795E2,4.9669446E2,1.12504005E2,3.929672E2,1.4582777E2,4.85333E2,1.1361432E1,6.190774E1,5.059626E1,3.773592E2,1.5608007E1,4.4976894E1,1.0085088E2,1.6817747E1,4.6851526E2,4.195258E0,7.166174E0,4.4631763E1,1.7275976E1,4.756124E1,3.035021E0,1.4321541E1,3.6303766E2,1.6913136E0,1.3916694E1,1.1944117E1,3.303278E1,9.5883804E1,4.96708E0,1.0378106E1,6.4396415E0,2.7046711E0,4.658106E2,3.1028328E0,1.0924251E0,1.8454099E0,4.2786354E1,1.4855518E1,2.4204586E0,4.4451843E1,3.1093953E0,1.062748E0,1.9722732E0,9.951497E0,4.3700438E0,3.5811084E2,4.9268026E0,2.2248518E0,9.719265E0,2.7820137E0,3.0250765E1,8.863921E1,7.2445903E0,1.80481E0,4.6348314E0,1.243447E0,1.4612241E0,1.9989222E0,4.6381168E2,4.1099415E1,1.6869409E0,1.384441E1,1.0111084E0,4.3420525E1,1.0313221E0,1.1188018E0,1.9905933E0,8.779377E0,1.1721196E0,4.218739E0,3.5389212E2,1.1040097E0,3.8227928E0,8.6949625E0,1.0243031E0,8.627154E1,2.3676755E0,3.0760698E0,4.1685205E0],"tree_param":{"num_deleted":"0","num_feature":"384","num_nodes":"81","size_leaf_vector":"1"}},{"base_weights":[-1.1255951E-2,-9.0395117E-1,9.679141E-1,-1.1385592E0,2.5648803E-2,1.4175456E0,-2.6932734E-1,-1.1861079E0,7.630531E-1,1.0845587E0,-6.8081266E-1,1.5115005E0,-8.7381715E-1,9.390753E-1,-8.290516E-1,-3.6451215E-1,-1.215468E0,-8.071137E-1,1.5793051E-1,-4.482248E-1,1.5269797E0,-9.781783E-1,1.1586155E0,-8.187156E-1,1.5621355E0,9.9698E-2,-1.1728723E-1,-7.262585E-1,1.4239618E0,-1.0546639E0,6.969238E-1,-9.1645247E-1,1.3944806E-1,1.6311388E-1,-1.2243745E0,-1.8139435E-2,-9.38251E-2,-9.124097E-1,1.1883702E-1,-7.486426E-2,1.636732E0,-1.1522368E0,-4.8394784E-2,1.594079E-1,-8.1532635E-2,5.7130724E-2,-1.13124646E-1,-7.8907293E-1,1.6072165E0,-1.1403743E-1,1.1129805E-1,1.6650163E0,-9.451515E-2,-1.1099558E0,1.0492764E-1,-8.826492E-1,1.5972072E0,6.046575E-2,-1.09434746E-1,1.0732547E-1,-7.545031E-2,-3.0674368E-2,-1.2309855E-1,-1.1219821E-1,3.489711E-2,1.6788878E-1,2.1277627E-2,5.995881E-2,-1.2004119E-1,1.7534252E-1,-1.10679224E-1,2.757955E-2,-1.0694569E-1,1.631994E-1,-4.9536493E-2,1.706252E-1,3.0188039E-2,8.145002E-2,-1.1736367E-1,-9.699812E-2,-2.7247781E-2,1.7097197E-1,4.03638E-2],"categories":[],"categories_nodes":[],"categories_segments":[],"categories_sizes":[],"default_left":[0,0,0,0,0,0,0,0,0,0,0,0,0,0,0,0,0,0,0,0,0,0,0,0,0,0,0,0,0,0,0,0,0,0,0,0,0,0,0,0,0,0,0,0,0,0,0,0,0,0,0,0,0,0,0,0,0,0,0,0,0,0,0,0,0,0,0,0,0,0,0,0,0,0,0,0,0,0,0,0,0,0,0],"id":5,"left_children":[1,3,5,7,9,11,13,15,17,19,21,23,25,27,29,31,33,35,-1,37,39,41,43,45,47,-1,-1,49,51,53,55,57,-1,59,61,-1,-1,63,-1,-1,65,67,69,-1,-1,-1,-1,71,73,-1,-1,75,-1,77,-1,79,81,-1,-1,-1,-1,-1,-1,-1,-1,-1,-1,-1,-1,-1,-1,-1,-1,-1,-1,-1,-1,-1,-1,-1,-1,-1,-1],"loss_changes":[9.557556E2,1.2476846E2,2.9046982E2,4.2201294E1,8.769315E1,8.369397E1,9.535796E1,1.0314819E1,1.6334007E1,3.2489815E1,3.960602E1,4.468994E1,9.955709E0,3.7157593E1,3.381964E1,1.7603464E1,5.481201E0,2.1388602E-1,0E0,9.652251E0,1.0372063E1,9.830872E0,1.0107008E1,4.3306017E0,3.9472717E1,0E0,0E0,9.457214E0,2.1553001E1,1.0950211E1,1.986818E1,4.288458E0,0E0,3.8528278E0,2.2158813E0,0E0,0E0,2.8637438E0,0E0,0E0,1.7588577E0,5.0587387E0,2.2301767E1,0E0,0E0,0E0,0E0,2.519783E0,1.9249939E1,0E0,0E0,1.2901459E0,0E0,1.1060295E1,0E0,2.112627E-2,4.6798134E-1,0E0,0E0,0E0,0E0,0E0,0E0,0E0,0E0,0E0,0E0,0E0,0E0,0E0,0E0,0E0,0E0,0E0,0E0,0E0,0E0,0E0,0E0,0E0,0E0,0E0,0E0],"parents":[2147483647,0,0,1,1,2,2,3,3,4,4,5,5,6,6,7,7,8,8,9,9,10,10,11,11,12,12,13,13,14,14,15,15,16,16,17,17,19,19,20,20,21,21,22,22,23,23,24,24,27,27,28,28,29,29,30,30,31,31,33,33,34,34,37,37,40,40,41,41,42,42,47,47,48,48,51,51,53,53,55,55,56,56],"right_children":[2,4,6,8,10,12,14,16,18,20,22,24,26,28,30,32,34,36,-1,38,40,42,44,46,48,-1,-1,50,52,54,56,58,-1,60,62,-1,-1,64,-1,-1,66,68,70,-1,-1,-1,-1,72,74,-1,-1,76,-1,78,-1,80,82,-1,-1,-1,-1,-1,-1,-1,-1,-1,-1,-1,-1,-1,-1,-1,-1,-1,-1,-1,-1,-1,-1,-1,-1,-1,-1],"split_conditions":[1.9E2,1.98E2,1.86E2,1.84E2,8E1,1.52E2,1.27E2,8E1,1.55E2,1.2E2,1.71E2,1.32E2,8.3E1,1.16E2,1.27E2,1.31E2,6.3E1,1.16E2,1.5793051E-1,1.41E2,1.24E2,1.8E2,1.06E2,4.8E1,6.5E1,9.9698E-2,-1.1728723E-1,1.08E2,1.53E2,1.94E2,9.7E1,1.04E2,1.3944806E-1,1.65E2,5.5E1,-1.8139435E-2,-9.38251E-2,1.24E2,1.1883702E-1,-7.486426E-2,1.49E2,7.2E1,1.06E2,1.594079E-1,-8.1532635E-2,5.7130724E-2,-1.13124646E-1,1.28E2,1.85E2,-1.1403743E-1,1.1129805E-1,1.45E2,-9.451515E-2,8.4E1,1.0492764E-1,1.96E2,1.44E2,6.046575E-2,-1.09434746E-1,1.0732547E-1,-7.545031E-2,-3.0674368E-2,-1.2309855E-1,-1.1219821E-1,3.489711E-2,1.6788878E-1,2.1277627E-2,5.995881E-2,-1.2004119E-1,1.7534252E-1,-1.10679224E-1,2.757955E-2,-1.0694569E-1,1.631994E-1,-4.9536493E-2,1.706252E-1,3.0188039E-2,8.145002E-2,-1.1736367E-1,-9.699812E-2,-2.7247781E-2,1.7097197E-1,4.03638E-2],"split_indices":[210,78,166,134,189,58,279,58,306,263,344,245,69,346,163,117,259,121,0,34,77,276,137,39,9,0,0,291,326,249,366,85,0,2,217,0,0,9,0,0,233,248,275,0,0,0,0,150,131,0,0,264,0,185,0,239,271,0,0,0,0,0,0,0,0,0,0,0,0,0,0,0,0,0,0,0,0,0,0,0,0,0,0],"split_type":[0,0,0,0,0,0,0,0,0,0,0,0,0,0,0,0,0,0,0,0,0,0,0,0,0,0,0,0,0,0,0,0,0,0,0,0,0,0,0,0,0,0,0,0,0,0,0,0,0,0,0,0,0,0,0,0,0,0,0,0,0,0,0,0,0,0,0,0,0,0,0,0,0,0,0,0,0,0,0,0,0,0,0],"sum_hessian":[1.0914153E3,5.70958E2,5.2045734E2,4.5572058E2,1.1523741E2,3.8162396E2,1.3883339E2,4.4497064E2,1.0749939E1,4.5901215E1,6.93362E1,3.6691916E2,1.4704786E1,4.373502E1,9.5098366E1,1.5815511E1,4.2915512E2,3.6807442E0,7.0691943E0,1.0278356E1,3.562286E1,6.0090126E1,9.246075E0,7.4808903E0,3.5943826E2,1.7050084E0,1.2999778E1,9.750233E0,3.3984787E1,8.3118355E1,1.1980016E1,1.2402743E1,3.4127676E0,2.6436746E0,4.2651144E2,1.0506805E0,2.6300635E0,8.35199E0,1.9263666E0,1.3711879E0,3.425167E1,5.041333E1,9.676794E0,7.7326455E0,1.513429E0,1.2212436E0,6.2596464E0,6.451572E0,3.529867E2,8.268503E0,1.4817288E0,3.111597E1,2.8688157E0,8.1450264E1,1.6680877E0,4.3563185E0,7.6236973E0,1.0474505E0,1.1355292E1,1.2420918E0,1.4015828E0,3.3898466E0,4.231216E2,7.2568164E0,1.0951729E0,3.3092934E1,1.1587375E0,1.0429173E0,4.9370415E1,3.3378115E0,6.338982E0,1.348079E0,5.103493E0,3.4909665E2,3.8900442E0,2.9958014E1,1.1579573E0,2.2312355E0,7.921903E1,3.2950249E0,1.0612938E0,6.571763E0,1.0519346E0],"tree_param":{"num_deleted":"0","num_feature":"384","num_nodes":"83","size_leaf_vector":"1"}},{"base_weights":[-1.1668018E-2,-8.7432826E-1,9.111977E-1,-1.1066912E0,2.482424E-2,1.3293955E0,-2.557191E-1,-1.154169E0,7.1051717E-1,1.0148559E0,-6.513765E-1,1.4163802E0,-8.379712E-1,8.807252E-1,-7.938361E-1,-3.4016877E-1,-1.184014E0,-7.7573746E-1,1.4743909E-1,1.4989865E0,-2.1412802E-1,-9.409708E-1,1.0795751E0,-2.3735404E-1,1.4811821E0,9.3243055E-2,-1.1399045E-1,-5.5584663E-1,1.3764681E0,-1.0159087E0,6.481623E-1,-1.0587404E0,9.4476956E-1,1.5794031E-1,-1.1931334E0,-1.5457975E-2,-9.111179E-2,-6.467542E-2,1.5887533E-1,1.014844E0,-9.655201E-1,-1.1165413E0,-4.170456E-2,1.489716E-1,-7.859754E-2,-9.47485E-1,1.193939E-1,1.5131001E0,-6.919539E-1,1.1144091E-1,-1.0396025E0,-6.7201495E-2,1.5730512E-1,-1.0720096E0,9.798444E-2,-8.5079116E-1,1.4782643E0,-1.1147068E-1,-2.5834039E-2,-6.7609094E-2,1.4681062E-1,1.0178276E-1,-7.289824E-2,3.806539E-4,-1.1978097E-1,1.3059835E-1,-1.0346332E-2,3.6772452E-3,-1.1031085E-1,-1.1665346E-1,5.9093326E-2,1.5676609E-1,-1.0716599E-1,-1.1376796E-1,2.7145261E-2,-8.564814E-2,1.5273966E-1,-1.0407301E-1,4.1635066E-2,-1.10487305E-1,-2.712578E-2,7.5506315E-2,-1.1368226E-1,-2.5657495E-2,-9.391279E-2,3.427508E-2,1.5891957E-1],"categories":[],"categories_nodes":[],"categories_segments":[],"categories_sizes":[],"default_left":[0,0,0,0,0,0,0,0,0,0,0,0,0,0,0,0,0,0,0,0,0,0,0,0,0,0,0,0,0,0,0,0,0,0,0,0,0,0,0,0,0,0,0,0,0,0,0,0,0,0,0,0,0,0,0,0,0,0,0,0,0,0,0,0,0,0,0,0,0,0,0,0,0,0,0,0,0,0,0,0,0,0,0,0,0,0,0],"id":6,"left_children":[1,3,5,7,9,11,13,15,17,19,21,23,25,27,29,31,33,35,-1,37,39,41,43,45,47,-1,-1,49,51,53,55,57,59,61,63,-1,-1,-1,-1,65,67,69,71,-1,-1,73,-1,75,77,-1,79,-1,-1,81,-1,83,85,-1,-1,-1,-1,-1,-1,-1,-1,-1,-1,-1,-1,-1,-1,-1,-1,-1,-1,-1,-1,-1,-1,-1,-1,-1,-1,-1,-1,-1,-1],"loss_changes":[8.230351E2,1.11664276E2,2.4408774E2,3.745508E1,7.4773636E1,7.053967E1,8.1799034E1,9.659546E0,1.41208725E1,2.7284618E1,3.429396E1,3.8292603E1,8.986119E0,3.1452438E1,2.9647442E1,1.5821538E1,5.072998E0,2.4057531E-1,0E0,7.3137436E0,1.36143265E1,9.017029E0,8.807434E0,1.5576392E1,2.4687805E1,0E0,0E0,1.0666411E1,1.4073364E1,9.877007E0,1.7049286E1,1.9431496E-1,6.3244095E0,3.4701383E0,2.2242432E0,0E0,0E0,0E0,0E0,1.9840379E0,1.2821388E0,4.785919E0,1.8945177E1,0E0,0E0,2.6403046E0,0E0,1.2697876E1,2.6056066E0,0E0,1.8383598E-1,0E0,0E0,9.99511E0,0E0,2.9793978E-2,5.301857E-1,0E0,0E0,0E0,0E0,0E0,0E0,0E0,0E0,0E0,0E0,0E0,0E0,0E0,0E0,0E0,0E0,0E0,0E0,0E0,0E0,0E0,0E0,0E0,0E0,0E0,0E0,0E0,0E0,0E0,0E0],"parents":[2147483647,0,0,1,1,2,2,3,3,4,4,5,5,6,6,7,7,8,8,9,9,10,10,11,11,12,12,13,13,14,14,15,15,16,16,17,17,19,19,20,20,21,21,22,22,23,23,24,24,27,27,28,28,29,29,30,30,31,31,32,32,33,33,34,34,39,39,40,40,41,41,42,42,45,45,47,47,48,48,50,50,53,53,55,55,56,56],"right_children":[2,4,6,8,10,12,14,16,18,20,22,24,26,28,30,32,34,36,-1,38,40,42,44,46,48,-1,-1,50,52,54,56,58,60,62,64,-1,-1,-1,-1,66,68,70,72,-1,-1,74,-1,76,78,-1,80,-1,-1,82,-1,84,86,-1,-1,-1,-1,-1,-1,-1,-1,-1,-1,-1,-1,-1,-1,-1,-1,-1,-1,-1,-1,-1,-1,-1,-1,-1,-1,-1,-1,-1,-1],"split_conditions":[1.9E2,1.98E2,1.86E2,1.84E2,8E1,1.52E2,1.27E2,8E1,1.55E2,1.36E2,1.71E2,1.15E2,8.3E1,1.05E2,1.27E2,1.18E2,6.3E1,1.33E2,1.4743909E-1,9.2E1,1.16E2,1.8E2,1.06E2,1.42E2,1.62E2,9.3243055E-2,-1.1399045E-1,1.22E2,1.2E2,1.94E2,9.7E1,1.56E2,1.78E2,1.65E2,5.2E1,-1.5457975E-2,-9.111179E-2,-6.467542E-2,1.5887533E-1,1.68E2,1.16E2,1.88E2,1.06E2,1.489716E-1,-7.859754E-2,1.34E2,1.193939E-1,4.4E1,1.54E2,1.1144091E-1,1.28E2,-6.7201495E-2,1.5730512E-1,8.4E1,9.798444E-2,1.41E2,8.3E1,-1.1147068E-1,-2.5834039E-2,-6.7609094E-2,1.4681062E-1,1.0178276E-1,-7.289824E-2,3.806539E-4,-1.1978097E-1,1.3059835E-1,-1.0346332E-2,3.6772452E-3,-1.1031085E-1,-1.1665346E-1,5.9093326E-2,1.5676609E-1,-1.0716599E-1,-1.1376796E-1,2.7145261E-2,-8.564814E-2,1.5273966E-1,-1.0407301E-1,4.1635066E-2,-1.10487305E-1,-2.712578E-2,7.5506315E-2,-1.1368226E-1,-2.5657495E-2,-9.391279E-2,3.427508E-2,1.5891957E-1],"split_indices":[210,78,166,134,189,58,279,58,306,156,344,193,69,353,163,117,259,150,0,117,270,276,137,381,369,0,0,119,232,249,366,252,27,2,278,0,0,0,0,231,168,318,275,0,0,44,0,4,208,0,365,0,0,185,0,5,187,0,0,0,0,0,0,0,0,0,0,0,0,0,0,0,0,0,0,0,0,0,0,0,0,0,0,0,0,0,0],"split_type":[0,0,0,0,0,0,0,0,0,0,0,0,0,0,0,0,0,0,0,0,0,0,0,0,0,0,0,0,0,0,0,0,0,0,0,0,0,0,0,0,0,0,0,0,0,0,0,0,0,0,0,0,0,0,0,0,0,0,0,0,0,0,0,0,0,0,0,0,0,0,0,0,0,0,0,0,0,0,0,0,0,0,0,0,0,0,0],"sum_hessian":[1.0318077E3,5.333266E2,4.9848108E2,4.2362158E2,1.0970501E2,3.6686526E2,1.3161583E2,4.1319113E2,1.0430464E1,4.431792E1,6.538709E1,3.5304282E2,1.3822441E1,4.2089893E1,8.952593E1,1.5052147E1,3.9813898E2,3.535662E0,6.894802E0,3.1635952E1,1.2681969E1,5.640647E1,8.980618E0,1.3211999E1,3.398308E2,1.7096456E0,1.2112796E1,1.07672205E1,3.1322672E1,7.7834625E1,1.1691305E1,9.7664995E0,5.285648E0,2.577194E0,3.955618E2,1.015969E0,2.519693E0,1.0211859E0,3.0614765E1,4.6787753E0,8.003193E0,4.6990543E1,9.415929E0,7.52722E0,1.4533974E0,9.056614E0,4.1553855E0,3.3521112E2,4.6197047E0,2.125362E0,8.641859E0,2.5309174E0,2.8791756E1,7.615671E1,1.6779219E0,4.158032E0,7.533273E0,8.761204E0,1.005296E0,1.2188331E0,4.0668144E0,1.2336011E0,1.3435929E0,1.5401161E0,3.9402167E2,3.5791576E0,1.099618E0,1.0544631E0,6.94873E0,4.596164E1,1.0289062E0,3.4706962E0,5.9452324E0,7.8918824E0,1.1647315E0,1.6570338E0,3.3355408E2,3.5602791E0,1.0594256E0,7.5615206E0,1.0803385E0,2.244159E0,7.391255E1,1.0434629E0,3.1145692E0,1.0344291E0,6.498844E0],"tree_param":{"num_deleted":"0","num_feature":"384","num_nodes":"87","size_leaf_vector":"1"}},{"base_weights":[-1.2016524E-2,-8.484143E-1,8.6387736E-1,-1.0787177E0,2.3987066E-2,-5.7212985E-1,1.1691638E0,-1.1261772E0,6.6540533E-1,7.2542083E-1,-8.484524E-1,-9.175719E-1,1.0559206E0,1.3229837E0,-1.6937801E-1,-4.1927952E-1,-1.1611453E0,-7.459978E-1,1.3879532E-1,1.2183113E0,-8.624977E-1,-1.0053693E0,1.0184311E0,-1.0338753E0,7.732689E-1,1.463987E-1,-8.652093E-2,1.3857063E0,-6.9922525E-1,9.0207314E-1,-8.6524767E-1,-9.532218E-1,9.37222E-1,1.5284906E-1,-1.1706505E0,-1.42098535E-2,-8.820439E-2,1.3652151E0,-8.874955E-2,-1.13210075E-1,9.654586E-2,-1.1159735E0,4.426027E-1,1.261093E-1,2.331369E-2,-1.1323556E0,4.1513485E-1,-3.0957485E-2,1.1157187E-1,-1.4586721E-1,1.4338778E0,-1.1342337E-1,1.04737364E-1,-6.248283E-1,1.4220509E-1,1.1154609E-1,-1.0478718E0,-1.1228285E-1,6.1633218E-2,1.454237E-1,-6.56856E-2,9.681388E-2,-7.0493355E-2,-1.6826717E-2,-1.178357E-1,-2.7634254E-2,1.4815848E-1,-1.1595931E-1,3.1675365E-2,-4.0745582E-2,9.890976E-2,6.478264E-2,-1.1744162E-1,-7.507951E-2,1.20885074E-1,1.1783501E-1,-9.025175E-2,1.4596097E-1,-1.6921092E-2,-9.164534E-2,2.559267E-2,1.841062E-2,-1.1566897E-1],"categories":[],"categories_nodes":[],"categories_segments":[],"categories_sizes":[],"default_left":[0,0,0,0,0,0,0,0,0,0,0,0,0,0,0,0,0,0,0,0,0,0,0,0,0,0,0,0,0,0,0,0,0,0,0,0,0,0,0,0,0,0,0,0,0,0,0,0,0,0,0,0,0,0,0,0,0,0,0,0,0,0,0,0,0,0,0,0,0,0,0,0,0,0,0,0,0,0,0,0,0,0,0],"id":7,"left_children":[1,3,5,7,9,11,13,15,17,19,21,23,25,27,29,31,33,35,-1,37,39,41,43,45,47,-1,-1,49,51,53,55,57,59,61,63,-1,-1,65,-1,-1,-1,67,69,-1,-1,71,73,-1,-1,75,77,-1,-1,79,-1,-1,81,-1,-1,-1,-1,-1,-1,-1,-1,-1,-1,-1,-1,-1,-1,-1,-1,-1,-1,-1,-1,-1,-1,-1,-1,-1,-1],"loss_changes":[7.129083E2,1.0003821E2,2.0905792E2,3.3349365E1,6.4835045E1,4.8215874E1,8.100403E1,8.999725E0,1.2315976E1,4.700186E1,1.4859825E1,1.4533508E1,1.3159264E1,4.561743E1,3.1592224E1,1.51291E1,4.7391663E0,2.3581266E-1,0E0,1.519989E1,8.2352495E0,7.5520744E0,4.9850082E-1,9.855827E0,2.2242775E0,0E0,0E0,2.54234E1,9.738932E0,1.4196088E1,1.0416061E1,4.57841E0,5.9459724E0,3.1348898E0,2.6029358E0,0E0,0E0,8.55928E0,0E0,0E0,0E0,2.9438438E0,2.1885464E0,0E0,0E0,5.3923035E0,5.458288E0,0E0,0E0,1.2414736E1,1.3918518E1,0E0,0E0,1.506631E0,0E0,0E0,3.4199257E0,0E0,0E0,0E0,0E0,0E0,0E0,0E0,0E0,0E0,0E0,0E0,0E0,0E0,0E0,0E0,0E0,0E0,0E0,0E0,0E0,0E0,0E0,0E0,0E0,0E0,0E0],"parents":[2147483647,0,0,1,1,2,2,3,3,4,4,5,5,6,6,7,7,8,8,9,9,10,10,11,11,12,12,13,13,14,14,15,15,16,16,17,17,19,19,20,20,21,21,22,22,23,23,24,24,27,27,28,28,29,29,30,30,31,31,32,32,33,33,34,34,37,37,41,41,42,42,45,45,46,46,49,49,50,50,53,53,56,56],"right_children":[2,4,6,8,10,12,14,16,18,20,22,24,26,28,30,32,34,36,-1,38,40,42,44,46,48,-1,-1,50,52,54,56,58,60,62,64,-1,-1,66,-1,-1,-1,68,70,-1,-1,72,74,-1,-1,76,78,-1,-1,80,-1,-1,82,-1,-1,-1,-1,-1,-1,-1,-1,-1,-1,-1,-1,-1,-1,-1,-1,-1,-1,-1,-1,-1,-1,-1,-1,-1,-1],"split_conditions":[1.9E2,1.98E2,1.21E2,1.84E2,1.08E2,1.78E2,1.71E2,8.4E1,1.55E2,1.38E2,1.94E2,1.5E2,1.29E2,1.45E2,1.38E2,1.56E2,6.3E1,1.19E2,1.3879532E-1,1.34E2,1.51E2,1.71E2,1.12E2,1.95E2,1.34E2,1.463987E-1,-8.652093E-2,9.4E1,1.42E2,1.37E2,1E2,1.95E2,1.57E2,1.65E2,6.1E1,-1.42098535E-2,-8.820439E-2,1.48E2,-8.874955E-2,-1.13210075E-1,9.654586E-2,2.12E2,1.05E2,1.261093E-1,2.331369E-2,3.7E1,1.56E2,-3.0957485E-2,1.1157187E-1,1.05E2,1.57E2,-1.1342337E-1,1.04737364E-1,1.31E2,1.4220509E-1,1.1154609E-1,6.1E1,-1.1228285E-1,6.1633218E-2,1.454237E-1,-6.56856E-2,9.681388E-2,-7.0493355E-2,-1.6826717E-2,-1.178357E-1,-2.7634254E-2,1.4815848E-1,-1.1595931E-1,3.1675365E-2,-4.0745582E-2,9.890976E-2,6.478264E-2,-1.1744162E-1,-7.507951E-2,1.20885074E-1,1.1783501E-1,-9.025175E-2,1.4596097E-1,-1.6921092E-2,-9.164534E-2,2.559267E-2,1.841062E-2,-1.1566897E-1],"split_indices":[210,78,375,134,57,276,152,58,306,45,232,148,3,259,279,64,259,57,0,284,148,344,48,43,344,0,0,209,34,31,222,78,181,2,360,0,0,276,0,0,0,166,7,0,0,124,73,0,0,329,369,0,0,151,0,0,259,0,0,0,0,0,0,0,0,0,0,0,0,0,0,0,0,0,0,0,0,0,0,0,0,0,0],"split_type":[0,0,0,0,0,0,0,0,0,0,0,0,0,0,0,0,0,0,0,0,0,0,0,0,0,0,0,0,0,0,0,0,0,0,0,0,0,0,0,0,0,0,0,0,0,0,0,0,0,0,0,0,0,0,0,0,0,0,0,0,0,0,0,0,0,0,0,0,0,0,0,0,0,0,0,0,0,0,0,0,0,0,0],"sum_hessian":[9.7112616E2,4.9677924E2,4.7434692E2,3.928382E2,1.0394103E2,8.3010025E1,3.9133688E2,3.8277673E2,1.0061479E1,5.771067E1,4.6230362E1,6.883988E1,1.4170146E1,3.5101163E2,4.0325253E1,1.8654629E1,3.641221E2,3.3957903E0,6.6656885E0,4.4218113E1,1.3492556E1,4.307155E1,3.1588163E0,6.4773056E1,4.0668283E0,1.1883858E1,2.2862892E0,3.4075717E2,1.0254449E1,1.5761097E1,2.4564154E1,1.3599089E1,5.05554E0,2.506752E0,3.6161536E2,1.000248E0,2.3955424E0,4.166332E1,2.5547962E0,1.2090079E1,1.4024763E0,4.0227993E1,2.8435533E0,1.9502789E0,1.2085375E0,6.0855606E1,3.9174466E0,1.0001867E0,3.0666416E0,1.0328944E1,3.3042822E2,8.490425E0,1.7640238E0,3.952636E0,1.180846E1,1.6424525E0,2.2921701E1,1.2529739E1,1.0693493E0,3.8836596E0,1.1718807E0,1.2192491E0,1.2875028E0,2.9331918E0,3.5868216E2,2.666989E0,3.899633E1,3.922444E1,1.0035537E0,1.2122892E0,1.6312641E0,1.0722305E0,5.9783375E1,1.6085868E0,2.3088598E0,3.5531807E0,6.7757635E0,3.2529626E2,5.1319585E0,2.9389832E0,1.0136528E0,1.8041534E0,2.1117548E1],"tree_param":{"num_deleted":"0","num_feature":"384","num_nodes":"83","size_leaf_vector":"1"}},{"base_weights":[-1.201798E-2,-8.248649E-1,8.24023E-1,-1.0536538E0,2.3128984E-2,1.1995542E0,-2.3688851E-1,5.483813E-1,-1.1036743E0,9.1190577E-1,-6.0301113E-1,1.2772808E0,-7.816058E-1,-7.311733E-1,8.1853354E-1,1.4215434E-1,-9.43096E-2,-4.014787E-1,-1.1373162E0,1.3481421E0,-2.0776606E-1,-8.7790763E-1,9.472772E-1,-7.839074E-1,1.3231462E0,8.156755E-2,-1.0851403E-1,-9.1075027E-1,1.2504624E-1,1.1859584E0,-8.1841797E-1,7.9798925E-1,-1.0128937E0,-1.1491165E0,-7.327498E-2,1.43055E-1,-3.9570563E-2,8.81748E-1,-9.0669125E-1,-1.0595409E0,-4.725034E-3,1.3343155E-1,-7.529086E-2,4.2748738E-2,-1.0655148E-1,-6.9206464E-1,1.3609711E0,6.294463E-1,-1.0462372E0,-2.7183247E-1,1.4447452E0,2.238836E-2,-1.0147742E-1,1.3431059E-1,-7.031117E-2,-1.0969195E-2,-1.0840019E-1,-1.9665811E-2,-1.1590952E-1,-8.691268E-2,1.3839513E-1,-1.5893025E-2,1.167889E-1,2.261102E-3,-1.0454146E-1,5.737267E-2,-1.11389555E-1,1.357102E-1,-1.0067274E-1,2.3678109E-2,-9.682386E-2,1.3914765E-1,-1.7739264E-2,1.2140745E-1,-7.690719E-2,-1.1171311E-1,7.8350075E-2,8.7758414E-2,-9.066338E-2,4.809131E-3,1.5096132E-1],"categories":[],"categories_nodes":[],"categories_segments":[],"categories_sizes":[],"default_left":[0,0,0,0,0,0,0,0,0,0,0,0,0,0,0,0,0,0,0,0,0,0,0,0,0,0,0,0,0,0,0,0,0,0,0,0,0,0,0,0,0,0,0,0,0,0,0,0,0,0,0,0,0,0,0,0,0,0,0,0,0,0,0,0,0,0,0,0,0,0,0,0,0,0,0,0,0,0,0,0,0],"id":8,"left_children":[1,3,5,7,9,11,13,15,17,19,21,23,25,27,29,-1,-1,31,33,35,37,39,41,43,45,-1,-1,47,-1,49,51,53,55,57,59,-1,-1,61,63,65,67,-1,-1,-1,-1,69,71,73,75,77,79,-1,-1,-1,-1,-1,-1,-1,-1,-1,-1,-1,-1,-1,-1,-1,-1,-1,-1,-1,-1,-1,-1,-1,-1,-1,-1,-1,-1,-1,-1],"loss_changes":[6.203645E2,8.982263E1,1.7957599E2,2.9816437E1,5.5822643E1,5.2205414E1,6.2409817E1,1.6584236E1,7.901825E0,2.0525803E1,2.592134E1,3.132367E1,7.272403E0,3.004229E1,2.3984241E1,0E0,0E0,1.3805206E1,4.148407E0,4.871788E0,1.030884E1,8.008167E0,7.155944E0,3.0486536E0,2.4858398E1,0E0,0E0,1.6320137E1,0E0,1.2335709E1,1.7838035E0,6.2982645E0,6.633053E-1,2.940155E0,6.729619E0,0E0,0E0,1.7898321E0,1.067936E0,4.3516884E0,1.4608607E1,0E0,0E0,0E0,0E0,1.8821998E0,1.4715759E1,6.4057274E0,9.872368E0,4.892079E0,2.377468E0,0E0,0E0,0E0,0E0,0E0,0E0,0E0,0E0,0E0,0E0,0E0,0E0,0E0,0E0,0E0,0E0,0E0,0E0,0E0,0E0,0E0,0E0,0E0,0E0,0E0,0E0,0E0,0E0,0E0,0E0],"parents":[2147483647,0,0,1,1,2,2,3,3,4,4,5,5,6,6,7,7,8,8,9,9,10,10,11,11,12,12,13,13,14,14,17,17,18,18,19,19,20,20,21,21,22,22,23,23,24,24,27,27,29,29,30,30,31,31,32,32,33,33,34,34,37,37,38,38,39,39,40,40,45,45,46,46,47,47,48,48,49,49,50,50],"right_children":[2,4,6,8,10,12,14,16,18,20,22,24,26,28,30,-1,-1,32,34,36,38,40,42,44,46,-1,-1,48,-1,50,52,54,56,58,60,-1,-1,62,64,66,68,-1,-1,-1,-1,70,72,74,76,78,80,-1,-1,-1,-1,-1,-1,-1,-1,-1,-1,-1,-1,-1,-1,-1,-1,-1,-1,-1,-1,-1,-1,-1,-1,-1,-1,-1,-1,-1,-1],"split_conditions":[1.9E2,1.98E2,1.86E2,1.24E2,8E1,1.52E2,1.24E2,1.06E2,8.4E1,1.36E2,1.71E2,1.32E2,8.3E1,1.42E2,1.75E2,1.4215434E-1,-9.43096E-2,1.17E2,1.93E2,1.24E2,1.16E2,1.8E2,1.06E2,4.8E1,6.5E1,8.156755E-2,-1.0851403E-1,8.4E1,1.2504624E-1,8.4E1,1.05E2,1.16E2,8.8E1,3.5E1,1.72E2,1.43055E-1,-3.9570563E-2,1.33E2,1.12E2,7.2E1,1.06E2,1.3343155E-1,-7.529086E-2,4.2748738E-2,-1.0655148E-1,1.28E2,1.44E2,1.4E2,1.54E2,1.31E2,8.3E1,2.238836E-2,-1.0147742E-1,1.3431059E-1,-7.031117E-2,-1.0969195E-2,-1.0840019E-1,-1.9665811E-2,-1.1590952E-1,-8.691268E-2,1.3839513E-1,-1.5893025E-2,1.167889E-1,2.261102E-3,-1.0454146E-1,5.737267E-2,-1.11389555E-1,1.357102E-1,-1.0067274E-1,2.3678109E-2,-9.682386E-2,1.3914765E-1,-1.7739264E-2,1.2140745E-1,-7.690719E-2,-1.1171311E-1,7.8350075E-2,8.7758414E-2,-9.066338E-2,4.809131E-3,1.5096132E-1],"split_indices":[210,78,166,50,189,58,366,259,58,156,344,245,69,283,2,0,0,347,276,370,270,276,137,39,9,0,0,115,0,170,211,281,263,98,43,0,0,144,167,248,275,0,0,0,0,150,185,0,158,37,105,0,0,0,0,0,0,0,0,0,0,0,0,0,0,0,0,0,0,0,0,0,0,0,0,0,0,0,0,0,0],"split_type":[0,0,0,0,0,0,0,0,0,0,0,0,0,0,0,0,0,0,0,0,0,0,0,0,0,0,0,0,0,0,0,0,0,0,0,0,0,0,0,0,0,0,0,0,0,0,0,0,0,0,0,0,0,0,0,0,0,0,0,0,0,0,0,0,0,0,0,0,0,0,0,0,0,0,0,0,0,0,0,0,0],"sum_hessian":[9.1087335E2,4.6184985E2,4.490235E2,3.6352753E2,9.832233E1,3.3153815E2,1.1748537E2,1.0705112E1,3.5282242E2,4.04496E1,5.7872723E1,3.193639E2,1.2174272E1,8.0222206E1,3.726316E1,6.7817388E0,3.9233735E0,1.6722134E1,3.3610028E2,2.896174E1,1.1487861E1,4.952473E1,8.347993E0,6.601505E0,3.1276236E2,1.674634E0,1.0499638E1,7.405197E1,6.17023E0,3.0657406E1,6.605754E0,5.542925E0,1.1179209E1,3.3233472E2,3.7655585E0,2.7826424E1,1.1353163E0,4.3872514E0,7.10061E0,4.0820183E1,8.704547E0,6.9752975E0,1.3726954E0,1.1474544E0,5.45405E0,5.4436283E0,3.0731876E2,5.692672E0,6.83593E1,4.614232E0,2.6043175E1,1.0249431E0,5.5808105E0,4.1434913E0,1.3994334E0,1.0014623E0,1.0177746E1,3.6603954E0,3.2867432E2,2.6964757E0,1.0690827E0,1.0420282E0,3.3452232E0,1.0309986E0,6.069611E0,1.0069759E0,3.9813206E1,3.5395434E0,5.165004E0,1.2802958E0,4.1633325E0,3.014368E2,5.8819427E0,4.1074877E0,1.5851843E0,6.618442E1,2.1748817E0,1.5056108E0,3.1086211E0,1.2331861E0,2.4809988E1],"tree_param":{"num_deleted":"0","num_feature":"384","num_nodes":"81","size_leaf_vector":"1"}},{"base_weights":[-1.2121619E-2,-7.8780997E-1,8.0675036E-1,-1.0497763E0,-4.1539643E-2,-5.60712E-1,1.0887492E0,-1.0967141E0,6.807946E-1,6.0893804E-1,-8.4292686E-1,5.082544E-1,-1.012823E0,1.1753093E0,-7.9856557E-1,-1.1186427E0,-3.7903303E-1,1.3027997E-1,-8.390486E-2,1.0780046E0,-7.0854247E-1,-1.0841266E0,1.8940051E-1,1.0978663E0,-7.3981315E-1,-1.0632594E0,6.61296E-2,1.2298032E0,-7.96587E-1,9.433198E-2,-1.0219028E0,9.729398E-3,-1.1267967E0,-8.839949E-1,1.7447212E-1,-8.525177E-2,1.2745876E0,9.2389554E-2,-9.7986925E-1,2.8752623E-2,-1.1251513E0,1.2869112E-1,-8.6390895E-1,-6.36711E-2,1.2784746E-1,4.0505867E-2,-9.998491E-2,-1.1177644E0,3.2903552E-2,-7.045446E-1,1.2739182E0,5.7482112E-2,-1.100288E-1,-1.0859394E-1,-8.429545E-3,-5.235308E-2,-1.1389828E-1,-1.0190614E-1,9.025788E-3,-2.8789354E-2,1.3673098E-1,-1.1415576E-1,4.457179E-2,-1.13857426E-1,-3.1075096E-2,-2.0002062E-2,-9.587242E-2,-1.14698745E-1,1.0216861E-2,-1.00234345E-1,5.7659525E-2,1.3126758E-1,-4.918943E-2],"categories":[],"categories_nodes":[],"categories_segments":[],"categories_sizes":[],"default_left":[0,0,0,0,0,0,0,0,0,0,0,0,0,0,0,0,0,0,0,0,0,0,0,0,0,0,0,0,0,0,0,0,0,0,0,0,0,0,0,0,0,0,0,0,0,0,0,0,0,0,0,0,0,0,0,0,0,0,0,0,0,0,0,0,0,0,0,0,0,0,0,0,0],"id":9,"left_children":[1,3,5,7,9,11,13,15,17,19,21,23,25,27,29,31,33,-1,-1,35,37,39,41,43,45,47,-1,49,51,-1,53,-1,55,57,-1,-1,59,-1,61,-1,63,-1,65,-1,-1,-1,-1,67,-1,69,71,-1,-1,-1,-1,-1,-1,-1,-1,-1,-1,-1,-1,-1,-1,-1,-1,-1,-1,-1,-1,-1,-1],"loss_changes":[5.420423E2,8.562836E1,1.6069394E2,2.7091064E1,6.0410713E1,3.5134094E1,5.7217773E1,4.5513306E0,9.772569E0,4.0317383E1,1.312817E1,1.696999E1,4.9819717E0,3.6418243E1,7.0727453E0,3.1460571E0,1.3216269E1,0E0,0E0,1.9149681E1,8.615701E0,2.6992302E0,1.3458969E1,5.6118584E0,2.6801696E0,4.130005E0,0E0,2.8316833E1,4.5791106E0,0E0,7.729397E-1,0E0,1.640686E0,1.336586E0,0E0,0E0,6.709976E0,0E0,4.061351E0,0E0,9.65271E-2,0E0,1.8896723E-1,0E0,0E0,0E0,0E0,1.8261261E0,0E0,3.5570745E0,2.2170319E1,0E0,0E0,0E0,0E0,0E0,0E0,0E0,0E0,0E0,0E0,0E0,0E0,0E0,0E0,0E0,0E0,0E0,0E0,0E0,0E0,0E0,0E0],"parents":[2147483647,0,0,1,1,2,2,3,3,4,4,5,5,6,6,7,7,8,8,9,9,10,10,11,11,12,12,13,13,14,14,15,15,16,16,19,19,20,20,21,21,22,22,23,23,24,24,25,25,27,27,28,28,30,30,32,32,33,33,36,36,38,38,40,40,42,42,47,47,49,49,50,50],"right_children":[2,4,6,8,10,12,14,16,18,20,22,24,26,28,30,32,34,-1,-1,36,38,40,42,44,46,48,-1,50,52,-1,54,-1,56,58,-1,-1,60,-1,62,-1,64,-1,66,-1,-1,-1,-1,68,-1,70,72,-1,-1,-1,-1,-1,-1,-1,-1,-1,-1,-1,-1,-1,-1,-1,-1,-1,-1,-1,-1,-1,-1],"split_conditions":[1.91E2,1.94E2,1.21E2,1.84E2,1.08E2,1.25E2,2.08E2,2.28E2,9.9E1,1.27E2,1.82E2,5.6E1,1.58E2,1.13E2,1.19E2,5.3E1,1.38E2,1.3027997E-1,-8.390486E-2,1.38E2,1.19E2,7.6E1,1.11E2,9.5E1,1.2E2,1.5E2,6.61296E-2,7.6E1,1.07E2,9.433198E-2,1.67E2,9.729398E-3,6.6E1,1.08E2,1.7447212E-1,-8.525177E-2,1.02E2,9.2389554E-2,1.35E2,2.8752623E-2,1.68E2,1.2869112E-1,1.04E2,-6.36711E-2,1.2784746E-1,4.0505867E-2,-9.998491E-2,1.83E2,3.2903552E-2,1.53E2,1.45E2,5.7482112E-2,-1.100288E-1,-1.0859394E-1,-8.429545E-3,-5.235308E-2,-1.1389828E-1,-1.0190614E-1,9.025788E-3,-2.8789354E-2,1.3673098E-1,-1.1415576E-1,4.457179E-2,-1.13857426E-1,-3.1075096E-2,-2.0002062E-2,-9.587242E-2,-1.14698745E-1,1.0216861E-2,-1.00234345E-1,5.7659525E-2,1.3126758E-1,-4.918943E-2],"split_indices":[210,78,375,134,57,279,166,246,253,140,276,39,308,98,270,360,322,0,0,31,307,281,178,353,164,40,0,283,368,0,31,0,189,182,0,0,283,0,158,0,67,0,10,0,0,0,0,276,0,33,259,0,0,0,0,0,0,0,0,0,0,0,0,0,0,0,0,0,0,0,0,0,0],"split_type":[0,0,0,0,0,0,0,0,0,0,0,0,0,0,0,0,0,0,0,0,0,0,0,0,0,0,0,0,0,0,0,0,0,0,0,0,0,0,0,0,0,0,0,0,0,0,0,0,0,0,0,0,0,0,0,0,0,0,0,0,0,0,0,0,0,0,0,0,0,0,0,0,0],"sum_hessian":[8.5135474E2,4.3722498E2,4.1412976E2,3.2332144E2,1.1390353E2,7.06324E1,3.4349738E2,3.1514023E2,8.181207E0,6.300399E1,5.089954E1,2.095721E1,4.9675186E1,3.2879474E2,1.4702637E1,3.0525458E2,9.88566E0,5.906672E0,2.274535E0,4.659603E1,1.6407959E1,4.1218746E1,9.680794E0,1.431491E1,6.6423006E0,4.8576595E1,1.0985913E0,3.2031897E2,8.475777E0,1.3045158E0,1.3398121E1,1.9605811E0,3.03294E2,8.458301E0,1.4273592E0,3.9979475E0,4.2598083E1,1.9957032E0,1.4412255E1,1.0225157E0,4.0196228E1,4.632312E0,5.048482E0,1.1117923E0,1.3203117E1,1.1262051E0,5.5160956E0,4.693633E1,1.6402652E0,6.808536E0,3.1351044E2,1.3748251E0,7.1009517E0,1.2393471E1,1.0046505E0,6.8756948E0,2.964183E2,7.388057E0,1.070244E0,2.2683706E0,4.0329716E1,1.3123088E1,1.2891669E0,3.915286E1,1.043369E0,1.0195136E0,4.0289683E0,4.5896687E1,1.0396436E0,5.700971E0,1.1075653E0,3.0702814E2,6.48229E0],"tree_param":{"num_deleted":"0","num_feature":"384","num_nodes":"73","size_leaf_vector":"1"}},{"base_weights":[-1.2629863E-2,-7.846088E-1,7.57349E-1,1.2097008E-1,-9.9010736E-1,1.1039568E0,-2.2370973E-1,9.092714E-1,-7.274276E-1,-1.0611389E0,-4.822857E-2,1.2000091E0,-3.1561702E-1,7.369729E-1,-7.016689E-1,1.2149919E0,-7.487924E-1,1.5519294E-1,-9.6106666E-1,-1.0725493E0,6.307731E-2,-7.4161094E-1,8.880131E-1,-5.7255614E-1,1.2437518E0,-9.241043E-1,6.296976E-1,-6.316854E-1,1.1120806E0,2.3273915E-1,-9.9096674E-1,1.3874083E0,-4.2358205E-1,-9.417145E-2,1.6478635E-2,-1.0552858E0,8.0996856E-2,-1.1152092E0,-7.18394E-1,8.21443E-2,-1.0657449E-1,1.1406647E0,-6.2196393E-2,8.401271E-2,-1.099863E-1,-7.019421E-1,1.2766254E0,-1.0689353E-1,3.3831436E-2,-7.6144464E-2,1.1526074E-1,-1.0079964E-1,8.067081E-2,1.2910497E0,-7.8243166E-2,9.9114925E-1,-9.0214795E-1,4.9219334E-1,-1.103128E0,2.998354E-2,1.4282817E-1,2.8797958E-2,-7.704204E-2,-1.0971552E-1,7.6635517E-3,-1.1225229E-1,6.9279447E-3,-9.852956E-2,4.2152476E-2,1.2526982E-1,9.867614E-3,6.4256424E-3,-9.475698E-2,1.2955117E-1,-2.6115948E-2,1.3301083E-1,1.6196087E-2,-4.7851693E-2,1.3073972E-1,-9.851897E-2,-1.9044602E-2,1.00766376E-1,-6.2579E-2,1.2848149E-2,-1.1345341E-1],"categories":[],"categories_nodes":[],"categories_segments":[],"categories_sizes":[],"default_left":[0,0,0,0,0,0,0,0,0,0,0,0,0,0,0,0,0,0,0,0,0,0,0,0,0,0,0,0,0,0,0,0,0,0,0,0,0,0,0,0,0,0,0,0,0,0,0,0,0,0,0,0,0,0,0,0,0,0,0,0,0,0,0,0,0,0,0,0,0,0,0,0,0,0,0,0,0,0,0,0,0,0,0,0,0],"id":10,"left_children":[1,3,5,7,9,11,13,15,17,19,21,23,25,27,29,31,33,-1,35,37,-1,39,41,43,45,47,49,51,53,55,57,59,61,-1,-1,63,-1,65,67,-1,-1,69,-1,-1,-1,71,73,-1,-1,-1,-1,-1,-1,75,-1,77,79,81,83,-1,-1,-1,-1,-1,-1,-1,-1,-1,-1,-1,-1,-1,-1,-1,-1,-1,-1,-1,-1,-1,-1,-1,-1,-1,-1],"loss_changes":[4.7387128E2,7.4201096E1,1.3596939E2,5.0498764E1,2.1663239E1,4.0616882E1,4.8744095E1,2.0715378E1,2.0901045E1,6.502075E0,1.6114136E1,2.2159424E1,1.1794944E1,1.8867535E1,1.9328682E1,1.0015366E1,1.3362918E0,0E0,6.4740467E0,3.7328796E0,0E0,8.081371E0,4.7476435E0,6.396493E0,1.8182587E1,2.6041403E0,6.8635654E0,5.2781777E0,1.054903E1,1.5966974E1,9.5488205E0,9.2432404E-1,1.1950216E0,0E0,0E0,1.6200333E0,0E0,2.3823853E0,1.1086292E1,0E0,0E0,9.7613907E-1,0E0,0E0,0E0,1.0274041E0,8.067444E0,0E0,0E0,0E0,0E0,0E0,0E0,9.3481827E-1,0E0,5.7259293E0,2.579031E-1,3.2225294E0,2.1045113E0,0E0,0E0,0E0,0E0,0E0,0E0,0E0,0E0,0E0,0E0,0E0,0E0,0E0,0E0,0E0,0E0,0E0,0E0,0E0,0E0,0E0,0E0,0E0,0E0,0E0,0E0],"parents":[2147483647,0,0,1,1,2,2,3,3,4,4,5,5,6,6,7,7,8,8,9,9,10,10,11,11,12,12,13,13,14,14,15,15,16,16,18,18,19,19,21,21,22,22,23,23,24,24,25,25,26,26,27,27,28,28,29,29,30,30,31,31,32,32,35,35,37,37,38,38,41,41,45,45,46,46,53,53,55,55,56,56,57,57,58,58],"right_children":[2,4,6,8,10,12,14,16,18,20,22,24,26,28,30,32,34,-1,36,38,-1,40,42,44,46,48,50,52,54,56,58,60,62,-1,-1,64,-1,66,68,-1,-1,70,-1,-1,-1,72,74,-1,-1,-1,-1,-1,-1,76,-1,78,80,82,84,-1,-1,-1,-1,-1,-1,-1,-1,-1,-1,-1,-1,-1,-1,-1,-1,-1,-1,-1,-1,-1,-1,-1,-1,-1,-1],"split_conditions":[1.9E2,9.4E1,1.86E2,1.05E2,2.1E2,1.39E2,1.27E2,1.25E2,6.8E1,1.94E2,1.45E2,1.01E2,1.13E2,1.16E2,3.7E1,1.3E2,1.41E2,1.5519294E-1,1.61E2,1.96E2,6.307731E-2,1.07E2,1.46E2,9.9E1,1.21E2,1.75E2,1.38E2,1.08E2,1.53E2,1.37E2,8.7E1,1.26E2,1.24E2,-9.417145E-2,1.6478635E-2,1.56E2,8.0996856E-2,1.79E2,1.41E2,8.21443E-2,-1.0657449E-1,1.36E2,-6.2196393E-2,8.401271E-2,-1.099863E-1,1.45E2,1.74E2,-1.0689353E-1,3.3831436E-2,-7.6144464E-2,1.1526074E-1,-1.0079964E-1,8.067081E-2,1.45E2,-7.8243166E-2,1.05E2,1.64E2,1.25E2,1E2,2.998354E-2,1.4282817E-1,2.8797958E-2,-7.704204E-2,-1.0971552E-1,7.6635517E-3,-1.1225229E-1,6.9279447E-3,-9.852956E-2,4.2152476E-2,1.2526982E-1,9.867614E-3,6.4256424E-3,-9.475698E-2,1.2955117E-1,-2.6115948E-2,1.3301083E-1,1.6196087E-2,-4.7851693E-2,1.3073972E-1,-9.851897E-2,-1.9044602E-2,1.00766376E-1,-6.2579E-2,1.2848149E-2,-1.1345341E-1],"split_indices":[210,259,166,57,78,58,279,138,217,134,34,282,353,346,39,348,11,0,381,78,0,270,248,323,33,218,173,291,326,89,115,306,89,0,0,314,0,305,283,0,0,58,0,0,0,101,40,0,0,0,0,0,0,264,0,380,28,1,325,0,0,0,0,0,0,0,0,0,0,0,0,0,0,0,0,0,0,0,0,0,0,0,0,0,0],"split_type":[0,0,0,0,0,0,0,0,0,0,0,0,0,0,0,0,0,0,0,0,0,0,0,0,0,0,0,0,0,0,0,0,0,0,0,0,0,0,0,0,0,0,0,0,0,0,0,0,0,0,0,0,0,0,0,0,0,0,0,0,0,0,0,0,0,0,0,0,0,0,0,0,0,0,0,0,0,0,0,0,0,0,0,0,0],"sum_hessian":[7.9521655E2,3.9708307E2,3.981335E2,7.351832E1,3.2356476E2,2.9410205E2,1.0403145E2,3.807169E1,3.544663E1,3.0075665E2,2.2808083E1,2.756083E2,1.849375E1,3.438227E1,6.9649185E1,3.237034E1,5.7013516E0,2.7709663E0,3.2675663E1,2.9910553E2,1.6511357E0,1.3222994E1,9.585089E0,6.3464074E0,2.692619E2,1.1265029E1,7.228721E0,7.24895E0,2.713332E1,1.651207E1,5.313711E1,2.9427193E1,2.943146E0,4.6818743E0,1.0194772E0,3.1408854E1,1.2668093E0,2.6503207E2,3.4073456E1,2.007597E0,1.1215397E1,8.420706E0,1.1643834E0,1.5637625E0,4.782645E0,4.135594E0,2.651263E2,1.0243148E1,1.0218811E0,1.850229E0,5.378492E0,5.9829245E0,1.2660257E0,2.5082388E1,2.0509305E0,9.973644E0,6.5384254E0,3.4976585E0,4.9639454E1,1.3678093E0,2.8059383E1,1.0200821E0,1.923064E0,3.0318111E1,1.0907426E0,2.6345767E2,1.5744073E0,2.7718958E1,6.3544984E0,7.4206295E0,1.0000759E0,1.183195E0,2.9523988E0,2.620653E2,3.0610025E0,2.4071642E1,1.0107468E0,1.6752626E0,8.298382E0,5.511113E0,1.0273125E0,2.461437E0,1.0362215E0,1.1574765E0,4.8481976E1],"tree_param":{"num_deleted":"0","num_feature":"384","num_nodes":"85","size_leaf_vector":"1"}},{"base_weights":[-1.2756082E-2,-7.656115E-1,7.305283E-1,1.1836754E-1,-9.690432E-1,-5.122988E-1,9.889628E-1,-7.441183E-1,8.3957124E-1,-1.0402416E0,-4.4751875E-2,-8.3076555E-1,8.849322E-1,1.1225955E0,-1.7451918E-1,4.1996616E-1,-1.0322919E0,1.1190395E0,-9.381345E-2,-1.052098E0,5.9253402E-2,-7.157756E-1,8.4431815E-1,-1.0228543E0,1.386483E-1,1.24141075E-1,-7.746945E-2,1.1989098E0,-1.6663685E-1,7.3293686E-1,-7.875066E-1,1.1807772E-1,-5.6124747E-1,1.1650664E-2,-1.08617686E-1,1.3154706E0,-9.95706E-2,-1.0976236E0,-6.859652E-1,7.7079505E-2,-1.0440934E-1,-4.155718E-2,1.1414587E-1,-1.0781044E0,5.7855666E-2,-7.5000316E-1,1.0443371E-1,1.222997E0,-7.82684E-2,-9.28855E-1,1.1438247E-1,-5.95553E-1,1.2002186E-1,8.972016E-2,-9.6800834E-1,-7.420388E-2,-2.843875E-3,1.3672233E-1,-4.5502936E-3,8.765002E-2,-8.4511064E-2,-1.10546365E-1,6.4830706E-3,-9.53441E-2,3.8460005E-2,-1.0665595E-2,-1.1145752E-1,-8.881522E-2,-6.581114E-3,1.2440231E-1,-6.546734E-2,-1.0713831E-1,2.1083722E-2,8.1017045E-3,-8.3745286E-2,1.5549051E-2,-1.07801415E-1],"categories":[],"categories_nodes":[],"categories_segments":[],"categories_sizes":[],"default_left":[0,0,0,0,0,0,0,0,0,0,0,0,0,0,0,0,0,0,0,0,0,0,0,0,0,0,0,0,0,0,0,0,0,0,0,0,0,0,0,0,0,0,0,0,0,0,0,0,0,0,0,0,0,0,0,0,0,0,0,0,0,0,0,0,0,0,0,0,0,0,0,0,0,0,0,0,0],"id":11,"left_children":[1,3,5,7,9,11,13,15,17,19,21,23,25,27,29,31,33,35,-1,37,-1,39,41,43,45,-1,-1,47,49,51,53,-1,55,-1,-1,57,59,61,63,-1,-1,-1,-1,65,-1,67,-1,69,-1,71,-1,73,-1,-1,75,-1,-1,-1,-1,-1,-1,-1,-1,-1,-1,-1,-1,-1,-1,-1,-1,-1,-1,-1,-1,-1,-1],"loss_changes":[4.153772E2,6.64294E1,1.20480545E2,4.409158E1,1.9688293E1,2.964055E1,4.8327637E1,1.1286533E1,2.0190239E1,6.0127563E0,1.4023413E1,1.008897E1,8.381863E0,2.7532776E1,1.87993E1,5.985847E0,1.7497768E0,8.209496E0,0E0,3.8599548E0,0E0,7.325169E0,4.2679653E0,4.578991E0,8.602194E0,0E0,0E0,1.3482208E1,1.744733E1,9.234923E0,6.960513E0,0E0,3.4417439E-1,0E0,0E0,2.1142502E0,4.826412E0,2.2997742E0,9.894073E0,0E0,0E0,0E0,0E0,1.4244804E0,0E0,4.6004915E-1,0E0,1.1065369E1,0E0,2.0002203E0,0E0,7.61734E-1,0E0,0E0,2.4634209E0,0E0,0E0,0E0,0E0,0E0,0E0,0E0,0E0,0E0,0E0,0E0,0E0,0E0,0E0,0E0,0E0,0E0,0E0,0E0,0E0,0E0,0E0],"parents":[2147483647,0,0,1,1,2,2,3,3,4,4,5,5,6,6,7,7,8,8,9,9,10,10,11,11,12,12,13,13,14,14,15,15,16,16,17,17,19,19,21,21,22,22,23,23,24,24,27,27,28,28,29,29,30,30,32,32,35,35,36,36,37,37,38,38,43,43,45,45,47,47,49,49,51,51,54,54],"right_children":[2,4,6,8,10,12,14,16,18,20,22,24,26,28,30,32,34,36,-1,38,-1,40,42,44,46,-1,-1,48,50,52,54,-1,56,-1,-1,58,60,62,64,-1,-1,-1,-1,66,-1,68,-1,70,-1,72,-1,74,-1,-1,76,-1,-1,-1,-1,-1,-1,-1,-1,-1,-1,-1,-1,-1,-1,-1,-1,-1,-1,-1,-1,-1,-1],"split_conditions":[1.9E2,9.4E1,1.21E2,1.53E2,2.1E2,1.78E2,1.71E2,1.07E2,1.71E2,1.94E2,1.45E2,1.59E2,1.29E2,1.31E2,1.38E2,1.17E2,6.9E1,9.9E1,-9.381345E-2,1.96E2,5.9253402E-2,1.07E2,1.66E2,1.58E2,1.13E2,1.24141075E-1,-7.746945E-2,1.16E2,1.42E2,1.37E2,1E2,1.1807772E-1,1.23E2,1.1650664E-2,-1.08617686E-1,1.51E2,1.37E2,1.79E2,1.41E2,7.7079505E-2,-1.0440934E-1,-4.155718E-2,1.1414587E-1,1.18E2,5.7855666E-2,1.62E2,1.0443371E-1,1.45E2,-7.82684E-2,1.42E2,1.1438247E-1,1.55E2,1.2002186E-1,8.972016E-2,6.1E1,-7.420388E-2,-2.843875E-3,1.3672233E-1,-4.5502936E-3,8.765002E-2,-8.4511064E-2,-1.10546365E-1,6.4830706E-3,-9.53441E-2,3.8460005E-2,-1.0665595E-2,-1.1145752E-1,-8.881522E-2,-6.581114E-3,1.2440231E-1,-6.546734E-2,-1.0713831E-1,2.1083722E-2,8.1017045E-3,-8.3745286E-2,1.5549051E-2,-1.07801415E-1],"split_indices":[210,259,375,96,78,276,152,155,183,134,34,379,3,259,279,300,115,189,0,78,0,270,210,308,263,0,0,98,34,31,222,0,72,0,0,47,226,305,283,0,0,0,0,30,0,67,0,140,0,192,0,2,0,0,259,0,0,0,0,0,0,0,0,0,0,0,0,0,0,0,0,0,0,0,0,0,0],"split_type":[0,0,0,0,0,0,0,0,0,0,0,0,0,0,0,0,0,0,0,0,0,0,0,0,0,0,0,0,0,0,0,0,0,0,0,0,0,0,0,0,0,0,0,0,0,0,0,0,0,0,0,0,0,0,0,0,0,0,0,0,0,0,0,0,0,0,0,0,0,0,0,0,0,0,0,0,0],"sum_hessian":[7.402947E2,3.6776453E2,3.7253015E2,6.8879234E1,2.9888528E2,6.3960056E1,3.085701E2,3.1352764E1,3.752647E1,2.7739224E2,2.1493061E1,5.2417995E1,1.1542057E1,2.768118E2,3.1758308E1,6.1306224E0,2.5222141E1,3.2748657E1,4.777813E0,2.7574554E2,1.6466854E0,1.2359597E1,9.133464E0,4.370312E1,8.714878E0,9.708681E0,1.8333763E0,2.6140817E2,1.5403622E1,1.2724902E1,1.9033405E1,3.338579E0,2.7920434E0,1.0779849E0,2.4144156E1,2.8134151E1,4.6145034E0,2.4347379E2,3.2271763E1,1.9920774E0,1.0367519E1,1.6669489E0,7.466515E0,4.256149E1,1.1416291E0,4.4855776E0,4.2293E0,2.5864703E2,2.761147E0,9.923125E0,5.480496E0,3.2397454E0,9.485156E0,1.4576716E0,1.7575735E1,1.7914728E0,1.0005708E0,2.7099085E1,1.0350668E0,1.9222327E0,2.6922705E0,2.4189139E2,1.5823958E0,2.5908136E1,6.363625E0,1.682055E0,4.0879436E1,3.4840002E0,1.0015773E0,2.561165E2,2.5305312E0,8.873372E0,1.0497538E0,1.0284243E0,2.211321E0,1.5305556E0,1.604518E1],"tree_param":{"num_deleted":"0","num_feature":"384","num_nodes":"77","size_leaf_vector":"1"}},{"base_weights":[-1.29474215E-2,-7.9753065E-1,6.614239E-1,1.0611808E-1,-9.7712094E-1,-4.825069E-1,9.607927E-1,-7.1671855E-1,8.6951303E-1,-1.0748229E0,-4.8253042E-1,-8.078448E-1,8.732872E-1,1.1399173E0,1.00901045E-1,-1.0244833E0,3.5891485E-1,-6.2263775E-1,1.1345392E0,-1.0854588E0,4.307739E-2,3.630234E-1,-8.851898E-1,-9.9672055E-1,1.0558095E-1,1.2339393E-1,-8.1749775E-2,1.184985E0,-7.654665E-1,-5.775947E-1,1.0061586E0,-1.0642892E-1,-1.2649188E-2,-7.630035E-2,1.0697126E0,1.1644828E-2,-8.421437E-2,1.2675741E0,-3.1672664E-2,-1.4263357E-3,-1.0929769E0,-7.8892076E-1,9.8765546E-1,-1.0485884E0,7.480182E-2,-1.0598679E0,6.607081E-2,-7.828567E-1,1.0291087E-1,-5.882491E-1,1.2105961E0,2.2758E-3,-9.35502E-2,5.855956E-1,-9.4743985E-1,1.2395483E0,-4.6934456E-1,1.2142425E-1,3.252256E-2,1.3383935E-1,2.08377E-3,-1.9798616E-3,-1.100046E-1,-8.048187E-3,-9.158484E-2,1.1904063E-1,-4.6059772E-2,-1.09263316E-1,-1.5529461E-2,-8.1543155E-2,1.21095315E-1,2.8541444E-3,-1.0915893E-1,8.8430906E-4,-9.318755E-2,-7.894076E-2,-1.839206E-3,1.232171E-1,-4.0189978E-2,-7.446068E-2,1.1099322E-1,-1.0788947E-1,9.879746E-3,1.2887211E-1,1.6359432E-2,1.4687558E-2,-7.546244E-2],"categories":[],"categories_nodes":[],"categories_segments":[],"categories_sizes":[],"default_left":[0,0,0,0,0,0,0,0,0,0,0,0,0,0,0,0,0,0,0,0,0,0,0,0,0,0,0,0,0,0,0,0,0,0,0,0,0,0,0,0,0,0,0,0,0,0,0,0,0,0,0,0,0,0,0,0,0,0,0,0,0,0,0,0,0,0,0,0,0,0,0,0,0,0,0,0,0,0,0,0,0,0,0,0,0,0,0],"id":12,"left_children":[1,3,5,7,9,11,13,15,17,19,21,23,25,27,29,31,33,35,37,39,-1,41,43,45,47,-1,-1,49,51,53,55,-1,-1,-1,57,-1,-1,59,-1,-1,61,63,65,67,69,71,-1,73,-1,75,77,-1,-1,79,81,83,85,-1,-1,-1,-1,-1,-1,-1,-1,-1,-1,-1,-1,-1,-1,-1,-1,-1,-1,-1,-1,-1,-1,-1,-1,-1,-1,-1,-1,-1,-1],"loss_changes":[3.6540125E2,5.190744E1,1.2765202E2,3.443282E1,1.2353882E1,3.497883E1,4.527661E1,9.124351E0,1.1926544E1,4.016632E0,1.590017E1,1.1005943E1,1.04711E1,2.1842194E1,3.24604E1,6.0982513E-1,6.0995736E0,8.970562E-1,5.121525E0,1.7590637E0,0E0,1.1910332E1,4.9861603E0,6.190132E0,1.0430519E1,0E0,0E0,1.1545929E1,8.577163E-1,1.3590869E1,8.364573E0,0E0,0E0,0E0,8.629513E-2,0E0,0E0,1.9670525E0,0E0,0E0,1.6381836E0,4.6536422E-1,3.6240587E0,8.8487434E-1,6.534341E0,1.7889442E0,0E0,7.8062105E-1,0E0,4.5196378E-1,8.687653E0,0E0,0E0,6.3563466E0,3.3212662E0,8.361263E-1,7.8095895E-1,0E0,0E0,0E0,0E0,0E0,0E0,0E0,0E0,0E0,0E0,0E0,0E0,0E0,0E0,0E0,0E0,0E0,0E0,0E0,0E0,0E0,0E0,0E0,0E0,0E0,0E0,0E0,0E0,0E0,0E0],"parents":[2147483647,0,0,1,1,2,2,3,3,4,4,5,5,6,6,7,7,8,8,9,9,10,10,11,11,12,12,13,13,14,14,15,15,16,16,17,17,18,18,19,19,21,21,22,22,23,23,24,24,27,27,28,28,29,29,30,30,34,34,37,37,40,40,41,41,42,42,43,43,44,44,45,45,47,47,49,49,50,50,53,53,54,54,55,55,56,56],"right_children":[2,4,6,8,10,12,14,16,18,20,22,24,26,28,30,32,34,36,38,40,-1,42,44,46,48,-1,-1,50,52,54,56,-1,-1,-1,58,-1,-1,60,-1,-1,62,64,66,68,70,72,-1,74,-1,76,78,-1,-1,80,82,84,86,-1,-1,-1,-1,-1,-1,-1,-1,-1,-1,-1,-1,-1,-1,-1,-1,-1,-1,-1,-1,-1,-1,-1,-1,-1,-1,-1,-1,-1,-1],"split_conditions":[1.87E2,9.3E1,1.23E2,1.53E2,1.96E2,1.78E2,1.39E2,1.59E2,1.49E2,1.94E2,8E1,1.59E2,1.35E2,1.39E2,1.22E2,1.7E2,1.36E2,1.15E2,1.61E2,5.3E1,4.307739E-2,1.2E2,2.03E2,1.59E2,1.35E2,1.2339393E-1,-8.1749775E-2,1.55E2,6.9E1,3.5E1,1.63E2,-1.0642892E-1,-1.2649188E-2,-7.630035E-2,1.65E2,1.1644828E-2,-8.421437E-2,1.38E2,-3.1672664E-2,-1.4263357E-3,9.9E1,9.8E1,1.43E2,1.85E2,1.71E2,9.4E1,6.607081E-2,1.37E2,1.0291087E-1,1.94E2,1.56E2,2.2758E-3,-9.35502E-2,1.27E2,1.95E2,1.32E2,1.23E2,1.2142425E-1,3.252256E-2,1.3383935E-1,2.08377E-3,-1.9798616E-3,-1.100046E-1,-8.048187E-3,-9.158484E-2,1.1904063E-1,-4.6059772E-2,-1.09263316E-1,-1.5529461E-2,-8.1543155E-2,1.21095315E-1,2.8541444E-3,-1.0915893E-1,8.8430906E-4,-9.318755E-2,-7.894076E-2,-1.839206E-3,1.232171E-1,-4.0189978E-2,-7.446068E-2,1.1099322E-1,-1.0788947E-1,9.879746E-3,1.2887211E-1,1.6359432E-2,1.4687558E-2,-7.546244E-2],"split_indices":[210,259,375,96,78,276,156,306,64,134,189,379,3,155,209,206,21,279,37,360,0,263,355,308,134,0,0,78,22,39,181,0,0,0,280,0,0,79,0,0,369,1,274,276,27,178,0,101,0,20,369,0,0,232,93,0,169,0,0,0,0,0,0,0,0,0,0,0,0,0,0,0,0,0,0,0,0,0,0,0,0,0,0,0,0,0,0],"split_type":[0,0,0,0,0,0,0,0,0,0,0,0,0,0,0,0,0,0,0,0,0,0,0,0,0,0,0,0,0,0,0,0,0,0,0,0,0,0,0,0,0,0,0,0,0,0,0,0,0,0,0,0,0,0,0,0,0,0,0,0,0,0,0,0,0,0,0,0,0,0,0,0,0,0,0,0,0,0,0,0,0,0,0,0,0,0,0],"sum_hessian":[6.886114E2,3.1821185E2,3.7039954E2,5.282419E1,2.6538766E2,7.670127E1,2.9369827E2,2.5451765E1,2.7372423E1,2.2063086E2,4.47568E1,6.2183746E1,1.4517528E1,2.4279572E2,5.0902557E1,1.982648E1,5.6252847E0,3.9249315E0,2.344749E1,2.1936029E2,1.2705623E0,1.4469788E1,3.0287012E1,5.14532E1,1.0730545E1,1.2187975E1,2.329553E0,2.3755493E2,5.2407713E0,2.9302284E1,2.1600275E1,1.8807596E1,1.018886E0,2.1532161E0,3.4720685E0,1.006271E0,2.9186606E0,2.1594534E1,1.8529564E0,1.5490482E0,2.1781125E2,4.9950037E0,9.474785E0,2.5802858E1,4.4841537E0,4.9912106E1,1.5410951E0,5.546809E0,5.1837354E0,3.069409E0,2.3448553E2,1.0836246E0,4.157147E0,6.9284487E0,2.2373835E1,1.878832E1,2.8119535E0,2.379206E0,1.0928625E0,2.036425E1,1.2302842E0,1.4501957E0,2.1636105E2,1.0072384E0,3.9877653E0,8.467413E0,1.0073712E0,2.437774E1,1.4251177E0,2.6724427E0,1.8117111E0,1.4163239E0,4.849578E1,1.0276763E0,4.519133E0,1.9838431E0,1.0855659E0,2.3162233E2,2.8631992E0,1.8401169E0,5.0883317E0,1.984872E1,2.5251136E0,1.7778088E1,1.0102332E0,1.0433698E0,1.7685838E0],"tree_param":{"num_deleted":"0","num_feature":"384","num_nodes":"87","size_leaf_vector":"1"}},{"base_weights":[-1.3397535E-2,-7.8192645E-1,6.4119434E-1,1.0143725E-1,-9.609123E-1,-4.6791828E-1,9.315288E-1,6.6415054E-1,-9.391466E-1,-1.041866E0,-3.621185E-1,-7.8473157E-1,8.4103364E-1,1.1065378E0,9.728446E-2,1.0424477E0,-6.7280835E-1,-1.025811E-1,2.6524885E-2,-1.0589423E0,-3.924378E-2,9.4139814E-1,-6.631045E-1,-9.722876E-1,1.0018516E-1,1.19432144E-1,-7.940466E-2,1.1523461E0,-7.0061916E-1,-5.032906E-1,1.0517558E0,1.2085886E0,-3.3132932E-1,6.2737904E-2,-9.4934866E-2,-1.0703002E0,2.5785029E-2,8.465346E-2,-7.4871756E-2,-4.2866252E-2,1.3396108E-1,-8.8255316E-1,6.182464E-1,-1.0379406E0,6.1618168E-2,-7.5696164E-1,9.795393E-1,-5.652839E-1,1.1781951E0,-9.193075E-2,1.1685923E-2,6.1357325E-1,-8.7084734E-1,1.2346794E-1,-3.919992E-2,1.3038218E-1,-2.2049434E-2,-7.290943E-2,3.2433007E-2,3.7104998E-2,-1.0794065E-1,-9.8497115E-2,6.335815E-2,1.1533544E-1,-5.0721806E-2,2.6863308E-3,-1.0715558E-1,-9.1334425E-2,2.08778E-3,1.0770001E-1,2.9114334E-2,-7.715811E-2,2.446612E-4,1.20081924E-1,-4.0659826E-2,-6.2548354E-2,1.0858541E-1,2.6443992E-2,-1.0092852E-1],"categories":[],"categories_nodes":[],"categories_segments":[],"categories_sizes":[],"default_left":[0,0,0,0,0,0,0,0,0,0,0,0,0,0,0,0,0,0,0,0,0,0,0,0,0,0,0,0,0,0,0,0,0,0,0,0,0,0,0,0,0,0,0,0,0,0,0,0,0,0,0,0,0,0,0,0,0,0,0,0,0,0,0,0,0,0,0,0,0,0,0,0,0,0,0,0,0,0,0],"id":13,"left_children":[1,3,5,7,9,11,13,15,17,19,21,23,25,27,29,31,33,-1,-1,35,37,39,41,43,45,-1,-1,47,49,51,53,55,57,-1,-1,59,-1,-1,-1,-1,-1,61,63,65,-1,67,69,71,73,-1,-1,75,77,-1,-1,-1,-1,-1,-1,-1,-1,-1,-1,-1,-1,-1,-1,-1,-1,-1,-1,-1,-1,-1,-1,-1,-1,-1,-1],"loss_changes":[3.223309E2,4.6693253E1,1.1185968E2,3.0227312E1,1.1506195E1,3.0705612E1,3.9979553E1,1.759327E1,2.167427E0,3.646698E0,1.2680237E1,9.865017E0,9.382987E0,1.9587585E1,2.845026E1,6.43165E0,3.4625957E0,0E0,0E0,3.4432373E0,3.5535493E0,3.9445705E0,7.730294E0,5.713421E0,9.182239E0,0E0,0E0,1.0506226E1,1.2212346E0,1.308478E1,5.537525E0,3.525074E0,1.1846762E0,0E0,0E0,3.1589203E0,0E0,0E0,0E0,0E0,0E0,4.075409E0,3.1891878E0,1.7144432E0,0E0,7.7749515E-1,8.6545944E-2,4.6588647E-1,8.328552E0,0E0,0E0,5.452383E0,3.9471111E0,0E0,0E0,0E0,0E0,0E0,0E0,0E0,0E0,0E0,0E0,0E0,0E0,0E0,0E0,0E0,0E0,0E0,0E0,0E0,0E0,0E0,0E0,0E0,0E0,0E0,0E0],"parents":[2147483647,0,0,1,1,2,2,3,3,4,4,5,5,6,6,7,7,8,8,9,9,10,10,11,11,12,12,13,13,14,14,15,15,16,16,19,19,20,20,21,21,22,22,23,23,24,24,27,27,28,28,29,29,30,30,31,31,32,32,35,35,41,41,42,42,43,43,45,45,46,46,47,47,48,48,51,51,52,52],"right_children":[2,4,6,8,10,12,14,16,18,20,22,24,26,28,30,32,34,-1,-1,36,38,40,42,44,46,-1,-1,48,50,52,54,56,58,-1,-1,60,-1,-1,-1,-1,-1,62,64,66,-1,68,70,72,74,-1,-1,76,78,-1,-1,-1,-1,-1,-1,-1,-1,-1,-1,-1,-1,-1,-1,-1,-1,-1,-1,-1,-1,-1,-1,-1,-1,-1,-1],"split_conditions":[1.87E2,9.3E1,1.23E2,9.9E1,1.45E2,1.78E2,1.39E2,1.42E2,1.61E2,1.58E2,1.15E2,1.59E2,1.35E2,1.37E2,1.25E2,1.28E2,1.06E2,-1.025811E-1,2.6524885E-2,1.9E2,1.03E2,1.54E2,2.01E2,1.59E2,1.35E2,1.19432144E-1,-7.940466E-2,1.55E2,1.34E2,3.5E1,1.63E2,1.52E2,1.21E2,6.2737904E-2,-9.4934866E-2,3.7E1,2.5785029E-2,8.465346E-2,-7.4871756E-2,-4.2866252E-2,1.3396108E-1,1.53E2,1.17E2,9.4E1,6.1618168E-2,1.14E2,9.5E1,1.49E2,1.74E2,-9.193075E-2,1.1685923E-2,1.27E2,1.16E2,1.2346794E-1,-3.919992E-2,1.3038218E-1,-2.2049434E-2,-7.290943E-2,3.2433007E-2,3.7104998E-2,-1.0794065E-1,-9.8497115E-2,6.335815E-2,1.1533544E-1,-5.0721806E-2,2.6863308E-3,-1.0715558E-1,-9.1334425E-2,2.08778E-3,1.0770001E-1,2.9114334E-2,-7.715811E-2,2.446612E-4,1.20081924E-1,-4.0659826E-2,-6.2548354E-2,1.0858541E-1,2.6443992E-2,-1.0092852E-1],"split_indices":[210,259,375,189,34,276,156,300,306,381,89,379,3,155,209,140,35,0,0,314,255,186,61,308,134,0,0,78,196,39,181,270,308,0,0,137,0,0,0,0,0,108,155,178,0,46,57,12,40,0,0,232,279,0,0,0,0,0,0,0,0,0,0,0,0,0,0,0,0,0,0,0,0,0,0,0,0,0,0],"split_type":[0,0,0,0,0,0,0,0,0,0,0,0,0,0,0,0,0,0,0,0,0,0,0,0,0,0,0,0,0,0,0,0,0,0,0,0,0,0,0,0,0,0,0,0,0,0,0,0,0,0,0,0,0,0,0,0,0,0,0,0,0,0,0,0,0,0,0,0,0,0,0,0,0,0,0,0,0,0,0],"sum_hessian":[6.387276E2,2.9370563E2,3.45022E2,4.9556847E1,2.4414877E2,7.1452644E1,2.7356937E2,3.239854E1,1.7158306E1,2.1442036E2,2.9728405E1,5.7851097E1,1.360155E1,2.2586143E2,4.7707924E1,2.5424791E1,6.973748E0,1.6144852E1,1.0134537E0,2.1077434E2,3.6460285E0,5.177568E0,2.4550838E1,4.765252E1,1.0198576E1,1.1406532E1,2.1950173E0,2.2063115E2,5.230277E0,2.957277E1,1.8135157E1,2.2788996E1,2.6357949E0,1.0006063E0,5.973142E0,2.0915747E2,1.6168691E0,1.5356197E0,2.1104088E0,1.148761E0,4.028807E0,2.122671E1,3.3241286E0,4.609399E1,1.5585309E0,5.2349825E0,4.9635935E0,2.9616978E0,2.1766945E2,4.0281253E0,1.2021517E0,7.1567683E0,2.2416E1,1.6224348E1,1.9108088E0,2.1447405E1,1.3415914E0,1.5708283E0,1.0649664E0,1.0636058E0,2.0809387E2,2.0211708E1,1.0150012E0,2.2361555E0,1.087973E0,1.4167706E0,4.467722E1,4.2136354E0,1.0213469E0,3.8535182E0,1.1100751E0,1.9089701E0,1.0527277E0,2.1484467E2,2.824785E0,1.8855436E0,5.271225E0,2.3374126E0,2.0078588E1],"tree_param":{"num_deleted":"0","num_feature":"384","num_nodes":"79","size_leaf_vector":"1"}},{"base_weights":[-1.3265688E-2,-7.659106E-1,6.2254775E-1,9.667461E-2,-9.4344825E-1,-4.5334178E-1,9.0453017E-1,-6.856151E-1,8.095535E-1,-1.0470724E0,-4.3768865E-1,-9.138092E-1,4.0342107E-1,-2.7027074E-1,1.0225409E0,-9.9371254E-1,3.3085492E-1,-3.5944146E-1,1.1195656E0,-1.0615515E0,2.2561213E-2,3.643837E-1,-8.3877933E-1,5.0067264E-1,-9.9305683E-1,-6.2525094E-1,9.443736E-1,-6.957992E-1,8.6168087E-1,1.0775931E0,-8.2774585E-1,-1.03498675E-1,-1.5474731E-2,-7.207253E-2,9.7277135E-1,7.3520415E-2,-8.706152E-2,-3.3115845E-2,1.2242798E0,-1.0707252E0,1.3257126E-2,-7.1855426E-1,9.309186E-1,-1.0118865E0,1.15650415E-1,6.905819E-2,6.224518E-3,-1.0509602E0,-1.0838342E-1,-9.605532E-2,5.9453826E-2,-4.234184E-2,1.1326201E0,-9.468249E-1,7.945254E-2,-2.9288445E-2,1.1033589E-1,1.1205018E0,-6.9743013E-1,-3.1768084E-3,-9.8866574E-2,1.1121851E-1,2.64226E-2,1.9166281E-2,1.2757032E-1,-1.0760193E-1,-8.299612E-3,-8.653508E-2,-3.9818096E-3,-3.4725156E-2,1.12981275E-1,-1.06026866E-1,-1.3254173E-2,-7.667702E-2,1.1337713E-1,-1.7913558E-2,-1.078089E-1,-7.132015E-2,6.1620113E-2,1.2324029E-1,-6.8901232E-3,1.4678045E-2,-1.04372494E-1,1.15193345E-1,-3.6340035E-2,-8.9550905E-2,9.0416195E-3],"categories":[],"categories_nodes":[],"categories_segments":[],"categories_sizes":[],"default_left":[0,0,0,0,0,0,0,0,0,0,0,0,0,0,0,0,0,0,0,0,0,0,0,0,0,0,0,0,0,0,0,0,0,0,0,0,0,0,0,0,0,0,0,0,0,0,0,0,0,0,0,0,0,0,0,0,0,0,0,0,0,0,0,0,0,0,0,0,0,0,0,0,0,0,0,0,0,0,0,0,0,0,0,0,0,0,0],"id":14,"left_children":[1,3,5,7,9,11,13,15,17,19,21,23,25,27,29,31,33,35,37,39,-1,41,43,45,47,49,51,53,55,57,59,-1,-1,-1,61,-1,-1,-1,63,65,-1,67,69,71,73,-1,-1,75,77,-1,-1,-1,79,81,-1,-1,-1,83,85,-1,-1,-1,-1,-1,-1,-1,-1,-1,-1,-1,-1,-1,-1,-1,-1,-1,-1,-1,-1,-1,-1,-1,-1,-1,-1,-1,-1],"loss_changes":[2.8429453E2,4.175177E1,9.811381E1,2.6956244E1,1.1370331E1,2.7015661E1,3.5699265E1,7.5671883E0,9.545143E0,3.6780396E0,1.3205239E1,5.4561386E0,1.4115509E1,1.2214706E1,2.4563797E1,4.62677E-1,4.8365893E0,4.0225763E0,3.4714718E0,2.1649933E0,0E0,9.297661E0,4.583456E0,2.0778567E-1,2.049202E0,4.2431593E0,4.6835194E0,7.515766E0,2.2861724E0,1.8002869E1,9.0109825E-1,0E0,0E0,0E0,1.2395477E-1,0E0,0E0,0E0,7.6638794E-1,8.6964417E-1,0E0,5.030751E-1,2.8504725E0,8.373871E-1,5.4043355E0,0E0,0E0,7.41539E-1,2.0649292E0,0E0,0E0,0E0,1.838211E0,1.841198E0,0E0,0E0,0E0,1.0733673E1,1.0100055E0,0E0,0E0,0E0,0E0,0E0,0E0,0E0,0E0,0E0,0E0,0E0,0E0,0E0,0E0,0E0,0E0,0E0,0E0,0E0,0E0,0E0,0E0,0E0,0E0,0E0,0E0,0E0,0E0],"parents":[2147483647,0,0,1,1,2,2,3,3,4,4,5,5,6,6,7,7,8,8,9,9,10,10,11,11,12,12,13,13,14,14,15,15,16,16,17,17,18,18,19,19,21,21,22,22,23,23,24,24,25,25,26,26,27,27,28,28,29,29,30,30,34,34,38,38,39,39,41,41,42,42,43,43,44,44,47,47,48,48,52,52,53,53,57,57,58,58],"right_children":[2,4,6,8,10,12,14,16,18,20,22,24,26,28,30,32,34,36,38,40,-1,42,44,46,48,50,52,54,56,58,60,-1,-1,-1,62,-1,-1,-1,64,66,-1,68,70,72,74,-1,-1,76,78,-1,-1,-1,80,82,-1,-1,-1,84,86,-1,-1,-1,-1,-1,-1,-1,-1,-1,-1,-1,-1,-1,-1,-1,-1,-1,-1,-1,-1,-1,-1,-1,-1,-1,-1,-1,-1],"split_conditions":[1.87E2,9.3E1,1.23E2,1.53E2,1.96E2,1.81E2,1.39E2,1.59E2,1.54E2,1.9E2,8E1,6.9E1,1.1E2,1.12E2,1.31E2,1.69E2,1.36E2,1.44E2,1.36E2,1.5E2,2.2561213E-2,1.2E2,2.03E2,1.23E2,1.88E2,1.52E2,1.15E2,1.63E2,1.54E2,1.51E2,1.07E2,-1.03498675E-1,-1.5474731E-2,-7.207253E-2,1.65E2,7.3520415E-2,-8.706152E-2,-3.3115845E-2,9.2E1,1.97E2,1.3257126E-2,1.29E2,1.7E2,1.85E2,1.71E2,6.905819E-2,6.224518E-3,8.9E1,1.07E2,-9.605532E-2,5.9453826E-2,-4.234184E-2,9.9E1,7.9E1,7.945254E-2,-2.9288445E-2,1.1033589E-1,1.56E2,1.77E2,-3.1768084E-3,-9.8866574E-2,1.1121851E-1,2.64226E-2,1.9166281E-2,1.2757032E-1,-1.0760193E-1,-8.299612E-3,-8.653508E-2,-3.9818096E-3,-3.4725156E-2,1.12981275E-1,-1.06026866E-1,-1.3254173E-2,-7.667702E-2,1.1337713E-1,-1.7913558E-2,-1.078089E-1,-7.132015E-2,6.1620113E-2,1.2324029E-1,-6.8901232E-3,1.4678045E-2,-1.04372494E-1,1.15193345E-1,-3.6340035E-2,-8.9550905E-2,9.0416195E-3],"split_indices":[210,259,375,96,78,43,33,306,64,134,189,189,353,366,57,206,21,25,344,277,0,263,355,16,21,305,193,196,357,259,382,0,0,0,136,0,0,0,163,191,0,209,197,276,27,0,0,140,277,0,0,0,69,115,0,0,0,369,160,0,0,0,0,0,0,0,0,0,0,0,0,0,0,0,0,0,0,0,0,0,0,0,0,0,0,0,0],"split_type":[0,0,0,0,0,0,0,0,0,0,0,0,0,0,0,0,0,0,0,0,0,0,0,0,0,0,0,0,0,0,0,0,0,0,0,0,0,0,0,0,0,0,0,0,0,0,0,0,0,0,0,0,0,0,0,0,0,0,0,0,0,0,0,0,0,0,0,0,0,0,0,0,0,0,0,0,0,0,0,0,0,0,0,0,0,0,0],"sum_hessian":[5.920887E2,2.7104004E2,3.210486E2,4.6341316E1,2.2469873E2,6.654434E1,2.5450426E2,2.2113232E1,2.4228085E1,1.8560097E2,3.909776E1,4.3238968E1,2.3305376E1,2.3113953E1,2.313903E2,1.6986824E1,5.1264076E0,5.044987E0,1.9183098E1,1.8367722E2,1.9237559E0,1.3064277E1,2.6033484E1,2.0118523E0,4.1227116E1,7.978216E0,1.5327161E1,1.7078888E1,6.035064E0,2.2511014E2,6.2801657E0,1.5967627E1,1.019198E0,1.8966181E0,3.2297895E0,1.4664378E0,3.5785491E0,1.1458489E0,1.8037249E1,1.8237944E2,1.2977724E0,4.394949E0,8.669328E0,2.198569E1,4.047795E0,1.0024831E0,1.0093691E0,3.851808E1,2.7090335E0,6.424689E0,1.5535278E0,1.703114E0,1.3624046E1,1.4928982E1,2.149907E0,1.0079445E0,5.0271196E0,2.201569E2,4.953237E0,1.2574922E0,5.0226736E0,2.2227633E0,1.0070261E0,1.0798696E0,1.6957378E1,1.813182E2,1.0612338E0,3.387384E0,1.007565E0,1.0669281E0,7.6024E0,2.0644089E1,1.3416008E0,2.3006577E0,1.7471373E0,1.3918577E0,3.7126225E1,1.4851084E0,1.2239251E0,1.25556345E1,1.0684116E0,1.1732304E0,1.3755752E1,2.158094E2,4.347512E0,3.8488986E0,1.1043382E0],"tree_param":{"num_deleted":"0","num_feature":"384","num_nodes":"87","size_leaf_vector":"1"}},{"base_weights":[-1.3657746E-2,8.0091757E-1,-5.782949E-1,-4.5015505E-1,9.754608E-1,3.1930208E-1,-9.011227E-1,-9.429202E-1,5.553147E-1,-5.0205904E-1,1.0617863E0,8.319867E-1,-5.6599015E-1,-9.956034E-1,1.7455314E-1,1.74542E-2,-1.03196084E-1,-6.542121E-2,1.0080343E0,-8.8121665E-1,5.747641E-1,1.1237402E0,-2.785494E-1,-7.457126E-1,9.8755395E-1,-8.118964E-1,4.9185395E-1,-1.0308601E0,-1.2598065E-1,9.895658E-1,-8.1975806E-1,3.8659226E-3,1.1556721E-1,-9.784158E-2,-6.519695E-3,7.4349694E-2,6.558038E-3,1.161272E0,2.6702898E-2,7.47089E-1,-9.475836E-1,-8.5025065E-2,-1.4504296E-2,1.1276315E0,-4.261364E-3,-9.407319E-1,3.933101E-1,-6.588567E-2,1.19351886E-1,-1.0497532E0,-2.4766814E-2,9.4174373E-1,-8.787631E-2,-6.1349906E-2,1.201258E0,-9.794526E-2,2.1301506E-2,-2.4230925E-2,1.17087476E-1,8.403004E-2,-6.572338E-2,1.4623189E-2,8.9965515E-2,-2.5092898E-2,-1.0397004E-1,-3.1165117E-2,1.1844265E-1,8.815306E-2,-7.182736E-2,-1.01944685E-1,3.218952E-2,-3.825099E-2,9.0281464E-2,2.4991047E-2,-1.0602458E-1,7.175052E-2,-7.3860556E-2,1.6692845E-2,1.1154222E-1,7.0714513E-3,1.3166092E-1],"categories":[],"categories_nodes":[],"categories_segments":[],"categories_sizes":[],"default_left":[0,0,0,0,0,0,0,0,0,0,0,0,0,0,0,0,0,0,0,0,0,0,0,0,0,0,0,0,0,0,0,0,0,0,0,0,0,0,0,0,0,0,0,0,0,0,0,0,0,0,0,0,0,0,0,0,0,0,0,0,0,0,0,0,0,0,0,0,0,0,0,0,0,0,0,0,0,0,0,0,0],"id":15,"left_children":[1,3,5,7,9,11,13,15,17,19,21,23,25,27,29,-1,-1,-1,31,33,35,37,39,41,43,45,47,49,51,53,55,-1,-1,-1,-1,-1,-1,57,59,61,63,-1,-1,65,67,69,71,-1,-1,73,75,77,-1,-1,79,-1,-1,-1,-1,-1,-1,-1,-1,-1,-1,-1,-1,-1,-1,-1,-1,-1,-1,-1,-1,-1,-1,-1,-1,-1,-1],"loss_changes":[2.5329326E2,4.9672546E1,9.453235E1,1.4539425E1,2.5809738E1,3.9854244E1,2.4511185E1,2.1059437E0,6.0987334E0,5.2500863E0,1.5887497E1,1.432246E1,8.831989E0,6.623993E0,1.7169474E1,0E0,0E0,0E0,1.0460882E0,6.490669E-1,2.631861E-1,7.358368E0,6.943788E0,2.2442436E-1,7.0647545E0,4.5126877E0,6.2259507E0,3.995407E0,8.641818E0,4.6552696E0,1.7985029E0,0E0,0E0,0E0,0E0,0E0,0E0,2.6222534E0,4.425376E0,2.485857E-1,1.2035465E-1,0E0,0E0,4.009285E0,5.2406964E0,2.7530308E0,1.6425779E0,0E0,0E0,3.0964813E0,3.138876E0,4.1973925E-1,0E0,0E0,1.2810812E0,0E0,0E0,0E0,0E0,0E0,0E0,0E0,0E0,0E0,0E0,0E0,0E0,0E0,0E0,0E0,0E0,0E0,0E0,0E0,0E0,0E0,0E0,0E0,0E0,0E0,0E0],"parents":[2147483647,0,0,1,1,2,2,3,3,4,4,5,5,6,6,7,7,8,8,9,9,10,10,11,11,12,12,13,13,14,14,18,18,19,19,20,20,21,21,22,22,23,23,24,24,25,25,26,26,27,27,28,28,29,29,30,30,37,37,38,38,39,39,40,40,43,43,44,44,45,45,46,46,49,49,50,50,51,51,54,54],"right_children":[2,4,6,8,10,12,14,16,18,20,22,24,26,28,30,-1,-1,-1,32,34,36,38,40,42,44,46,48,50,52,54,56,-1,-1,-1,-1,-1,-1,58,60,62,64,-1,-1,66,68,70,72,-1,-1,74,76,78,-1,-1,80,-1,-1,-1,-1,-1,-1,-1,-1,-1,-1,-1,-1,-1,-1,-1,-1,-1,-1,-1,-1,-1,-1,-1,-1,-1,-1],"split_conditions":[4.3E1,1.3E2,8E1,1.65E2,9.4E1,1.34E2,1.8E2,1.12E2,1.01E2,1.96E2,1.44E2,9.5E1,9.7E1,1.78E2,1.15E2,1.74542E-2,-1.03196084E-1,-6.542121E-2,1.11E2,2.13E2,1.1E2,1.48E2,1.11E2,1.53E2,1.38E2,1.51E2,1.05E2,1.59E2,1.67E2,7E1,1.87E2,3.8659226E-3,1.1556721E-1,-9.784158E-2,-6.519695E-3,7.4349694E-2,6.558038E-3,8.7E1,1.21E2,1.05E2,1.31E2,-8.5025065E-2,-1.4504296E-2,1.24E2,9.3E1,1.93E2,1.31E2,-6.588567E-2,1.19351886E-1,4.2E1,1.29E2,1.24E2,-8.787631E-2,-6.1349906E-2,1.05E2,-9.794526E-2,2.1301506E-2,-2.4230925E-2,1.17087476E-1,8.403004E-2,-6.572338E-2,1.4623189E-2,8.9965515E-2,-2.5092898E-2,-1.0397004E-1,-3.1165117E-2,1.1844265E-1,8.815306E-2,-7.182736E-2,-1.01944685E-1,3.218952E-2,-3.825099E-2,9.0281464E-2,2.4991047E-2,-1.0602458E-1,7.175052E-2,-7.3860556E-2,1.6692845E-2,1.1154222E-1,7.0714513E-3,1.3166092E-1],"split_indices":[39,379,189,344,209,156,276,37,103,61,342,113,170,306,259,0,0,0,34,246,194,89,311,306,89,381,34,381,100,47,355,0,0,0,0,0,0,282,24,112,193,0,0,337,259,43,21,0,0,371,156,191,0,0,62,0,0,0,0,0,0,0,0,0,0,0,0,0,0,0,0,0,0,0,0,0,0,0,0,0,0],"split_type":[0,0,0,0,0,0,0,0,0,0,0,0,0,0,0,0,0,0,0,0,0,0,0,0,0,0,0,0,0,0,0,0,0,0,0,0,0,0,0,0,0,0,0,0,0,0,0,0,0,0,0,0,0,0,0,0,0,0,0,0,0,0,0,0,0,0,0,0,0,0,0,0,0,0,0,0,0,0,0,0,0],"sum_hessian":[5.4870294E2,2.244627E2,3.2424023E2,2.7288446E1,1.9717427E2,8.577121E1,2.3846902E2,1.8355104E1,8.933343E0,1.061832E1,1.8655594E2,5.435418E1,3.1417028E1,2.19283E2,1.9186018E1,1.2837502E0,1.7071354E1,2.3118155E0,6.6215277E0,7.9875093E0,2.6308112E0,1.7846825E2,8.087693E0,4.53801E0,4.981617E1,2.5679968E1,5.7370615E0,2.1056094E2,8.722066E0,1.054627E1,8.639748E0,1.0419612E0,5.579566E0,6.959524E0,1.0279851E0,1.6303672E0,1.0004442E0,1.7250786E2,5.960388E0,3.1468549E0,4.940839E0,3.5113962E0,1.026614E0,4.353117E1,6.2849994E0,2.3398167E1,2.2818E0,2.1962624E0,3.540799E0,2.0663718E2,3.9237728E0,3.5027921E0,5.219274E0,1.008816E0,9.537455E0,7.527433E0,1.112315E0,1.0075278E0,1.7150034E2,2.617746E0,3.342642E0,1.0338165E0,2.1130383E0,1.0119278E0,3.928911E0,1.4822041E0,4.2048965E1,2.7003605E0,3.584639E0,2.2206371E1,1.1917967E0,1.0033125E0,1.2784876E0,1.4721552E0,2.0516502E2,1.921059E0,2.002714E0,1.0004978E0,2.502294E0,1.0323693E0,8.505085E0],"tree_param":{"num_deleted":"0","num_feature":"384","num_nodes":"81","size_leaf_vector":"1"}},{"base_weights":[-1.3501308E-2,-7.635777E-1,5.721615E-1,1.1181691E-1,-9.374474E-1,-4.6002793E-1,8.544236E-1,-6.407979E-1,7.6361185E-1,-1.0302673E-1,-9.880129E-1,-7.4701E-1,7.809495E-1,9.8121935E-1,-2.1509854E-1,-9.5418274E-1,3.8958174E-1,1.0286912E0,-4.796359E-1,8.361901E-1,-7.075343E-1,-1.018141E0,-2.9571654E-2,-8.633213E-1,5.792495E-1,1.1056745E-1,-7.1565956E-2,-4.2851228E-1,1.0398684E0,4.6530426E-1,-9.058959E-1,-1.6725713E-2,-1.0013683E-1,-5.2147694E-2,1.0226599E-1,-1.662323E-1,1.1949088E-1,2.165684E-2,-7.817272E-2,-1.6347736E-2,1.14086166E-1,-9.253258E-2,2.434563E-2,-1.0298327E0,2.1294462E-2,-8.29901E-2,1.13489226E-1,-9.481448E-1,3.1315783E-1,-2.4383022E-2,8.713475E-2,7.68314E-2,-8.555387E-1,1.0900525E0,-2.1391103E-1,-7.014001E-2,9.161888E-1,-9.8327294E-2,-4.0480816E-3,3.064791E-2,-5.548607E-2,2.5530348E-2,-1.0398113E-1,7.4729875E-2,-1.00492716E-1,-5.5293716E-2,8.12402E-2,-1.00968204E-1,1.9603814E-3,1.11883365E-1,-6.063762E-2,-8.831746E-2,8.7975465E-2,1.09449424E-1,-2.7700484E-2],"categories":[],"categories_nodes":[],"categories_segments":[],"categories_sizes":[],"default_left":[0,0,0,0,0,0,0,0,0,0,0,0,0,0,0,0,0,0,0,0,0,0,0,0,0,0,0,0,0,0,0,0,0,0,0,0,0,0,0,0,0,0,0,0,0,0,0,0,0,0,0,0,0,0,0,0,0,0,0,0,0,0,0,0,0,0,0,0,0,0,0,0,0,0,0],"id":16,"left_children":[1,3,5,7,9,11,13,15,17,19,21,23,25,27,29,31,33,35,37,39,41,43,45,47,49,-1,-1,51,53,55,57,-1,-1,-1,-1,59,-1,-1,-1,-1,-1,-1,-1,61,-1,-1,-1,63,65,-1,-1,-1,67,69,71,-1,73,-1,-1,-1,-1,-1,-1,-1,-1,-1,-1,-1,-1,-1,-1,-1,-1,-1,-1],"loss_changes":[2.2390733E2,3.4118515E1,8.378631E1,1.9093159E1,7.7692566E0,2.2704865E1,3.0739456E1,6.2307425E0,7.34155E0,7.2772126E0,5.045532E0,8.361053E0,6.698615E0,1.7100342E1,1.2021645E1,3.598919E-1,3.3835092E0,3.6636734E0,1.0807955E0,1.7304988E0,1.8212981E0,2.671753E0,6.894137E0,5.012371E0,1.3441699E0,0E0,0E0,5.131213E0,1.2419678E1,7.53082E0,8.029833E-1,0E0,0E0,0E0,0E0,7.227038E-1,0E0,0E0,0E0,0E0,0E0,0E0,0E0,2.4321136E0,0E0,0E0,0E0,5.0179977E0,2.148283E0,0E0,0E0,0E0,9.539561E-1,9.77919E0,6.844863E0,0E0,2.404748E0,0E0,0E0,0E0,0E0,0E0,0E0,0E0,0E0,0E0,0E0,0E0,0E0,0E0,0E0,0E0,0E0,0E0,0E0],"parents":[2147483647,0,0,1,1,2,2,3,3,4,4,5,5,6,6,7,7,8,8,9,9,10,10,11,11,12,12,13,13,14,14,15,15,16,16,17,17,18,18,19,19,20,20,21,21,22,22,23,23,24,24,27,27,28,28,29,29,30,30,35,35,43,43,47,47,48,48,52,52,53,53,54,54,56,56],"right_children":[2,4,6,8,10,12,14,16,18,20,22,24,26,28,30,32,34,36,38,40,42,44,46,48,50,-1,-1,52,54,56,58,-1,-1,-1,-1,60,-1,-1,-1,-1,-1,-1,-1,62,-1,-1,-1,64,66,-1,-1,-1,68,70,72,-1,74,-1,-1,-1,-1,-1,-1,-1,-1,-1,-1,-1,-1,-1,-1,-1,-1,-1,-1],"split_conditions":[1.85E2,9.3E1,1.23E2,1.53E2,7E1,1.78E2,1.71E2,1.59E2,1.71E2,9.6E1,1.75E2,1.53E2,1.35E2,1.14E2,1.47E2,1.21E2,1.52E2,1.61E2,1.21E2,1.63E2,1.6E2,2.02E2,1.47E2,1.97E2,1.64E2,1.1056745E-1,-7.1565956E-2,8.4E1,1.45E2,1.14E2,1.66E2,-1.6725713E-2,-1.0013683E-1,-5.2147694E-2,1.0226599E-1,8.8E1,1.1949088E-1,2.165684E-2,-7.817272E-2,-1.6347736E-2,1.14086166E-1,-9.253258E-2,2.434563E-2,3.8E1,2.1294462E-2,-8.29901E-2,1.13489226E-1,3.6E1,1.5E2,-2.4383022E-2,8.713475E-2,7.68314E-2,1.54E2,1.33E2,1.14E2,-7.014001E-2,1.16E2,-9.8327294E-2,-4.0480816E-3,3.064791E-2,-5.548607E-2,2.5530348E-2,-1.0398113E-1,7.4729875E-2,-1.00492716E-1,-5.5293716E-2,8.12402E-2,-1.00968204E-1,1.9603814E-3,1.11883365E-1,-6.063762E-2,-8.831746E-2,8.7975465E-2,1.09449424E-1,-2.7700484E-2],"split_indices":[210,259,375,96,189,276,152,306,8,115,314,148,3,111,14,37,297,61,89,239,173,77,64,43,77,0,0,382,342,203,292,0,0,0,0,69,0,0,0,0,0,0,0,137,0,0,0,124,110,0,0,0,148,376,363,0,115,0,0,0,0,0,0,0,0,0,0,0,0,0,0,0,0,0,0],"split_type":[0,0,0,0,0,0,0,0,0,0,0,0,0,0,0,0,0,0,0,0,0,0,0,0,0,0,0,0,0,0,0,0,0,0,0,0,0,0,0,0,0,0,0,0,0,0,0,0,0,0,0,0,0,0,0,0,0,0,0,0,0,0,0,0,0,0,0,0,0,0,0,0,0,0,0],"sum_hessian":[5.0770605E2,2.2247354E2,2.852325E2,3.69244E1,1.8554915E2,6.111489E1,2.2411763E2,1.7144665E1,1.9779736E1,1.0775286E1,1.7477385E2,4.995955E1,1.1155341E1,2.0043758E2,2.3680048E1,1.32029915E1,3.9416738E0,1.6445816E1,3.3339195E0,4.0694175E0,6.7058682E0,1.6938698E2,5.3868856E0,4.625233E1,3.7072175E0,9.381102E0,1.77424E0,7.753857E0,1.9268373E2,1.2094228E1,1.158582E1,1.0039825E0,1.2199009E1,1.6883144E0,2.2533593E0,2.0082927E0,1.4437524E1,1.0945364E0,2.239383E0,1.0587968E0,3.0106208E0,5.4782515E0,1.2276168E0,1.6795537E2,1.4315964E0,3.3628967E0,2.023989E0,4.332286E1,2.9294722E0,1.0143125E0,2.692905E0,1.8288695E0,5.9249873E0,1.853937E2,7.290021E0,3.2162588E0,8.877969E0,1.0509936E1,1.0758836E0,1.0014966E0,1.0067961E0,1.1046318E0,1.6685074E2,1.009834E0,4.2313026E1,1.0318526E0,1.8976195E0,4.906965E0,1.0180229E0,1.8263562E2,2.7580829E0,4.6418977E0,2.6481235E0,7.795729E0,1.0822399E0],"tree_param":{"num_deleted":"0","num_feature":"384","num_nodes":"75","size_leaf_vector":"1"}},{"base_weights":[-1.3383447E-2,-7.528738E-1,5.6384397E-1,-9.565734E-1,-7.6474674E-2,8.794541E-1,-4.609019E-1,1.7896752E-1,-1.002994E0,-9.082046E-1,4.231844E-1,1.0116814E0,-1.2652852E-1,-8.902093E-1,3.8639295E-1,8.973014E-2,-6.754887E-2,9.3905754E-2,-1.0318245E0,-1.0328608E-1,3.3476487E-2,-9.575546E-2,8.127633E-1,1.0758262E0,-2.6983967E-1,-6.6744006E-1,8.0781513E-1,7.128253E-2,-9.511816E-1,8.6032945E-1,-6.6414106E-1,7.975072E-2,-7.013249E-2,-1.0436698E0,1.7986085E-2,1.0450565E0,-7.334419E-2,-7.400239E-2,1.1102034E0,-8.822919E-1,7.961889E-1,-9.293376E-1,4.3663582E-1,-3.3271786E-2,1.0652419E0,1.6820282E-2,-9.9755496E-1,-7.079244E-2,1.073873E-1,-9.076196E-2,4.4069126E-2,-3.4019407E-2,-1.05679825E-1,-1.6694654E-2,1.140508E-1,1.1363661E-1,-1.5763473E-2,-2.3969127E-2,-9.6206665E-2,9.669019E-2,1.4889245E-2,-9.984899E-2,-4.3115723E-3,-2.970981E-2,8.283966E-2,1.14843704E-1,2.4495644E-2,-1.0226089E-1,-1.5910994E-2],"categories":[],"categories_nodes":[],"categories_segments":[],"categories_sizes":[],"default_left":[0,0,0,0,0,0,0,0,0,0,0,0,0,0,0,0,0,0,0,0,0,0,0,0,0,0,0,0,0,0,0,0,0,0,0,0,0,0,0,0,0,0,0,0,0,0,0,0,0,0,0,0,0,0,0,0,0,0,0,0,0,0,0,0,0,0,0,0,0],"id":17,"left_children":[1,3,5,7,9,11,13,15,17,19,21,23,25,27,29,-1,-1,31,33,-1,-1,-1,35,37,39,41,43,-1,45,47,49,-1,-1,51,-1,53,-1,-1,55,57,59,61,63,-1,65,-1,67,-1,-1,-1,-1,-1,-1,-1,-1,-1,-1,-1,-1,-1,-1,-1,-1,-1,-1,-1,-1,-1,-1],"loss_changes":[2.0150052E2,2.843888E1,8.615361E1,8.558289E0,2.0740461E1,2.7136612E1,2.3291328E1,4.958667E0,4.9310455E0,3.243287E0,1.7604952E1,1.5051285E1,1.2909645E1,4.8000717E0,1.1481218E1,0E0,0E0,3.262637E0,2.3266907E0,0E0,0E0,0E0,9.723816E0,1.1509003E1,6.812908E0,5.04665E0,3.12222E0,0E0,2.2990036E0,5.962985E0,2.3842998E0,0E0,0E0,1.0048828E0,0E0,2.7463856E0,0E0,0E0,5.7658997E0,9.843063E-2,2.914815E-1,7.7155113E-1,1.3262199E0,0E0,2.5978947E-1,0E0,6.6845703E-1,0E0,0E0,0E0,0E0,0E0,0E0,0E0,0E0,0E0,0E0,0E0,0E0,0E0,0E0,0E0,0E0,0E0,0E0,0E0,0E0,0E0,0E0],"parents":[2147483647,0,0,1,1,2,2,3,3,4,4,5,5,6,6,7,7,8,8,9,9,10,10,11,11,12,12,13,13,14,14,17,17,18,18,22,22,23,23,24,24,25,25,26,26,28,28,29,29,30,30,33,33,35,35,38,38,39,39,40,40,41,41,42,42,44,44,46,46],"right_children":[2,4,6,8,10,12,14,16,18,20,22,24,26,28,30,-1,-1,32,34,-1,-1,-1,36,38,40,42,44,-1,46,48,50,-1,-1,52,-1,54,-1,-1,56,58,60,62,64,-1,66,-1,68,-1,-1,-1,-1,-1,-1,-1,-1,-1,-1,-1,-1,-1,-1,-1,-1,-1,-1,-1,-1,-1,-1],"split_conditions":[1.86E2,1.48E2,1.26E2,7.3E1,1.49E2,1.16E2,1.45E2,1.06E2,6.7E1,1.96E2,1.09E2,1.45E2,1.3E2,4.1E1,1.13E2,8.973014E-2,-6.754887E-2,1.28E2,1.9E2,-1.0328608E-1,3.3476487E-2,-9.575546E-2,1.78E2,8.1E1,1.39E2,1.26E2,9.8E1,7.128253E-2,6.4E1,1.33E2,1.51E2,7.975072E-2,-7.013249E-2,8.3E1,1.7986085E-2,1.07E2,-7.334419E-2,-7.400239E-2,1.42E2,1.21E2,1.26E2,1.29E2,1.39E2,-3.3271786E-2,1.56E2,1.6820282E-2,1.73E2,-7.079244E-2,1.073873E-1,-9.076196E-2,4.4069126E-2,-3.4019407E-2,-1.05679825E-1,-1.6694654E-2,1.140508E-1,1.1363661E-1,-1.5763473E-2,-2.3969127E-2,-9.6206665E-2,9.669019E-2,1.4889245E-2,-9.984899E-2,-4.3115723E-3,-2.970981E-2,8.283966E-2,1.14843704E-1,2.4495644E-2,-1.0226089E-1,-1.5910994E-2],"split_indices":[61,379,248,185,96,376,34,229,259,43,280,342,283,124,115,0,0,251,134,0,0,0,152,163,206,209,269,0,189,173,314,0,0,178,0,72,0,0,329,356,200,9,344,0,109,0,314,0,0,0,0,0,0,0,0,0,0,0,0,0,0,0,0,0,0,0,0,0,0],"split_type":[0,0,0,0,0,0,0,0,0,0,0,0,0,0,0,0,0,0,0,0,0,0,0,0,0,0,0,0,0,0,0,0,0,0,0,0,0,0,0,0,0,0,0,0,0,0,0,0,0,0,0,0,0,0,0,0,0,0,0,0,0,0,0,0,0,0,0,0,0],"sum_hessian":[4.7006503E2,2.059354E2,2.6412964E2,1.5795311E2,4.7982277E1,2.0204413E2,6.2085526E1,6.091328E0,1.5186179E2,1.7700487E1,3.028179E1,1.7856738E2,2.347674E1,4.1173225E1,2.0912302E1,3.2820196E0,2.8093088E0,3.8314612E0,1.4803032E2,1.6240757E1,1.4597304E0,6.3430247E0,2.3938765E1,1.7020834E2,8.359037E0,1.5049767E1,8.426972E0,1.1169261E0,4.0056297E1,1.4535728E1,6.3765736E0,2.0313272E0,1.800134E0,1.4673453E2,1.2957917E0,2.1093857E1,2.844907E0,2.781078E0,1.6742728E2,5.4184175E0,2.9406202E0,1.2292202E1,2.7575638E0,1.4979243E0,6.9290485E0,1.4889162E0,3.8567383E1,1.4646049E0,1.3071124E1,5.371356E0,1.0052177E0,3.1812835E0,1.4355325E2,1.4852867E0,1.960857E1,1.6414374E2,3.2835317E0,1.0406207E0,4.3777966E0,1.9362218E0,1.0043985E0,1.1284951E1,1.0072516E0,1.0439569E0,1.713607E0,5.927794E0,1.0012544E0,3.7235096E1,1.3322858E0],"tree_param":{"num_deleted":"0","num_feature":"384","num_nodes":"69","size_leaf_vector":"1"}},{"base_weights":[-1.3754276E-2,6.66817E-1,-6.1668146E-1,-6.605138E-1,8.5978013E-1,7.0117104E-1,-8.018818E-1,-8.781606E-1,4.8344105E-1,9.4554156E-1,-6.628105E-1,-4.2203668E-1,9.894074E-1,-9.468179E-1,1.04438715E-1,2.5783712E-2,-9.678156E-1,-4.614718E-2,8.733404E-2,1.0142115E0,-6.099374E-1,4.979092E-2,-8.9962626E-1,7.9220615E-2,-8.5420474E-2,1.0836265E0,-2.9785378E-2,1.4839704E-1,-9.7807187E-1,8.543733E-1,-6.823342E-1,-2.0965615E-2,-1.00990534E-1,1.0562212E0,-8.185604E-2,-8.926798E-2,4.7664776E-2,-2.4843602E-2,-9.518788E-2,2.5259359E-2,1.11242294E-1,-7.4384965E-2,8.7565936E-2,2.4300739E-1,-9.9990624E-1,-5.215141E-1,1.1306827E0,-8.819839E-1,6.4815156E-2,1.0861949E-1,-6.719538E-2,-5.5673014E-2,7.753489E-2,-5.903518E-2,-1.0345838E-1,-6.4103976E-2,-1.3070854E-2,1.1878343E-1,2.4328543E-2,1.6982911E-2,-9.95311E-2],"categories":[],"categories_nodes":[],"categories_segments":[],"categories_sizes":[],"default_left":[0,0,0,0,0,0,0,0,0,0,0,0,0,0,0,0,0,0,0,0,0,0,0,0,0,0,0,0,0,0,0,0,0,0,0,0,0,0,0,0,0,0,0,0,0,0,0,0,0,0,0,0,0,0,0,0,0,0,0,0,0],"id":18,"left_children":[1,3,5,7,9,11,13,15,17,19,21,23,25,27,29,-1,31,-1,-1,33,35,-1,37,-1,-1,39,-1,41,43,45,47,-1,-1,49,-1,-1,-1,-1,-1,-1,-1,-1,-1,51,53,55,57,59,-1,-1,-1,-1,-1,-1,-1,-1,-1,-1,-1,-1,-1],"loss_changes":[1.7899936E2,5.3055458E1,5.7014023E1,7.0414057E0,2.4046494E1,9.816965E0,2.6799286E1,2.559761E0,2.2057176E0,1.8798615E1,3.238326E0,4.155802E0,3.16119E0,6.1469727E0,1.7649218E1,0E0,4.658661E-1,0E0,0E0,1.3443939E1,2.8281882E0,0E0,6.2526226E-2,0E0,0E0,2.4602509E-1,0E0,4.371527E0,4.7915955E0,6.3883886E0,4.46887E0,0E0,0E0,9.025925E0,0E0,0E0,0E0,0E0,0E0,0E0,0E0,0E0,0E0,2.050103E0,1.7724457E0,6.733179E-2,3.7122536E-1,1.7401676E0,0E0,0E0,0E0,0E0,0E0,0E0,0E0,0E0,0E0,0E0,0E0,0E0,0E0],"parents":[2147483647,0,0,1,1,2,2,3,3,4,4,5,5,6,6,7,7,8,8,9,9,10,10,11,11,12,12,13,13,14,14,16,16,19,19,20,20,22,22,25,25,27,27,28,28,29,29,30,30,33,33,43,43,44,44,45,45,46,46,47,47],"right_children":[2,4,6,8,10,12,14,16,18,20,22,24,26,28,30,-1,32,-1,-1,34,36,-1,38,-1,-1,40,-1,42,44,46,48,-1,-1,50,-1,-1,-1,-1,-1,-1,-1,-1,-1,52,54,56,58,60,-1,-1,-1,-1,-1,-1,-1,-1,-1,-1,-1,-1,-1],"split_conditions":[4.8E1,1.42E2,6.9E1,1.75E2,1.52E2,1.16E2,1.75E2,7.9E1,1E2,2.09E2,9.4E1,9.2E1,1.69E2,6.6E1,1.15E2,2.5783712E-2,7.2E1,-4.614718E-2,8.733404E-2,1.44E2,1.16E2,4.979092E-2,7.1E1,7.9220615E-2,-8.5420474E-2,6.2E1,-2.9785378E-2,1.27E2,4.6E1,1.13E2,1.53E2,-2.0965615E-2,-1.00990534E-1,1.18E2,-8.185604E-2,-8.926798E-2,4.7664776E-2,-2.4843602E-2,-9.518788E-2,2.5259359E-2,1.11242294E-1,-7.4384965E-2,8.7565936E-2,1.5E2,5.6E1,9.9E1,1.5E2,9.7E1,6.4815156E-2,1.0861949E-1,-6.719538E-2,-5.5673014E-2,7.753489E-2,-5.903518E-2,-1.0345838E-1,-6.4103976E-2,-1.3070854E-2,1.1878343E-1,2.4328543E-2,1.6982911E-2,-9.95311E-2],"split_indices":[39,344,189,379,58,117,276,102,108,166,251,178,147,259,259,0,309,0,0,140,283,0,4,0,0,188,0,375,69,193,67,0,0,98,0,0,0,0,0,0,0,0,0,31,98,159,1,178,0,0,0,0,0,0,0,0,0,0,0,0,0],"split_type":[0,0,0,0,0,0,0,0,0,0,0,0,0,0,0,0,0,0,0,0,0,0,0,0,0,0,0,0,0,0,0,0,0,0,0,0,0,0,0,0,0,0,0,0,0,0,0,0,0,0,0,0,0,0,0,0,0,0,0,0,0],"sum_hessian":[4.3422528E2,2.0392882E2,2.3029646E2,2.5576097E1,1.7835272E2,2.8032953E1,2.022635E2,2.1683064E1,3.8930337E0,1.692013E2,9.151438E0,5.6299186E0,2.2403034E1,1.7433904E2,2.7924465E1,1.4488704E0,2.0234194E1,1.0835373E0,2.8094966E0,1.6238062E2,6.8206687E0,1.3639091E0,7.787529E0,1.2591224E0,4.370796E0,2.1022514E1,1.3805187E0,4.7330613E0,1.6960597E2,1.4252949E1,1.3671516E1,1.3788196E0,1.8855373E1,1.5915623E2,3.22438E0,5.5539255E0,1.2667432E0,1.005919E0,6.78161E0,1.0313246E0,1.999119E1,2.115203E0,2.6178586E0,2.80154E0,1.6680444E2,2.2352178E0,1.2017732E1,1.2180791E1,1.4907256E0,1.5680801E2,2.3482177E0,1.1012765E0,1.7002634E0,1.4428033E1,1.523764E2,1.2213666E0,1.013851E0,1.0972503E1,1.045229E0,1.136268E0,1.1044523E1],"tree_param":{"num_deleted":"0","num_feature":"384","num_nodes":"61","size_leaf_vector":"1"}},{"base_weights":[-1.4074049E-2,-7.3225003E-1,5.4211336E-1,-9.352597E-1,-7.1631566E-2,9.1816074E-1,-2.6388705E-1,1.6993721E-1,-9.8266417E-1,-8.775803E-1,4.0458864E-1,1.0109107E0,-8.7549545E-2,-7.6918584E-1,5.580599E-1,7.786797E-1,-7.245139E-2,7.94177E-2,-1.0122654E0,-1.0072445E-1,3.1005908E-2,-9.230284E-2,7.74404E-1,-5.372239E-1,1.0457704E0,9.3545094E-2,-7.1085435E-1,3.218262E-1,-8.933511E-1,8.8275707E-1,-5.2324003E-1,8.711594E-2,2.3901327E-2,7.33145E-2,-6.642686E-2,-1.0248528E0,1.6188398E-2,1.0027102E0,-6.954364E-2,-6.95334E-2,-5.4688957E-3,1.086629E0,-1.9416635E-1,-8.7978534E-2,2.527732E-2,-5.8339722E-2,8.710924E-2,-9.512042E-1,5.6231637E-2,9.881658E-1,-4.3613877E-2,-8.856544E-2,2.5835788E-1,-1.8354455E-2,-1.03737555E-1,-1.0930796E-2,1.10760115E-1,1.1052846E-1,-2.054589E-2,6.838681E-2,-7.914565E-2,7.792602E-3,-9.888967E-2,-1.1780794E-2,1.0681178E-1,-2.3322793E-2,6.129662E-2],"categories":[],"categories_nodes":[],"categories_segments":[],"categories_sizes":[],"default_left":[0,0,0,0,0,0,0,0,0,0,0,0,0,0,0,0,0,0,0,0,0,0,0,0,0,0,0,0,0,0,0,0,0,0,0,0,0,0,0,0,0,0,0,0,0,0,0,0,0,0,0,0,0,0,0,0,0,0,0,0,0,0,0,0,0,0,0],"id":19,"left_children":[1,3,5,7,9,11,13,15,17,19,21,23,25,27,29,31,-1,33,35,-1,-1,-1,37,39,41,-1,43,45,47,49,51,-1,-1,-1,-1,53,-1,55,-1,-1,-1,57,59,-1,-1,-1,-1,61,-1,63,-1,-1,65,-1,-1,-1,-1,-1,-1,-1,-1,-1,-1,-1,-1,-1,-1],"loss_changes":[1.6139896E2,2.3582588E1,6.926497E1,7.2297287E0,1.6680368E1,1.4593735E1,3.0841269E1,4.0472393E0,4.1488953E0,2.7937374E0,1.4177862E1,8.249603E0,9.624072E0,6.487385E0,1.0452931E1,5.8066845E-3,0E0,2.643761E0,2.0277405E0,0E0,0E0,0E0,8.076851E0,2.5170732E-1,7.286209E0,0E0,1.7361398E0,3.198882E0,4.0176315E0,3.5252438E0,2.2681873E0,0E0,0E0,0E0,0E0,1.1241608E0,0E0,2.3890018E0,0E0,0E0,0E0,3.489685E0,3.3226404E0,0E0,0E0,0E0,0E0,1.6343613E0,0E0,1.9753475E0,0E0,0E0,6.754991E-1,0E0,0E0,0E0,0E0,0E0,0E0,0E0,0E0,0E0,0E0,0E0,0E0,0E0,0E0],"parents":[2147483647,0,0,1,1,2,2,3,3,4,4,5,5,6,6,7,7,8,8,9,9,10,10,11,11,12,12,13,13,14,14,15,15,17,17,18,18,22,22,23,23,24,24,26,26,27,27,28,28,29,29,30,30,35,35,37,37,41,41,42,42,47,47,49,49,52,52],"right_children":[2,4,6,8,10,12,14,16,18,20,22,24,26,28,30,32,-1,34,36,-1,-1,-1,38,40,42,-1,44,46,48,50,52,-1,-1,-1,-1,54,-1,56,-1,-1,-1,58,60,-1,-1,-1,-1,62,-1,64,-1,-1,66,-1,-1,-1,-1,-1,-1,-1,-1,-1,-1,-1,-1,-1,-1],"split_conditions":[1.86E2,1.48E2,1.2E2,7.3E1,1.49E2,1.43E2,1.45E2,1.24E2,6.7E1,1.96E2,1.09E2,6E1,1.16E2,7E1,1.5E2,1.32E2,-7.245139E-2,1.28E2,1.9E2,-1.0072445E-1,3.1005908E-2,-9.230284E-2,1.78E2,9.6E1,1.32E2,9.3545094E-2,1.41E2,1.09E2,1.72E2,1.78E2,1.51E2,8.711594E-2,2.3901327E-2,7.33145E-2,-6.642686E-2,6.6E1,1.6188398E-2,1.34E2,-6.954364E-2,-6.95334E-2,-5.4688957E-3,1.88E2,1.27E2,-8.7978534E-2,2.527732E-2,-5.8339722E-2,8.710924E-2,9.4E1,5.6231637E-2,6.3E1,-4.3613877E-2,-8.856544E-2,1.27E2,-1.8354455E-2,-1.03737555E-1,-1.0930796E-2,1.10760115E-1,1.1052846E-1,-2.054589E-2,6.838681E-2,-7.914565E-2,7.792602E-3,-9.888967E-2,-1.1780794E-2,1.0681178E-1,-2.3322793E-2,6.129662E-2],"split_indices":[61,379,248,185,96,89,34,19,259,43,280,9,279,189,147,222,0,251,134,0,0,0,152,366,323,0,330,209,71,152,52,0,0,0,0,189,0,257,0,0,0,50,293,0,0,0,0,45,0,258,0,0,116,0,0,0,0,0,0,0,0,0,0,0,0,0,0],"split_type":[0,0,0,0,0,0,0,0,0,0,0,0,0,0,0,0,0,0,0,0,0,0,0,0,0,0,0,0,0,0,0,0,0,0,0,0,0,0,0,0,0,0,0,0,0,0,0,0,0,0,0,0,0,0,0,0,0,0,0,0,0,0,0,0,0,0,0],"sum_hessian":[4.0206885E2,1.753421E2,2.2672675E2,1.3380713E2,4.153498E1,1.5450279E2,7.222395E1,5.3969445E0,1.2841017E2,1.5113793E1,2.6421186E1,1.4145241E2,1.3050386E1,4.4767155E1,2.7456795E1,3.2883816E0,2.108563E0,3.436235E0,1.24973946E2,1.37630625E1,1.3507307E0,5.430406E0,2.099078E1,2.797621E0,1.3865479E2,4.7513804E0,8.299006E0,4.4115896E0,4.0355564E1,2.125721E1,6.199587E0,2.2829158E0,1.0054659E0,1.8362652E0,1.5999696E0,1.23774185E2,1.1997602E0,1.844377E1,2.5470104E0,1.7750089E0,1.022612E0,1.3435126E2,4.303527E0,7.1351657E0,1.1638404E0,1.6425048E0,2.7690847E0,3.9146313E1,1.2092535E0,1.991623E1,1.3409806E0,4.1446476E0,2.0549393E0,2.0449717E0,1.2172921E2,1.5861219E0,1.6857647E1,1.3258157E2,1.7696824E0,1.6836135E0,2.6199133E0,1.3453887E0,3.7800922E1,1.3107778E0,1.860545E1,1.004591E0,1.0503483E0],"tree_param":{"num_deleted":"0","num_feature":"384","num_nodes":"67","size_leaf_vector":"1"}},{"base_weights":[-1.4356896E-2,-7.120375E-1,5.427479E-1,1.9469553E-1,-8.7359804E-1,-5.9376526E-1,7.7887213E-1,7.523981E-1,-8.228558E-1,-9.65867E-1,-1.9565511E-1,8.514457E-2,-7.651726E-1,9.4699234E-1,-2.7406073E-1,-5.512026E-2,9.879994E-1,-9.8928235E-2,2.6292374E-2,-9.845104E-1,3.8260065E-2,6.830887E-1,-7.593166E-1,2.2307014E-1,-9.7997206E-1,-4.1100594E-1,1.0158839E0,-6.5730095E-1,4.788146E-1,-2.5340158E-2,1.1042358E-1,-9.988362E-1,2.0925686E-2,1.0126231E-1,-4.3200415E-2,-9.2463784E-2,3.8372505E-2,-5.970297E-2,9.012695E-1,-2.2021497E-2,-1.0232409E-1,7.14231E-2,-7.6205796E-1,1.0652237E0,-3.313651E-1,6.535121E-2,-8.1614316E-1,9.124606E-2,-5.5344947E-2,-1.0690402E-2,-1.01613574E-1,1.06872275E-1,1.9437077E-2,-8.617795E-3,-8.7077305E-2,1.0872822E-1,-5.7204187E-2,5.336665E-2,-8.2500346E-2,2.4918048E-2,-9.092971E-2],"categories":[],"categories_nodes":[],"categories_segments":[],"categories_sizes":[],"default_left":[0,0,0,0,0,0,0,0,0,0,0,0,0,0,0,0,0,0,0,0,0,0,0,0,0,0,0,0,0,0,0,0,0,0,0,0,0,0,0,0,0,0,0,0,0,0,0,0,0,0,0,0,0,0,0,0,0,0,0,0,0],"id":20,"left_children":[1,3,5,7,9,11,13,15,17,19,21,-1,23,25,27,-1,29,-1,-1,31,-1,33,35,37,39,41,43,45,47,-1,-1,49,-1,-1,-1,-1,-1,-1,51,-1,-1,-1,53,55,57,-1,59,-1,-1,-1,-1,-1,-1,-1,-1,-1,-1,-1,-1,-1,-1],"loss_changes":[1.4511964E2,2.4452492E1,5.61766E1,1.5309106E1,8.6230545E0,9.639058E0,3.0765251E1,5.8406143E0,2.0024862E0,3.487587E0,9.498807E0,0E0,7.2153683E0,1.4341003E1,7.3845496E0,0E0,2.4388103E0,0E0,0E0,2.301155E0,0E0,3.234319E0,2.531516E0,4.2643785E0,6.7085266E-1,3.6639175E0,9.787476E0,4.001926E0,4.463875E0,0E0,0E0,1.7592697E0,0E0,0E0,0E0,0E0,0E0,0E0,2.7352142E-1,0E0,0E0,0E0,4.0281057E-1,5.575302E0,2.9071038E0,0E0,1.7452316E0,0E0,0E0,0E0,0E0,0E0,0E0,0E0,0E0,0E0,0E0,0E0,0E0,0E0,0E0],"parents":[2147483647,0,0,1,1,2,2,3,3,4,4,5,5,6,6,7,7,8,8,9,9,10,10,12,12,13,13,14,14,16,16,19,19,21,21,22,22,23,23,24,24,25,